{"version":"0.7.0","architecture":"SlimmableContainer","config":{"submodels":[{"max_value":0.5,"model":{"version":"0.7.0","metadata":{"date":{"year":2026,"month":5,"day":7,"hour":20,"minute":52,"second":1},"loudness":-18.081823348999023,"gain":0.8175040949548603},"architecture":"WaveNet","config":{"layers":[{"input_size":1,"condition_size":1,"head":{"out_channels":1,"kernel_size":16,"bias":true},"channels":3,"kernel_sizes":[6,6,6,6,6,6,6,6,6,6,6,6,6,6,15,15,6,6,6,6,6,6,6],"dilations":[1,3,7,17,41,101,239,1,3,7,17,41,101,239,1,13,1,3,7,17,41,101,239],"activation":[{"type":"LeakyReLU","negative_slope":0.01},{"type":"LeakyReLU","negative_slope":0.01},{"type":"LeakyReLU","negative_slope":0.01},{"type":"LeakyReLU","negative_slope":0.01},{"type":"LeakyReLU","negative_slope":0.01},{"type":"LeakyReLU","negative_slope":0.01},{"type":"LeakyReLU","negative_slope":0.01},{"type":"LeakyReLU","negative_slope":0.01},{"type":"LeakyReLU","negative_slope":0.01},{"type":"LeakyReLU","negative_slope":0.01},{"type":"LeakyReLU","negative_slope":0.01},{"type":"LeakyReLU","negative_slope":0.01},{"type":"LeakyReLU","negative_slope":0.01},{"type":"LeakyReLU","negative_slope":0.01},{"type":"LeakyReLU","negative_slope":0.01},{"type":"LeakyReLU","negative_slope":0.01},{"type":"LeakyReLU","negative_slope":0.01},{"type":"LeakyReLU","negative_slope":0.01},{"type":"LeakyReLU","negative_slope":0.01},{"type":"LeakyReLU","negative_slope":0.01},{"type":"LeakyReLU","negative_slope":0.01},{"type":"LeakyReLU","negative_slope":0.01},{"type":"LeakyReLU","negative_slope":0.01}],"bottleneck":3,"head1x1":{"active":false,"out_channels":1,"groups":1},"layer1x1":{"active":true,"groups":1},"groups_input":1,"groups_input_mixin":1,"conv_pre_film":{"active":false,"shift":true,"groups":1},"conv_post_film":{"active":false,"shift":true,"groups":1},"input_mixin_pre_film":{"active":false,"shift":true,"groups":1},"input_mixin_post_film":{"active":false,"shift":true,"groups":1},"activation_pre_film":{"active":false,"shift":true,"groups":1},"activation_post_film":{"active":false,"shift":true,"groups":1},"layer1x1_post_film":{"active":false,"shift":true,"groups":1},"head1x1_post_film":{"active":false,"shift":true,"groups":1},"gating_mode":["none","none","none","none","none","none","none","none","none","none","none","none","none","none","none","none","none","none","none","none","none","none","none"],"secondary_activation":[null,null,null,null,null,null,null,null,null,null,null,null,null,null,null,null,null,null,null,null,null,null,null],"slimmable":null}],"head":null,"head_scale":0.010308252087314401},"weights":[6.545554161071777,6.250085353851318,6.860929489135742,-0.07050264626741409,0.005428468808531761,0.036844514310359955,0.1818416565656662,-0.282902330160141,-0.4572679102420807,-0.09782242774963379,-0.0794513151049614,0.17368648946285248,0.19959120452404022,-0.23300734162330627,-0.42362910509109497,-0.03534258157014847,-0.06518018245697021,0.18441565334796906,0.2648925483226776,-0.39737600088119507,-0.48471707105636597,1.4898978471755981,2.081697702407837,2.344057321548462,2.5171265602111816,2.3384103775024414,1.4113582372665405,1.4220139980316162,1.8600879907608032,2.4182686805725098,2.4341824054718018,2.220611333847046,1.3448456525802612,1.4627143144607544,2.022104501724243,2.577131986618042,2.52408766746521,2.2847652435302734,1.2779743671417236,-1.7411137819290161,-2.177131175994873,-2.774461269378662,-2.8543686866760254,-2.5796010494232178,-1.6350128650665283,-1.6101515293121338,-2.2711052894592285,-2.756277322769165,-2.816760540008545,-2.6778202056884766,-1.496346354484558,-1.66258704662323,-2.2085278034210205,-2.751786947250366,-2.8655130863189697,-2.687530755996704,-1.5537458658218384,-0.8295830488204956,-0.30918624997138977,0.34673231840133667,-0.14020401239395142,0.6458621025085449,-0.5489001870155334,0.8867445588111877,1.7037700414657593,-1.5021178722381592,-0.03275313228368759,0.5523332953453064,-0.47597306966781616,0.48951831459999084,1.6607537269592285,-1.4477437734603882,1.3109418153762817,3.69535756111145,-2.708207130432129,-0.4217827022075653,-0.08827611804008484,-0.2841320335865021,-0.030614793300628662,0.25997212529182434,0.8231950402259827,0.20469459891319275,0.21525223553180695,0.35656166076660156,1.0113656520843506,1.1839345693588257,1.8417494297027588,-0.5415053367614746,-0.27111342549324036,-0.7357265949249268,-0.1807023584842682,-0.28878310322761536,0.04460066556930542,0.375647634267807,0.10055041313171387,-0.02814018353819847,-0.09737765789031982,-0.12488213926553726,-0.08952785283327103,-0.24548597633838654,-0.15622609853744507,0.06177394837141037,-0.265819787979126,-0.48324471712112427,-0.7901432514190674,0.23632681369781494,-0.014842642471194267,0.13839787244796753,0.3632986545562744,-0.03260192275047302,-0.11930536478757858,0.10086742788553238,-0.02107643336057663,0.11119663715362549,-0.16635200381278992,-0.023951465263962746,-0.1429346799850464,-0.3685753643512726,-0.5080949068069458,-0.1773531138896942,-0.46604037284851074,-0.600563645362854,-0.5660581588745117,0.26595592498779297,0.1316353678703308,0.06958016753196716,0.38875123858451843,0.4323234558105469,-0.22204037010669708,2.293001890182495,-0.48578137159347534,-0.2713887095451355,0.05484968051314354,0.06013686954975128,-0.03560614585876465,0.2758308947086334,-0.732707142829895,0.8622729778289795,0.3188232183456421,-0.12894903123378754,0.33387190103530884,0.2377743422985077,-0.08467268943786621,1.2076207399368286,1.7450402975082397,1.8465781211853027,-0.36454224586486816,-0.04157037287950516,-0.1297394335269928,-0.3018706142902374,-0.21454353630542755,-0.38674038648605347,0.3077253997325897,-0.11926158517599106,-0.2568075954914093,-0.582736611366272,-0.30919885635375977,-0.1674778312444687,-0.17291437089443207,-0.1363668590784073,-0.26783737540245056,-0.33313557505607605,-0.21473129093647003,0.08122193068265915,0.15670937299728394,0.15574835240840912,0.28999829292297363,0.49806228280067444,0.27013278007507324,0.30090567469596863,-0.0664299800992012,0.1724659651517868,0.17540445923805237,0.48332566022872925,0.292866975069046,0.24726437032222748,0.4135388731956482,-0.044450681656599045,0.24210068583488464,0.4681416153907776,0.3527477979660034,0.1372034251689911,-0.6815851330757141,0.04938175156712532,0.3929443955421448,0.6177257895469666,0.5768567323684692,0.2824612259864807,-0.13754507899284363,0.3838553726673126,-0.09110917150974274,0.24575184285640717,0.23864127695560455,0.3484231233596802,0.5251206755638123,-0.07220537215471268,0.3554624319076538,0.4915960133075714,0.10692217946052551,0.09750743210315704,-0.6796014308929443,-0.3385869264602661,0.5686292052268982,0.7002954483032227,0.1209152489900589,0.0468628816306591,-0.21042951941490173,0.42073461413383484,-0.09691055864095688,-0.21635417640209198,0.38585028052330017,-0.1373056322336197,-0.16162489354610443,0.7404248714447021,-0.2706175446510315,-0.3459593951702118,0.019635658711194992,0.10458137840032578,-1.634416937828064,0.1320270597934723,0.1642722189426422,0.1282622367143631,-0.036078862845897675,-0.2632972300052643,0.0952298566699028,-0.00024139026936609298,-0.18830329179763794,-0.061788201332092285,0.04704795777797699,0.626535177230835,0.3205054998397827,-0.1360841542482376,-0.058468133211135864,-0.13424909114837646,-0.12603703141212463,0.1614694893360138,-0.38293027877807617,0.0424344539642334,0.2175416648387909,0.2644011378288269,0.0743866115808487,-0.2641218602657318,0.16468699276447296,0.010296794585883617,-0.17562870681285858,-0.2849521338939667,0.12286192923784256,0.18312273919582367,1.028052806854248,-0.04144744947552681,-0.09463191777467728,-0.09073252230882645,-0.2133738249540329,-0.20669665932655334,0.008210393600165844,-0.04517168179154396,0.0631219744682312,0.12479837238788605,0.15513969957828522,-0.1537548452615738,0.044645074754953384,-0.021346138790249825,-0.1865048110485077,-0.23647664487361908,-0.23891447484493256,-0.12204275280237198,0.3918944299221039,0.05857807770371437,0.07037476450204849,0.03853990137577057,-0.006372072733938694,-0.06893979012966156,0.18398305773735046,0.5533316731452942,0.8791491389274597,-0.41742968559265137,0.13544870913028717,-0.1553063988685608,0.059049006551504135,0.378123939037323,0.6585697531700134,-0.7429380416870117,0.3498365879058838,0.2261907011270523,-0.47736164927482605,0.5147833228111267,0.3583674430847168,-0.6512961983680725,0.2467743307352066,-0.5852975845336914,-0.20111215114593506,-0.013747230172157288,-0.037528567016124725,0.03715017810463905,-0.15290257334709167,-0.06194833293557167,0.06815844774246216,-0.033597785979509354,-0.028333036229014397,-0.1373678594827652,0.18142500519752502,0.021425725892186165,0.06615880876779556,0.02485264278948307,0.04934866726398468,0.06171621382236481,0.06028253212571144,0.07160133868455887,-0.046725668013095856,0.04048123583197594,0.037389371544122696,-0.042106352746486664,-0.0988364964723587,-0.11829996109008789,0.0757080689072609,0.07679171860218048,-0.006030415650457144,0.096682108938694,0.3316092789173126,0.3699313998222351,-0.3579782247543335,-0.08081957697868347,-0.035785745829343796,-0.01588178426027298,-0.09853495657444,0.02753940224647522,-0.2350534051656723,-0.03390682116150856,-0.032813504338264465,-0.03839027136564255,0.004813283681869507,0.044720981270074844,0.4986845850944519,-0.12686683237552643,-0.14705507457256317,-0.06265521794557571,-0.09527135640382767,-0.22034519910812378,0.16131046414375305,0.11145061999559402,0.1225266382098198,0.06928220391273499,0.039397090673446655,0.04155781865119934,0.2801035940647125,0.030489541590213776,0.28870052099227905,-0.20741108059883118,0.06515965610742569,-0.06241006404161453,0.04427855461835861,-0.2026320844888687,-0.04271229729056358,-0.6186074614524841,-0.11760938912630081,0.14383457601070404,-0.4369273781776428,-0.4447459578514099,-0.8885633945465088,-0.3928876221179962,-0.20561999082565308,-0.09750331938266754,-0.43980276584625244,-0.013185442425310612,-0.01821926236152649,-0.018730884417891502,0.007539465092122555,0.16495469212532043,0.39562496542930603,0.033781830221414566,0.04460419341921806,0.07639941573143005,0.11514725536108017,-0.07007491588592529,0.046835336834192276,-0.003373516257852316,-0.0025422542821615934,-0.011686325073242188,-0.0419919453561306,-0.08688682317733765,-0.47257640957832336,-0.0034577164333313704,-0.00210211263038218,0.0072324625216424465,0.021798668429255486,0.014030092395842075,0.33923330903053284,-0.017313020303845406,0.011493048630654812,-0.011878672055900097,-0.01849239133298397,-0.23933178186416626,0.1362176090478897,0.008853868581354618,-0.002596421167254448,-0.0021325682755559683,-0.005656270310282707,0.08210109174251556,0.08497897535562515,0.0014288806123659015,0.006935613229870796,0.003041194984689355,-0.001200909842737019,-0.0006527214427478611,-0.06941638886928558,0.02135012485086918,0.03381652012467384,0.028868630528450012,0.04235919937491417,0.09021134674549103,0.9627143740653992,-0.00945525337010622,-0.01794564537703991,-0.012474313378334045,-0.014107114635407925,-0.03106287308037281,-0.33469265699386597,1.0123404264450073,0.2596155107021332,1.430233359336853,-0.08254122734069824,-0.073307566344738,-0.49705249071121216,-0.08970925211906433,0.06611544638872147,0.1359436810016632,0.15868975222110748,-0.34114402532577515,-0.9783977270126343,0.6174169182777405,0.07297367602586746,-0.31548255681991577,-0.11315769702196121,-1.8553940057754517,0.811190664768219,-0.014704366214573383,0.00034991474240086973,-0.006362378131598234,-0.008740543387830257,-0.004348150920122862,-0.6115769743919373,0.12894567847251892,0.1004996970295906,0.1175897866487503,0.10565432161092758,0.03450975567102432,0.27229180932044983,-0.03268301114439964,-0.03376969322562218,-0.035285305231809616,-0.031431280076503754,-0.004978406708687544,-0.2667892575263977,0.009834454394876957,0.001696965773589909,-0.004098435863852501,-0.05618972331285477,-0.07935193181037903,0.23312512040138245,0.0468318946659565,-0.03378993272781372,0.03728345036506653,0.1901271492242813,0.24845461547374725,0.11148291081190109,-0.023565126582980156,0.01274205930531025,-0.009843358770012856,-0.028236988931894302,-0.03403681889176369,0.040611810982227325,-0.002103574341163039,0.0052220989018678665,-0.0004360353050287813,0.009093829430639744,0.010364108718931675,0.5604534149169922,0.05743877589702606,0.06468668580055237,0.060628388077020645,-0.003083533374592662,-0.001074179308488965,-0.21004021167755127,-0.01660725474357605,-0.025931434705853462,-0.01874978095293045,-0.005087866447865963,-0.005370364058762789,-0.5199349522590637,-2.9527359008789062,0.02469089813530445,1.2071565389633179,0.5889995098114014,-0.09202105551958084,-0.1882794052362442,1.0506234169006348,-0.5662690997123718,-0.5940859913825989,0.1224418357014656,0.32199904322624207,0.17675994336605072,0.44677674770355225,-0.03601691871881485,0.5327353477478027,-1.502157211303711,-0.547380805015564,0.7059810757637024,-0.11776020377874374,-0.4635573625564575,-0.3750622868537903,0.09174735099077225,0.1270150989294052,0.35605740547180176,-0.22269926965236664,-0.41527581214904785,-0.3013204336166382,-0.1317276954650879,-0.2514219284057617,-0.5749959349632263,0.22868263721466064,0.24863995611667633,0.28366905450820923,-0.1119314581155777,0.020799770951271057,-0.05089111626148224,-0.28009530901908875,-0.060483258217573166,0.02992858551442623,0.294050931930542,0.1869642436504364,-0.599681556224823,-0.20037350058555603,-0.2253759354352951,-0.14406266808509827,-0.14281311631202698,-0.1748284548521042,-0.16693870723247528,0.22111696004867554,0.14114385843276978,0.0007381713949143887,0.0700756311416626,0.299311101436615,0.21863646805286407,-0.0033474836964160204,0.2043556571006775,0.2988133728504181,-0.15162919461727142,-0.1800331473350525,0.15133678913116455,-0.062157075852155685,0.18526774644851685,-0.014396564103662968,-0.15985937416553497,-0.0362808033823967,-0.029744811356067657,-0.29581180214881897,-0.04182722046971321,-0.006861289497464895,-0.0053831650875508785,0.08060463517904282,0.08221947401762009,1.0638868808746338,0.30504316091537476,0.05761894956231117,1.137840747833252,-1.015537977218628,0.6188145279884338,-0.45135611295700073,0.6289621591567993,-0.4695182144641876,0.5963039398193359,-0.4866648018360138,0.43212899565696716,0.7062369585037231,-0.9632080793380737,-0.11681748181581497,-0.7200012803077698,0.8163145184516907,0.12059611082077026,-0.055808812379837036,0.0040559363551437855,-0.037683483213186264,0.022259511053562164,0.19487987458705902,-0.4446220099925995,0.006963625550270081,-0.0004295019607525319,-0.02450338937342167,-0.026369549334049225,-0.1044308990240097,0.3652608394622803,0.0034866593778133392,-0.002764743519946933,0.07403367757797241,0.09985993802547455,0.12460343539714813,0.19312793016433716,-0.2171567976474762,-0.11125481128692627,0.030053947120904922,-0.0868140235543251,-0.08445629477500916,-0.3306802213191986,-0.0003726176219061017,-0.15551728010177612,-0.005195312201976776,0.16631770133972168,0.19499249756336212,-0.3133087158203125,0.05131329223513603,0.059034839272499084,0.040248170495033264,0.292570024728775,-0.16857996582984924,0.3023846447467804,0.16673776507377625,0.003666125237941742,-0.09287221729755402,0.008974377065896988,-0.19163194298744202,-0.15008963644504547,0.35428211092948914,0.07697634398937225,0.13790427148342133,0.08686424046754837,0.31386566162109375,-0.2817540466785431,-0.13626499474048615,0.06355713307857513,0.07220865786075592,-0.11274638026952744,0.19795387983322144,-0.5665795207023621,-0.09337485581636429,-0.0010377938160672784,0.6475725173950195,-1.7776713371276855,-0.8101022839546204,-0.052079107612371445,0.9344820380210876,0.42782554030418396,0.5654348731040955,-0.25535446405410767,0.5965620875358582,0.46110525727272034,-0.35516563057899475,0.6508270502090454,0.925082802772522,-0.7873256802558899,-0.0883529931306839,0.2900974154472351,-0.030652370303869247,0.002608251292258501,-0.06617915630340576,-0.09792198985815048,-0.07343293726444244,-0.6619845032691956,-0.11615454405546188,-0.044336047023534775,-0.1531074196100235,-0.2300921082496643,-0.2170579582452774,-0.18750567734241486,-0.047400638461112976,-0.04055322706699371,0.03450586646795273,0.17098724842071533,0.07294505089521408,0.24373704195022583,-0.041958872228860855,0.0513138547539711,-0.027516663074493408,0.07149382680654526,0.036440227180719376,0.43054550886154175,-0.21712100505828857,-0.05854610353708267,-0.276922345161438,-0.06372115761041641,0.18301807343959808,0.49880924820899963,0.05275188013911247,-0.10109435766935349,0.08325064927339554,-0.028685713186860085,-0.024317506700754166,-0.5660619735717773,0.009207508526742458,-0.0591389536857605,-0.0036502196453511715,-0.10898095369338989,0.015992727130651474,0.039886850863695145,-0.039770856499671936,-0.075493723154068,0.04628515988588333,-0.1480308175086975,0.02149079740047455,-0.9308244585990906,0.016800425946712494,0.14365524053573608,-0.05452491715550423,0.14594097435474396,0.029924962669610977,-0.01995530165731907,-0.3872316777706146,0.31668540835380554,-0.06582168489694595,-0.0499657541513443,0.6000639796257019,0.2875255048274994,0.3587391674518585,-0.0696125328540802,0.26386329531669617,0.5618436336517334,0.1411578506231308,0.5183184146881104,-0.27441272139549255,1.2523974180221558,0.5381876230239868,0.0013449781108647585,-0.2945205569267273,0.12249168753623962,-0.03398262336850166,-0.015582907013595104,-0.008982094936072826,0.005907467100769281,-0.0035829488188028336,-0.29540345072746277,0.08257782459259033,0.184086412191391,0.2691258192062378,0.3722050189971924,0.3193008601665497,-0.3679288923740387,0.01736360229551792,-0.007609058637171984,-0.017749719321727753,0.03786595165729523,0.06669746339321136,0.31547126173973083,0.01452996302396059,0.017681358382105827,6.0583450249396265e-05,0.011656423099339008,0.1855793595314026,-0.4588020443916321,-0.06961843371391296,-0.11667561531066895,-0.18583855032920837,-0.1660754382610321,-0.12817277014255524,0.5044655799865723,0.033451925963163376,0.05210379138588905,0.10540533810853958,0.06021314114332199,-0.1220875009894371,0.2792946994304657,0.030505981296300888,0.08577165007591248,0.17411135137081146,0.2122262716293335,0.16557461023330688,0.07851659506559372,0.006926309317350388,0.07066171616315842,0.13371439278125763,0.12949831783771515,-0.08162601292133331,0.3743758797645569,0.011006110347807407,-0.044701479375362396,-0.10361511260271072,0.004821242298930883,0.04884829744696617,0.8664685487747192,0.3935199975967407,-0.3078092038631439,0.15385031700134277,0.2613661289215088,-0.0230838805437088,-0.20712772011756897,0.37652355432510376,-0.4186418354511261,-0.3940829336643219,0.6580505967140198,0.16897964477539062,-0.3217141032218933,0.2391854077577591,-0.4428948163986206,-0.72461998462677,-0.03133323788642883,-0.6401215195655823,0.7778269052505493,-0.014422884210944176,-0.009459423832595348,-0.04073932394385338,-0.04887806996703148,-0.056066159158945084,-0.02655583992600441,-0.03208378329873085,-0.0266730859875679,-0.05481313541531563,-0.09315404295921326,-0.12943755090236664,0.4541475474834442,0.009416645392775536,0.0026499712839722633,0.041158802807331085,0.0313556045293808,0.021573763340711594,-0.7712342739105225,0.04106515273451805,0.04605039954185486,0.039163537323474884,0.04869804531335831,0.1098570004105568,0.13540244102478027,0.037660520523786545,0.07603217661380768,0.09861322492361069,0.09767523407936096,0.3566943407058716,-0.3729425072669983,-0.034270212054252625,-0.03856706991791725,-0.020247681066393852,0.017014626413583755,-0.020890116691589355,0.7097751498222351,0.018518667668104172,0.02747628465294838,0.03105071745812893,0.014422658830881119,0.024628426879644394,-0.5012691020965576,0.028524750843644142,0.021581048145890236,0.02354532666504383,0.020902151241898537,0.050010796636343,-0.10561999678611755,-0.014644858427345753,-0.052812714129686356,-0.04400336742401123,-0.044719044119119644,0.006220191717147827,0.03293868899345398,-1.6198041439056396,0.13638965785503387,-0.5290911197662354,-0.7087838649749756,-0.3074136972427368,0.23004665970802307,0.5895603895187378,0.47201231122016907,0.5486621260643005,-0.5303070545196533,0.38974520564079285,0.31847167015075684,0.5368972420692444,-0.11962907761335373,-0.22075708210468292,-0.3101349472999573,-0.36439836025238037,0.17785480618476868,-0.013015863485634327,-0.0006226791883818805,-0.000807979900855571,0.0010972870513796806,0.008719637989997864,-0.5356205701828003,-0.016865620389580727,0.024924930185079575,0.059360895305871964,0.13422641158103943,0.502968430519104,-0.02332307957112789,0.006569656543433666,-0.0017416143091395497,-0.020132247358560562,-0.013826603069901466,0.0012862279545515776,-0.21086552739143372,-0.010963916778564453,-0.01392455119639635,-0.028545472770929337,-0.020585574209690094,0.023373322561383247,-0.44412684440612793,-0.015767894685268402,-0.01502065360546112,-0.010796085000038147,0.05428062751889229,0.031980250030756,-0.1764799952507019,0.003167429706081748,0.036996565759181976,0.06764139235019684,0.0858103483915329,0.006888322066515684,0.3399786353111267,-0.01925547979772091,-0.022039122879505157,-0.020495979115366936,0.02260439656674862,0.03527984395623207,0.17334869503974915,0.014347078278660774,0.002813108032569289,-0.0030504134483635426,-0.03411167487502098,-0.3645420968532562,-0.14540502429008484,0.06809258460998535,0.05303388088941574,0.09939701110124588,0.02001463621854782,0.08951430767774582,0.1930866688489914,-0.3244667947292328,0.20935039222240448,-0.15757164359092712,-0.4263085722923279,-0.03138457611203194,-0.3451228439807892,0.176612988114357,-0.24854491651058197,-0.12367653846740723,0.13945399224758148,-0.14870765805244446,-0.21324801445007324,0.18112865090370178,-0.012734745629131794,-0.17703112959861755,-0.6759443879127502,-0.5935068130493164,0.31093770265579224,-0.004482994321733713,0.01600215956568718,0.032300516963005066,-0.005563028156757355,-0.21856851875782013,0.010018955916166306,-0.009889652952551842,0.006357021164149046,0.0605911910533905,-0.035680290311574936,-0.08833450824022293,0.06811261177062988,0.010354015976190567,-0.050276920199394226,-0.05157912150025368,0.05490095913410187,0.11012814193964005,-0.12531277537345886,-0.0019315554527565837,-0.0005400091176852584,-0.0064730956219136715,-0.0036267817486077547,0.012292454950511456,0.09120815247297287,-0.001297827111557126,0.0016804415499791503,-0.0013791926903650165,-7.843414641683921e-05,0.02581753022968769,0.16505929827690125,0.008135220035910606,0.0009614600567147136,0.015141595155000687,0.0011517071397975087,-0.013229010626673698,-0.5889104008674622,-6.261943781282753e-06,0.0005272894049994648,-0.0019353654934093356,-0.004584877751767635,0.00274079036898911,-1.1081764698028564,0.00011389423889340833,0.0014683789340779185,0.0031553159933537245,-0.008913354016840458,0.01630096137523651,-0.21522797644138336,0.00212834682315588,-0.002637746511027217,0.006569600198417902,0.0033554485999047756,0.001563055906444788,0.08288778364658356,-0.06256861984729767,1.1629701852798462,-0.6374461650848389,0.031872037798166275,0.4719312787055969,-0.14568474888801575,0.0020417168270796537,-0.027787741273641586,0.11993326246738434,-0.01315435953438282,-0.30859747529029846,0.744040846824646,0.10485359281301498,0.6114253401756287,-0.6323918700218201,-0.7587656378746033,-0.8049030900001526,0.3464162349700928,-0.08099742978811264,-0.0068587311543524265,-0.02796880155801773,-0.055430345237255096,-0.010856950655579567,-0.010509648360311985,0.06964978575706482,0.07654779404401779,-0.019093137234449387,0.08715511113405228,-0.022661998867988586,-0.23109634220600128,-0.47484859824180603,-0.4067535698413849,-0.721860408782959,-0.19184421002864838,-0.12433084100484848,-0.15582086145877838,-0.19420978426933289,-0.1313873678445816,-0.21342505514621735,-0.048191629350185394,-0.24240326881408691,-0.059813205152750015,-0.1429891288280487,-0.014552815817296505,0.11480218172073364,0.2554152011871338,0.3175719082355499,0.6665983200073242,-0.07052845507860184,-0.17571286857128143,-0.09504005312919617,-0.1240447387099266,-0.16960613429546356,-0.05589756742119789,-0.22288210690021515,-0.14081209897994995,-0.15370303392410278,-0.22904229164123535,-0.043332211673259735,-0.0803980827331543,-0.055886853486299515,-0.254478394985199,0.3601243793964386,-0.01238536462187767,0.0327129065990448,0.05859687924385071,-0.030041107907891273,-0.03854970633983612,0.01743200235068798,-0.004556029569357634,-0.03373246639966965,-0.19261695444583893,0.02106929011642933,-0.1493617296218872,-0.061444029211997986,-0.1714424043893814,0.10502858459949493,0.6097105145454407,-0.09687820822000504,-0.08732809871435165,-0.0200386643409729,0.029967542737722397,-0.13105244934558868,-0.1517508178949356,0.07640936225652695,0.12159761041402817,-0.018128780648112297,-0.05584925413131714,-0.10093075782060623,-0.0056795221753418446,0.18120527267456055,-0.13204845786094666,-0.2317761480808258,0.20819981396198273,-0.14885058999061584,-0.17746008932590485,-0.08620023727416992,-0.036270417273044586,0.0435827411711216,0.09150496870279312,0.0482742041349411,0.07942307740449905,0.02113438956439495,-0.14745256304740906,-0.09558482468128204,-0.02471814677119255,-0.0017088816966861486,0.1763160526752472,-0.08031491190195084,-0.032933562994003296,-0.017526624724268913,-0.03249592334032059,-0.023963341489434242,0.014135526493191719,0.05091117322444916,0.10471644997596741,-0.017330840229988098,0.04970181733369827,0.07924915105104446,-0.18998834490776062,-0.6520054936408997,-0.8921446204185486,-0.3700711131095886,-0.11106371879577637,-0.13934269547462463,-0.15295250713825226,-0.20858749747276306,-0.21605771780014038,-0.05252205953001976,-0.22350823879241943,-0.12952040135860443,-0.1433195322751999,-0.08746965229511261,0.15184137225151062,0.07917365431785583,0.30971759557724,0.2909378409385681,0.31665363907814026,-0.10094157606363297,-0.10937007516622543,-0.10691492259502411,-0.21270520985126495,-0.1122216060757637,-0.0884278416633606,-0.146266907453537,-0.2689993977546692,-0.15516692399978638,-0.21743641793727875,-0.1985117346048355,0.05320887267589569,-0.11825715005397797,0.07828234881162643,0.323137491941452,-2.4064061641693115,-0.07548253238201141,1.4621809720993042,0.6296991109848022,0.48023727536201477,0.18306320905685425,0.9567404985427856,-0.519692063331604,-0.8386133909225464,-0.7678030729293823,0.3014962077140808,0.7797319889068604,0.6557738184928894,-0.13609203696250916,-0.7912889122962952,-1.523314118385315,-0.6406204700469971,0.49099278450012207,-0.0026248942594975233,0.008174173533916473,-0.0009255527402274311,-0.007363359443843365,-0.015672391280531883,-0.004780984949320555,-0.0183327104896307,-0.015420435927808285,-0.02281757816672325,-0.017782965674996376,-0.010433888994157314,0.021890588104724884,-0.0153964227065444,0.02132064662873745,-0.6370634436607361,-0.00830145739018917,0.022398078814148903,-0.004156172275543213,0.025100598111748695,-0.015978587791323662,0.039339181035757065,0.03677721321582794,0.041662510484457016,0.028602328151464462,0.06619955599308014,0.13053175806999207,0.029522476717829704,-0.058071691542863846,-0.2120644599199295,0.2888505756855011,-0.014553580433130264,-0.015627624467015266,-0.03747675195336342,0.014364578761160374,-0.04252484813332558,-0.02386253885924816,-0.011786671355366707,-0.06399060785770416,-0.09801620244979858,-0.0603497251868248,-0.09623853117227554,-0.14024151861667633,-0.19537648558616638,-0.19721949100494385,-0.10990499705076218,-0.002766761463135481,-0.016009125858545303,0.0039551411755383015,-0.00888599082827568,-0.028590792790055275,-0.011339584365487099,-0.043343402445316315,-0.022875623777508736,-0.021574586629867554,-0.012677496299147606,-0.036681994795799255,0.022140970453619957,-0.013633114285767078,-0.06504938006401062,-0.5527157187461853,0.03929021209478378,0.009899470023810863,0.06127863749861717,0.019916193559765816,0.05672454088926315,0.06809718161821365,-0.029413040727376938,0.05588657408952713,0.055997226387262344,0.02553708478808403,0.002855713712051511,0.30547791719436646,0.31820717453956604,0.10900301486253738,-1.3085734844207764,0.02346973493695259,-0.0016805022023618221,0.0066864402033388615,-0.02309257537126541,0.03409833461046219,0.014781400561332703,-0.006764234509319067,0.048142995685338974,0.04352319613099098,-0.0039050367195159197,-0.03204207122325897,0.18349400162696838,0.14071974158287048,0.09408675879240036,1.9396846294403076,0.06925483793020248,0.04743444174528122,0.041125427931547165,-0.013398229144513607,0.027993381023406982,0.03463444858789444,-0.05829326808452606,-0.16404934227466583,-0.09626872837543488,-0.0367254763841629,-0.042085886001586914,0.05840812250971794,0.03629649430513382,0.006473199930042028,-0.30901557207107544,-0.03474460542201996,-0.04548925906419754,-0.04458959028124809,-0.052255433052778244,0.011648956686258316,0.028512338176369667,-0.046294353902339935,-0.10300988703966141,-0.10331279039382935,-0.055564723908901215,-0.18272872269153595,-0.14075416326522827,0.018210776150226593,-0.14166724681854248,-0.26691877841949463,0.0664542019367218,0.0141240693628788,0.10886181145906448,0.21194006502628326,0.23767220973968506,0.038924627006053925,0.23160184919834137,0.3325846493244171,0.0998881459236145,-0.04531807452440262,-0.12973615527153015,-0.15580278635025024,-0.17494216561317444,-0.09041552990674973,-0.10313311964273453,0.8017320036888123,0.5974879264831543,-0.30816468596458435,8.116840763250366e-05,-0.25317007303237915,0.10268070548772812,-0.41107770800590515,1.5118438005447388,0.37221792340278625,-0.3916938006877899,-0.48604848980903625,-0.23234347999095917,-0.3812316358089447,0.3447303771972656,0.7467827796936035,-1.265147089958191,-0.8460329174995422,0.663486659526825,0.1072801798582077,-0.17125128209590912,-0.07908350974321365,-0.4310239553451538,-1.4754215478897095,-0.8316039443016052,-0.2659160792827606,-0.2919621467590332,-0.07619259506464005,-0.07683876901865005,0.2530074715614319,0.08369605988264084,0.059992048889398575,0.08749523013830185,-0.11820456385612488,0.13292954862117767,0.20989201962947845,0.5073260068893433,0.004778406582772732,0.014525690115988255,-0.029146522283554077,-0.24817471206188202,0.30995431542396545,0.08515100181102753,-0.03876866400241852,-0.11271267384290695,0.07553942501544952,-0.027764776721596718,0.13004499673843384,0.1611790806055069,-0.09394295513629913,0.09821659326553345,-0.018139509484171867,-0.17173884809017181,-0.28123462200164795,-0.482716828584671,-0.07233678549528122,0.022260352969169617,-0.0937851145863533,-0.20859627425670624,-1.1328823566436768,-0.6979975700378418,-0.2790616750717163,-0.018093517050147057,-0.015502095222473145,-0.38827043771743774,-0.08833684027194977,-0.4918808341026306,-0.27055323123931885,0.020159974694252014,0.237680122256279,0.5258250832557678,0.4468531608581543,0.4280449450016022,1.6668665409088135,-0.20944462716579437,0.17803604900836945,-0.16981133818626404,0.17293310165405273,-0.15834090113639832,-0.5282502770423889,0.2012246996164322,-0.7958071827888489,0.8086880445480347,0.025036145001649857,0.6801465749740601,-0.7982988357543945,0.9005866050720215,0.22870320081710815,-1.3988416194915771,-0.9198301434516907,0.5325676798820496,-0.1354973465204239,0.025247301906347275,-0.08306296169757843,-0.028156258165836334,0.38475191593170166,-0.07481969892978668,-0.18161024153232574,-0.05050075054168701,-0.1980573832988739,0.31872978806495667,-0.2811594009399414,0.13670139014720917,0.001970298122614622,-0.099843829870224,-0.07035470008850098,0.1000024601817131,0.03265751153230667,-0.14830221235752106,-0.25355231761932373,-0.15032896399497986,-0.21112093329429626,-0.20502564311027527,-0.26255521178245544,0.16024941205978394,-0.18684521317481995,-0.023275788873434067,-0.07819683849811554,0.033799100667238235,0.13718858361244202,-0.02767789177596569,0.03260929137468338,0.006587058771401644,0.007803440559655428,-0.10117050260305405,0.0811227485537529,0.1030377671122551,0.0369427353143692,0.10917114466428757,-0.07892517745494843,-0.009146938100457191,0.30159062147140503,0.5989412665367126,0.07600126415491104,0.17934834957122803,0.13853248953819275,0.03464388847351074,-0.09487836062908173,0.4470810294151306,0.15160627663135529,0.0568309910595417,-0.10045861452817917,0.07593268901109695,-0.4392947554588318,0.5409448742866516,-1.1165683269500732,0.9057287573814392,-1.090416669845581,-0.0544702522456646,-0.15562041103839874,-0.06858231872320175,0.05868443846702576,-0.732791543006897,-0.35515767335891724,0.5385643243789673,-0.5414615273475647,0.043123722076416016,-0.09795151650905609,-0.42669540643692017,-0.23358853161334991,0.013831030577421188,-0.5839754939079285,0.5855752825737,-0.010846775956451893,-0.043922439217567444,-0.011749625205993652,0.12283823639154434,-0.005025156307965517,0.5560225248336792,0.03224465996026993,0.08979416638612747,0.10906071215867996,0.2647979259490967,0.08750671148300171,-0.2064802199602127,0.02526875026524067,0.11745809763669968,-0.016074907034635544,0.11783239245414734,-0.06370757520198822,-0.3751552104949951,-0.02802250161767006,0.06377572566270828,-0.026044655591249466,0.19980567693710327,-0.09762328863143921,0.057638805359601974,0.005194131750613451,0.09443075954914093,0.16302490234375,0.1885310411453247,0.14286337792873383,-0.73530513048172,-0.10677968710660934,-0.058967798948287964,0.009288718923926353,-0.0551074743270874,-0.16854137182235718,0.28144264221191406,0.04915517196059227,-0.08891984075307846,-0.006436177063733339,-0.027771348133683205,-0.0775131806731224,-0.6661844253540039,-0.018939880654215813,-0.12251202017068863,-0.12249815464019775,-0.18452274799346924,-0.2815527319908142,1.0123029947280884,-0.051579367369413376,0.05024060606956482,-0.08120717853307724,-0.008294332772493362,-0.10673237591981888,-0.6419954895973206,1.395485758781433,-0.6044092774391174,0.1888396441936493,-0.33582425117492676,0.235734760761261,-0.04162375628948212,-1.6766351461410522,0.9082772731781006,-0.5707257390022278,-0.058002542704343796,-0.5349099040031433,-0.04044024646282196,0.0038308927323669195,-0.07369126379489899,0.48381301760673523,-0.661471962928772,-0.6693034768104553,1.1890279054641724,0.04013456776738167,0.019470933824777603,0.009027109481394291,0.010673156008124352,-0.004374840762466192,-0.4393081068992615,0.07609313726425171,-0.003686274401843548,-0.07421232014894485,-0.014641526155173779,-0.13002152740955353,0.5887762904167175,0.028374487534165382,0.1106145903468132,0.12940247356891632,0.10303952544927597,0.23520375788211823,-0.1434730738401413,-0.1003003716468811,-0.09528461843729019,-0.07752728462219238,0.006660728249698877,0.019040795043110847,-0.07574373483657837,-0.08878175914287567,0.03830043226480484,0.017318984493613243,0.07766258716583252,0.07650744169950485,-0.24225637316703796,-0.05739741772413254,-0.28144121170043945,-0.21638891100883484,-0.03333674743771553,-0.12608183920383453,0.30145666003227234,-0.05367956683039665,-0.11748569458723068,-0.20669697225093842,-0.3028217554092407,-0.3718934655189514,-0.674793541431427,-0.11952829360961914,-0.19334723055362701,-0.23372484743595123,-0.26401257514953613,-0.3506280481815338,0.32547372579574585,0.2104766070842743,0.1753835380077362,-0.09372773766517639,-0.30500876903533936,-0.40271899104118347,0.5563574433326721,0.12171468883752823,0.3681180775165558,0.6743282675743103,0.07108023762702942,0.1439889520406723,-0.11798480153083801,-0.36075833439826965,0.4519623816013336,0.39940783381462097,-0.25355878472328186,-0.08319737762212753,-0.7206434011459351,0.11292443424463272,-1.0140302181243896,-0.6113566160202026,0.11836136132478714,-0.45678624510765076,1.3519796133041382,0.013527661561965942,0.03882647305727005,0.014071598649024963,0.07898079603910446,0.028406193479895592,-0.5182449221611023,0.10348095744848251,0.14224524796009064,0.2323283851146698,0.1885291188955307,0.014999260194599628,-0.006108512636274099,-0.14828290045261383,-0.2034338414669037,-0.2724628746509552,-0.38462287187576294,-0.013472408056259155,-0.36941322684288025,0.06181327626109123,0.11091060936450958,0.1310628056526184,0.10719093680381775,0.13491395115852356,-0.07371281832456589,-0.08198495209217072,-0.12427397817373276,-0.07062748819589615,-0.01881391555070877,-0.05595577508211136,-0.2173156887292862,-0.11015801876783371,-0.22774016857147217,-0.36719435453414917,-0.39045074582099915,-0.40310969948768616,0.5018909573554993,0.01619156263768673,-0.021354125812649727,-0.024042749777436256,-0.04815060645341873,-0.02354728803038597,0.513673722743988,-0.08573643118143082,-0.1317739486694336,-0.10095050930976868,-0.12827163934707642,-0.10632029175758362,-0.08499535173177719,0.06598260998725891,0.1664133369922638,0.15213213860988617,0.1996869593858719,0.14738881587982178,0.43468859791755676,-0.15028947591781616,-0.04937250167131424,0.4390099048614502,0.09993889182806015,0.11199043691158295,-0.04747891426086426,0.5706934332847595,0.009134117513895035,0.04641309008002281,0.5646283626556396,0.42669063806533813,-0.6925781965255737,0.23529760539531708,-0.8262679576873779,-0.07676495611667633,-0.2516166567802429,-0.42690062522888184,0.006382798310369253,0.0026067013386636972,-0.02883894369006157,-0.04065953195095062,-0.05684483051300049,-0.02145640179514885,-0.4253787398338318,-0.07545407861471176,-0.15185467898845673,-0.16081379354000092,-0.20248830318450928,-0.08994242548942566,-0.06756330281496048,-0.07679853588342667,0.03650910034775734,0.028837891295552254,0.09469962865114212,-0.03252280130982399,0.034194134175777435,0.00558284530416131,-0.09024909138679504,-0.022842751815915108,-0.05830461159348488,0.09531022608280182,0.18400180339813232,-0.01706337183713913,-0.12640921771526337,-0.07507780939340591,-0.1284542828798294,-0.032635774463415146,-0.2333412766456604,-0.0048070489428937435,0.2701304852962494,-0.020836293697357178,0.06961731612682343,-0.4920479953289032,-0.07324965298175812,-0.028961973264813423,0.02342703565955162,0.07507747411727905,0.07747361063957214,-0.10581342875957489,-0.5871483087539673,-0.10878158360719681,-0.05773492529988289,0.0013116453774273396,0.0987965315580368,-0.04273016005754471,-0.23496587574481964,-0.019426699727773666,-0.26076099276542664,-0.37077927589416504,-0.14431361854076385,0.37825119495391846,0.004644229542464018,0.42076098918914795,0.3622708022594452,-0.13418321311473846,0.03625623881816864,0.12637808918952942,-0.12418850511312485,-0.01741403341293335,-0.3983340561389923,1.0025227069854736,-0.2123919427394867,1.2863391637802124,0.10170505940914154,0.009601766243577003,-0.31903499364852905,0.08582345396280289,0.26424428820610046,0.11813806742429733,0.05862842872738838,0.029280615970492363,0.054705917835235596,0.10554902255535126,-0.06974482536315918,0.12923751771450043,-0.15566642582416534,0.020876562222838402,-0.00896830577403307,0.02278764173388481,0.06746703386306763,-0.22925230860710144,0.05680592730641365,-0.013843302614986897,-0.02741878107190132,-0.2876388728618622,-0.03666047006845474,0.15466991066932678,-0.19075937569141388,-0.029633313417434692,-0.017690300941467285,0.0011948012979701161,-0.03813593089580536,-0.011065716855227947,0.8535735011100769,-0.010774736292660236,-0.03782789781689644,0.010522676631808281,0.06750431656837463,-0.34088993072509766,0.7062439918518066,0.017598191276192665,-0.006166652776300907,0.06143851950764656,0.06030751019716263,0.2630538046360016,0.044808633625507355,-0.09974013268947601,0.16365531086921692,-0.427395761013031,0.20377396047115326,-0.15114431083202362,0.1266777664422989,0.15196646749973297,-0.09125708788633347,-0.11035481095314026,0.4283243715763092,-0.12270834296941757,0.7565289735794067,0.47305500507354736,0.4121674597263336,0.8306798934936523,0.3969837725162506,-0.0757150873541832,0.04375380650162697,0.12283316254615784,0.4596902132034302,-0.010445770807564259,0.03254002705216408,0.05228395015001297,0.0020387950353324413,1.8896700368011306e-38,-1.2345341379809136e-39,-9.102467684056359e-39,7.331323114743828e-39,-4.561621667544219e-39,1.3359405026502433e-39,1.0513624283077701e-38,-1.5563063169425747e-38,1.402422726082745e-38,-4.316838647900567e-39,-4.548390607444064e-40,-1.9723711689194205e-38,0.008230245672166348,-0.010156167671084404,0.011445386335253716,0.019896119832992554,-0.028409115970134735,0.023744434118270874,-0.011931216344237328,0.013595455326139927,0.02415349893271923,0.03671577200293541,-0.07178572565317154,-0.050026871263980865,0.059997908771038055,0.009656605310738087,-0.008245027624070644,0.024541782215237617,-0.00472263665869832,0.015350558795034885,-0.017067451030015945,0.004294926766306162,0.001456403755582869,-0.009731012396514416,0.011633745394647121,-0.017051884904503822,0.026863956823945045,-0.02340911701321602,0.02763422578573227,0.04981760308146477,0.003380558220669627,0.019122518599033356,0.00039432549965567887,0.0002355315664317459,-0.007526812143623829,0.0067699970677495,-0.003915329463779926,-0.021935654804110527,0.032659973949193954,-0.02455407753586769,0.016898833215236664,-0.0052535803988575935,-0.03575553745031357,0.04831520467996597,-0.034815751016139984,-0.03165261447429657,-0.036436744034290314,-0.009057394228875637,0.009051400236785412,-0.01889977790415287,0.24712644517421722,0.010308251716196537],"sample_rate":48000.0}},{"max_value":1.0,"model":{"version":"0.7.0","metadata":{"date":{"year":2026,"month":5,"day":7,"hour":15,"minute":15,"second":34},"loudness":-17.9356689453125,"gain":0.8035722792347095},"architecture":"WaveNet","config":{"layers":[{"input_size":1,"condition_size":1,"head":{"out_channels":1,"kernel_size":16,"bias":true},"channels":8,"kernel_sizes":[6,6,6,6,6,6,6,6,6,6,6,6,6,6,15,15,6,6,6,6,6,6,6],"dilations":[1,3,7,17,41,101,239,1,3,7,17,41,101,239,1,13,1,3,7,17,41,101,239],"activation":[{"type":"LeakyReLU","negative_slope":0.01},{"type":"LeakyReLU","negative_slope":0.01},{"type":"LeakyReLU","negative_slope":0.01},{"type":"LeakyReLU","negative_slope":0.01},{"type":"LeakyReLU","negative_slope":0.01},{"type":"LeakyReLU","negative_slope":0.01},{"type":"LeakyReLU","negative_slope":0.01},{"type":"LeakyReLU","negative_slope":0.01},{"type":"LeakyReLU","negative_slope":0.01},{"type":"LeakyReLU","negative_slope":0.01},{"type":"LeakyReLU","negative_slope":0.01},{"type":"LeakyReLU","negative_slope":0.01},{"type":"LeakyReLU","negative_slope":0.01},{"type":"LeakyReLU","negative_slope":0.01},{"type":"LeakyReLU","negative_slope":0.01},{"type":"LeakyReLU","negative_slope":0.01},{"type":"LeakyReLU","negative_slope":0.01},{"type":"LeakyReLU","negative_slope":0.01},{"type":"LeakyReLU","negative_slope":0.01},{"type":"LeakyReLU","negative_slope":0.01},{"type":"LeakyReLU","negative_slope":0.01},{"type":"LeakyReLU","negative_slope":0.01},{"type":"LeakyReLU","negative_slope":0.01}],"bottleneck":8,"head1x1":{"active":false,"out_channels":1,"groups":1},"layer1x1":{"active":true,"groups":1},"groups_input":1,"groups_input_mixin":1,"conv_pre_film":{"active":false,"shift":true,"groups":1},"conv_post_film":{"active":false,"shift":true,"groups":1},"input_mixin_pre_film":{"active":false,"shift":true,"groups":1},"input_mixin_post_film":{"active":false,"shift":true,"groups":1},"activation_pre_film":{"active":false,"shift":true,"groups":1},"activation_post_film":{"active":false,"shift":true,"groups":1},"layer1x1_post_film":{"active":false,"shift":true,"groups":1},"head1x1_post_film":{"active":false,"shift":true,"groups":1},"gating_mode":["none","none","none","none","none","none","none","none","none","none","none","none","none","none","none","none","none","none","none","none","none","none","none"],"secondary_activation":[null,null,null,null,null,null,null,null,null,null,null,null,null,null,null,null,null,null,null,null,null,null,null],"slimmable":null}],"head":null,"head_scale":0.010308252087314401},"weights":[3.634723663330078,3.6156163215637207,3.852576732635498,3.575293779373169,2.7379274368286133,-3.259976863861084,-3.453199863433838,3.673060894012451,0.3132842183113098,0.3475426733493805,0.7807613015174866,1.1949025392532349,1.1058251857757568,1.1878058910369873,0.3203016519546509,0.3827807307243347,0.7894080877304077,1.19355046749115,1.137976050376892,1.1127209663391113,0.3025079071521759,0.36825674772262573,0.8994550704956055,1.1660363674163818,1.2095156908035278,1.2354059219360352,0.3418937027454376,0.3453969657421112,0.8052006959915161,1.167140245437622,1.1447741985321045,1.1639399528503418,0.28616973757743835,0.2955680787563324,0.6853469014167786,0.9666574597358704,0.9261953234672546,0.9490401148796082,-0.373025506734848,-0.3905238211154938,-0.7556436657905579,-1.1253682374954224,-1.0517754554748535,-1.071061611175537,-0.32882389426231384,-0.36286255717277527,-0.8233525156974792,-1.1771804094314575,-1.0934641361236572,-1.1545215845108032,0.3768383264541626,0.3565538227558136,0.8746562600135803,1.1903595924377441,1.1921005249023438,1.1786372661590576,0.053746528923511505,-0.22369597852230072,-0.3095121383666992,-0.0613427609205246,0.057253722101449966,0.36365655064582825,0.02344074286520481,-0.2038450986146927,-0.29562899470329285,-0.08682217448949814,0.07469135522842407,0.37189823389053345,0.04229222238063812,-0.21739166975021362,-0.2952701151371002,-0.09069798141717911,0.07357098907232285,0.3753543794155121,0.03169586881995201,-0.21203096210956573,-0.2853246033191681,-0.04898322746157646,0.07930443435907364,0.3499113619327545,0.04526780918240547,-0.1717449575662613,-0.2372940182685852,-0.03169720992445946,0.06368330121040344,0.2544867694377899,-0.022395767271518707,0.21464067697525024,0.2797631323337555,0.04643142968416214,-0.06354010105133057,-0.30428069829940796,-0.017754454165697098,0.2368650585412979,0.29959046840667725,0.05499078705906868,-0.08630285412073135,-0.3288981020450592,0.032025083899497986,-0.2346937507390976,-0.3056688606739044,-0.06192726269364357,0.08864916861057281,0.36874473094940186,-0.2884742021560669,-0.333576500415802,-0.04008638113737106,0.2753989100456238,0.16585053503513336,0.1988871544599533,-0.2942407727241516,-0.3331955075263977,-0.03135756403207779,0.2825867831707001,0.1518203467130661,0.18958711624145508,-0.3089746832847595,-0.3633793592453003,-0.042979564517736435,0.3108330965042114,0.1637478768825531,0.2001492977142334,-0.2768076956272125,-0.32483869791030884,-0.033704765141010284,0.26836705207824707,0.15908122062683105,0.19730152189731598,-0.20281708240509033,-0.25259560346603394,-0.03583679348230362,0.20200952887535095,0.11985325813293457,0.1530257612466812,0.2605440616607666,0.3083450496196747,0.03628569096326828,-0.25470417737960815,-0.14055569469928741,-0.1860748827457428,0.27880170941352844,0.33258697390556335,0.039757516235113144,-0.26549893617630005,-0.15096740424633026,-0.1874968260526657,-0.28248131275177,-0.34562933444976807,-0.033408474177122116,0.28059643507003784,0.15709473192691803,0.19335736334323883,0.13553276658058167,0.22333544492721558,9.217757906299084e-05,-0.3754652738571167,-0.219137042760849,-0.2859797477722168,0.04957851767539978,0.32626304030418396,0.07259906083345413,-0.33332979679107666,-0.2608417272567749,-0.256855845451355,0.03308544680476189,0.3298693299293518,0.09699602425098419,-0.38739660382270813,-0.2080165594816208,-0.31941598653793335,0.10815951973199844,0.2562862038612366,0.07689554989337921,-0.34378379583358765,-0.2197391837835312,-0.2956414520740509,0.025897316634655,0.2417510449886322,0.03026989847421646,-0.29492348432540894,-0.16979539394378662,-0.2524953782558441,-0.10302707552909851,-0.2797970473766327,-0.057723138481378555,0.3698488473892212,0.2516559362411499,0.25486984848976135,-0.12650766968727112,-0.2234468162059784,-0.10174205899238586,0.2879944443702698,0.23312950134277344,0.3402358293533325,0.07896031439304352,0.26001402735710144,0.017714563757181168,-0.29475003480911255,-0.2417854517698288,-0.2651609778404236,-0.3983009457588196,-0.3843826353549957,-1.0838415622711182,-1.6515462398529053,-1.4694873094558716,-1.59567391872406,-0.4202677607536316,-0.3071345388889313,-1.0666062831878662,-1.6473755836486816,-1.535766839981079,-1.6121479272842407,-0.36430835723876953,-0.3945247530937195,-1.150614857673645,-1.7338441610336304,-1.5537300109863281,-1.693070650100708,-0.3398200273513794,-0.4142971336841583,-1.0525678396224976,-1.6289076805114746,-1.496808409690857,-1.6557353734970093,-0.2955085039138794,-0.39087480306625366,-0.9274556040763855,-1.4341716766357422,-1.3222407102584839,-1.379169225692749,0.3978016674518585,0.3206753730773926,0.9809196591377258,1.505478024482727,1.431452989578247,1.5215013027191162,0.4207516312599182,0.31456008553504944,1.0062633752822876,1.5760693550109863,1.4297903776168823,1.5417094230651855,-0.2957867980003357,-0.3883861005306244,-1.1130348443984985,-1.6707525253295898,-1.5730539560317993,-1.6787461042404175,-0.23744000494480133,-0.2066812813282013,0.14118605852127075,0.30076149106025696,0.13923592865467072,0.13732458651065826,-0.26166877150535583,-0.2385396808385849,0.18241344392299652,0.28580188751220703,0.15550945699214935,0.14334377646446228,-0.24860605597496033,-0.24263601005077362,0.14595326781272888,0.23485463857650757,0.11943992227315903,0.1506657600402832,-0.2709060311317444,-0.2797715365886688,0.198514923453331,0.24188940227031708,0.2162841409444809,0.18142473697662354,-0.2015223354101181,-0.2216525822877884,0.19621866941452026,0.19971607625484467,0.17625455558300018,0.20059721171855927,0.2060564011335373,0.24199260771274567,-0.1753368377685547,-0.2913210690021515,-0.11211954057216644,-0.20296603441238403,0.2034749537706375,0.24704815447330475,-0.17386505007743835,-0.24593688547611237,-0.12183885276317596,-0.2692835330963135,-0.28573039174079895,-0.20891425013542175,0.12806054949760437,0.29425740242004395,0.22345374524593353,0.2208709865808487,0.11551646888256073,0.21896402537822723,0.6571917533874512,1.0042423009872437,1.041971206665039,1.0480015277862549,0.22098492085933685,0.24316668510437012,0.6215004920959473,1.0298948287963867,1.0332849025726318,1.0187324285507202,0.22636553645133972,0.2528817355632782,0.7240279912948608,1.0477557182312012,1.039596438407898,1.0716729164123535,0.2486986666917801,0.2016027271747589,0.6659972071647644,1.0073753595352173,0.9994074106216431,1.0657461881637573,0.13589653372764587,0.22043046355247498,0.6251760721206665,0.9233003854751587,0.8798130750656128,0.9134129881858826,-0.15841391682624817,-0.15848186612129211,-0.61623215675354,-0.9448860287666321,-0.961322009563446,-1.0228849649429321,-0.16493643820285797,-0.13154062628746033,-0.6850908398628235,-1.0273540019989014,-0.9754893779754639,-1.0533329248428345,0.2074562907218933,0.22244854271411896,0.6017942428588867,1.0869927406311035,1.0263137817382812,1.0131416320800781,0.2975330650806427,0.2761446535587311,-0.006606779061257839,-0.19072265923023224,-0.146685391664505,-0.19754479825496674,0.16115285456180573,0.2209504395723343,0.0818362608551979,-0.138254314661026,-0.18615439534187317,-0.20245203375816345,0.2018429934978485,0.27656638622283936,0.022012844681739807,-0.2683442234992981,-0.21712975203990936,-0.20523402094841003,0.19594866037368774,0.31212323904037476,0.012149298563599586,-0.18902797996997833,-0.23400837182998657,-0.2487059235572815,0.16032838821411133,0.2593516707420349,0.05262324586510658,-0.11897128075361252,-0.1588033139705658,-0.2255430519580841,-0.25465017557144165,-0.27827188372612,-0.007427605334669352,0.19765448570251465,0.21273064613342285,0.18766412138938904,-0.2399766594171524,-0.2063433825969696,-0.025293363258242607,0.25320419669151306,0.13290755450725555,0.25205737352371216,0.3127550184726715,0.25624191761016846,0.11247286200523376,-0.19430412352085114,-0.2152838110923767,-0.23599617183208466,0.21080069243907928,-0.40788042545318604,-0.31619441509246826,1.376692533493042,-0.2782055139541626,1.2823834419250488,0.17651519179344177,1.2797672748565674,0.49661746621131897,0.13988779485225677,0.07107958942651749,-0.12802532315254211,-0.8765404224395752,0.06263093650341034,0.5697261691093445,-0.29279088973999023,0.14019182324409485,0.06157851219177246,-0.27496129274368286,-0.5377777814865112,-0.5445244312286377,-0.2054038941860199,0.30326277017593384,-0.3461572229862213,0.6656429171562195,-0.08243540674448013,0.4994356036186218,-0.49809685349464417,-0.7028594613075256,0.022958045825362206,0.4652034342288971,-0.5729345083236694,0.8927063941955566,-0.18342876434326172,0.0771760568022728,-0.3666089177131653,-1.3009147644042969,0.8457632064819336,1.177283525466919,-0.3220674693584442,0.09293901175260544,-0.5350725054740906,-0.13839051127433777,-0.18186073005199432,-0.45809391140937805,0.2469993382692337,0.12724772095680237,0.26486772298812866,-0.33662149310112,0.7383496761322021,0.8230758905410767,-0.4198698401451111,0.22479122877120972,-0.4776817858219147,0.0765993669629097,-0.9911026954650879,0.20647108554840088,-0.3267973065376282,-0.24922393262386322,0.40166857838630676,0.09634006023406982,0.5012543201446533,0.06885184347629547,0.49666374921798706,-0.1691625565290451,-0.5374944806098938,-1.1127448081970215,0.5094997882843018,0.5697047114372253,0.13308696448802948,-0.3649826645851135,0.7540256381034851,0.6818638443946838,1.0263264179229736,0.546793520450592,-0.2762918174266815,-0.9431602954864502,0.7236077189445496,0.8745926022529602,-0.1915472447872162,-0.9385814070701599,-0.6104248762130737,0.17980347573757172,1.0591745376586914,-0.6056489944458008,1.198425054550171,0.8659486770629883,0.12099121510982513,-0.05367489159107208,-0.17951051890850067,-0.023560088127851486,-0.13227881491184235,-0.12574778497219086,0.2656971216201782,-0.2011527717113495,-0.22914181649684906,-0.2303687483072281,-0.07941234111785889,0.17179879546165466,0.5474896430969238,-0.12870441377162933,0.014890856109559536,-0.12007974088191986,-0.05970839411020279,0.13084696233272552,0.3545672595500946,-0.0529911182820797,0.06096232682466507,-0.10444694757461548,-0.02052147500216961,0.16642647981643677,0.3489726781845093,0.17415665090084076,-0.17303594946861267,-0.09299308061599731,-0.21383512020111084,0.0716041699051857,-0.33042871952056885,0.18299369513988495,0.39080968499183655,0.057407278567552567,0.14708366990089417,-0.13499172031879425,0.08302780240774155,0.17341744899749756,0.25515612959861755,0.06530597060918808,0.1618957668542862,0.17063139379024506,-0.04352230578660965,-0.26404497027397156,-0.015368334017693996,-0.2166973054409027,-0.2176503688097,0.023755254223942757,0.49397072196006775,0.020253648981451988,0.16612187027931213,-0.042529914528131485,-0.05342765152454376,0.043257348239421844,-0.04728478193283081,0.012815148569643497,-0.0022072175052016973,-0.11972461640834808,0.07755392044782639,0.24909216165542603,0.030000882223248482,-0.11055970937013626,-0.050240010023117065,-0.07700783014297485,-0.06230718269944191,0.19477689266204834,-0.08913970738649368,-0.23761257529258728,-0.10027831047773361,-0.13064858317375183,-0.2793225944042206,-0.13426350057125092,-0.22143298387527466,0.18852025270462036,0.15730910003185272,0.06618382781744003,0.03293494135141373,0.21383419632911682,0.012635794468224049,0.007797100115567446,-0.13637326657772064,-0.1570710390806198,0.033709440380334854,-0.0828946977853775,-0.08624827116727829,-0.048117391765117645,-0.2427082061767578,0.07151004672050476,-0.0003131962148472667,-0.3103490471839905,-0.10811202973127365,0.03016963228583336,-0.057980578392744064,-0.052978795021772385,0.08808798342943192,0.21246272325515747,-0.036307383328676224,0.07115253806114197,0.17379453778266907,0.11497456580400467,-0.0220369640737772,0.14723019301891327,-0.034445714205503464,-0.010579508729279041,0.004230190999805927,0.014647349715232849,-0.07354328781366348,-0.04364696145057678,-0.309479296207428,0.024335894733667374,0.001151309465058148,-0.0017903466941788793,0.08066821098327637,0.060350969433784485,-0.044540174305438995,0.23398078978061676,0.24906833469867706,0.1290285289287567,-0.006787059362977743,0.05695463716983795,-0.07753508538007736,-0.09016093611717224,-0.04351644590497017,-0.034411270171403885,-0.05556824430823326,-0.13764433562755585,-0.1844812035560608,-0.056266993284225464,0.04479456692934036,-0.006732136942446232,-0.04055652394890785,-0.024938607588410378,0.11134647578001022,-0.00026475111371837556,-0.09543274343013763,0.12068574130535126,0.09120924025774002,-0.1812770515680313,-0.056197382509708405,0.017908111214637756,-0.04874737933278084,-0.038357142359018326,0.07751315832138062,0.06357784569263458,-0.3380204141139984,0.23999568819999695,0.15709596872329712,0.20653101801872253,0.07009468227624893,0.13303326070308685,0.11189170926809311,0.031047426164150238,0.10446903854608536,0.10756642371416092,0.07887737452983856,0.06039709597826004,-0.17912164330482483,0.02983693964779377,-0.014452550560235977,-0.004482481628656387,0.04558843746781349,0.05046062916517258,-0.2847692370414734,-0.05898721143603325,-0.09897585958242416,-0.09911920130252838,-0.14333267509937286,-0.09599775820970535,-0.011970738880336285,-0.23498913645744324,0.08969847112894058,0.16049885749816895,0.11709316074848175,0.11929266899824142,0.12031788378953934,-0.07202587276697159,-0.12687286734580994,-0.21796411275863647,-0.09673533588647842,-0.13436725735664368,-0.2965298593044281,-0.015230325981974602,-0.1670069396495819,-0.16961844265460968,-0.0918973982334137,-0.10572366416454315,-0.09416557848453522,0.01032436452805996,0.06758303940296173,0.035129524767398834,0.030662933364510536,-0.0007070585852488875,-0.25523945689201355,0.17509928345680237,0.13539104163646698,0.07160740345716476,0.1562047153711319,0.09846403449773788,-0.09479326754808426,0.024660425260663033,-0.03409682586789131,0.030643803998827934,0.04056995362043381,0.07484836876392365,-0.2939665913581848,0.06503567844629288,0.015485357493162155,-0.02027982473373413,0.009247899055480957,0.1993614137172699,-0.22244136035442352,-0.12575586140155792,-0.08324337750673294,-0.10666923969984055,-0.09022603929042816,-0.0852339044213295,-0.2822588384151459,-0.10600768774747849,0.15571807324886322,0.03339891880750656,0.15541116893291473,-0.0019131553126499057,0.1663062572479248,-0.01239524595439434,-0.11285770684480667,-0.08059149235486984,-0.1765347719192505,-0.01438501849770546,-0.09256546944379807,-0.022535841912031174,-0.1689845323562622,-0.0760139599442482,-0.07468397170305252,-0.1292954534292221,0.05024339258670807,-0.006808321923017502,0.01933157444000244,-0.054583966732025146,-0.0807262510061264,0.1563454121351242,-0.1504272073507309,-0.10743872076272964,-0.24662186205387115,-0.24166662991046906,-0.11009078472852707,-0.15257620811462402,-0.32992374897003174,0.16667059063911438,-0.05263146013021469,0.023328276351094246,0.2463470995426178,0.01739933341741562,-0.3105129301548004,0.18770955502986908,0.2009684145450592,0.22895190119743347,0.24267423152923584,0.0034798060078173876,-0.30619582533836365,0.08973664790391922,0.12047234922647476,0.08148416876792908,0.16603755950927734,0.1354045569896698,-0.26376909017562866,-0.2911672294139862,0.027556154876947403,-0.225102961063385,-0.1975945383310318,-0.17180487513542175,-0.04753757640719414,0.6360241174697876,0.371120810508728,0.512289822101593,0.490200936794281,0.4045949876308441,0.22704826295375824,0.01058379840105772,-0.008655387908220291,0.07448556274175644,-0.03030075877904892,-0.09930271655321121,0.2523695230484009,0.2187070995569229,0.057544827461242676,0.13108116388320923,0.164999857544899,-0.009746460244059563,-0.3205699324607849,-0.17604412138462067,-0.0772896334528923,-0.2166399359703064,-0.18881157040596008,-0.22355353832244873,-0.04759068042039871,-0.22503982484340668,0.005132349207997322,0.03490067645907402,-0.1392924040555954,-0.12922999262809753,0.43664366006851196,-0.1454353779554367,-0.17424865067005157,0.04084162041544914,-0.017447466030716896,-0.1291109174489975,0.3464159071445465,0.11481805145740509,0.1427939236164093,0.08975811302661896,0.07365290075540543,-0.033661138266325,0.3730410933494568,0.12315281480550766,-0.3294185996055603,-0.09924252331256866,-0.21796134114265442,-0.16208980977535248,-0.20259062945842743,0.26901623606681824,0.4968707859516144,0.2684125602245331,0.3210449814796448,0.4508993923664093,0.4080858826637268,0.042970187962055206,-0.0114867202937603,0.21647898852825165,0.2733915448188782,0.24050942063331604,-0.019903963431715965,-0.0983399748802185,-0.17089225351810455,-0.19530878961086273,-0.02260333113372326,0.06470020860433578,0.42601609230041504,-0.07824487239122391,-0.060071006417274475,0.05356466770172119,-0.08045188337564468,-0.09205502271652222,-0.26487573981285095,-0.03776877000927925,0.2171049416065216,-0.006602673325687647,0.1592331826686859,-0.11974446475505829,-0.337117999792099,0.14862431585788727,0.16887982189655304,0.11292044818401337,0.08174410462379456,-0.036149390041828156,-0.36847999691963196,0.2957940399646759,0.27671876549720764,0.10522675514221191,0.06577105820178986,-0.08650565892457962,-0.15983659029006958,-0.19340729713439941,-0.0890047550201416,-0.196528822183609,-0.20535427331924438,-0.2044156938791275,0.08660706877708435,0.3199767470359802,0.13630114495754242,0.26539498567581177,0.13558606803417206,0.14833945035934448,0.023725690320134163,0.15682509541511536,0.06201070174574852,0.11852192878723145,-0.08774743229150772,-0.013971935026347637,0.3221781253814697,0.20973804593086243,0.17362405359745026,0.1822715401649475,0.3080693185329437,-0.09689836949110031,-0.389963299036026,0.24400509893894196,-0.09656327962875366,0.028235459700226784,-0.08923913538455963,-0.08826135098934174,0.26674968004226685,0.40425434708595276,0.40255460143089294,0.21779665350914001,-0.004632403142750263,-0.023730630055069923,-0.005562531761825085,0.012162363156676292,-0.1065172627568245,0.1469302624464035,-0.31853291392326355,-0.280467689037323,-0.15706858038902283,0.01932349242269993,-0.29592227935791016,-0.04270721226930618,0.19781602919101715,0.0016459464095532894,0.4081553816795349,0.14902083575725555,0.05729282647371292,0.10595133155584335,0.22346602380275726,0.08489694446325302,0.10651884227991104,-0.1487877517938614,-0.2111162692308426,0.2869642376899719,-0.43410247564315796,-0.14533698558807373,0.28997671604156494,0.3048692047595978,-0.3207966387271881,0.01109461672604084,-0.23771686851978302,0.15023058652877808,-0.10602074861526489,-0.045665934681892395,-0.277556449174881,-0.03888875991106033,-0.04097772017121315,0.19894224405288696,-0.04278678074479103,0.12469981610774994,-0.11909408867359161,-0.2379060536623001,0.08105616271495819,0.1595936417579651,-0.232991561293602,0.0228896364569664,-0.06038971617817879,0.051453132182359695,-0.486500084400177,-0.03371931612491608,-0.0329241044819355,-0.004447947721928358,-0.06049744784832001,-0.04085273668169975,0.17575578391551971,-0.3484160304069519,0.09439552575349808,0.08639873564243317,-0.23386582732200623,-0.046220261603593826,0.11511296033859253,-0.11626680940389633,0.08202838897705078,0.08775778859853745,-0.35222744941711426,-0.039594657719135284,-0.1376183032989502,0.5953387022018433,-0.17511913180351257,0.32440105080604553,-0.2943299412727356,-0.1542801558971405,-0.8899322748184204,-0.05987713113427162,0.8405982851982117,-0.6551921963691711,0.5820283889770508,0.40694108605384827,-0.05487586185336113,0.11043398827314377,0.14802855253219604,0.07949978113174438,-0.10201437026262283,0.26113376021385193,-0.26091939210891724,0.3909606337547302,0.25545674562454224,0.17184145748615265,0.15311133861541748,0.18875913321971893,-0.1721665859222412,0.156421959400177,0.07171199470758438,-0.02223604917526245,-0.018272973597049713,0.08093932271003723,-0.459621399641037,-0.5004573464393616,-0.28591787815093994,-0.3388954699039459,-0.34935957193374634,-0.16495917737483978,-0.653401255607605,0.16402776539325714,0.2450544685125351,0.16769635677337646,-0.06846537441015244,0.12983547151088715,-0.08030202984809875,-0.23084446787834167,-0.19910721480846405,-0.24749527871608734,0.051014043390750885,-0.27504870295524597,-0.36146944761276245,-0.0710998922586441,-0.04195171594619751,-0.2457025945186615,0.04885020852088928,-0.254989892244339,0.1984843909740448,-0.10035976767539978,0.00288857682608068,0.11445792764425278,0.11723316460847855,0.16487987339496613,-0.2620271146297455,-0.049057044088840485,-0.2158915102481842,-0.1330680400133133,0.06382369995117188,0.03884965926408768,0.4354952871799469,-0.15750619769096375,-0.1805734783411026,-0.11367437988519669,-0.019925955682992935,-0.11875475198030472,0.19678723812103271,-0.028012150898575783,-0.12182721495628357,-0.1955999732017517,-0.006202027667313814,-0.148084357380867,0.2109566330909729,0.11998839676380157,-0.06059378385543823,-0.029267361387610435,0.003146857488900423,-0.08099278062582016,-0.10488636046648026,-0.0007335408590734005,-0.008312400430440903,-0.010744696483016014,-0.09731915593147278,-0.08723723143339157,-0.47063401341438293,-0.04072590544819832,-0.08404102176427841,-0.08323626965284348,0.2118690460920334,0.1221296414732933,0.13264885544776917,0.09713868051767349,0.11243164539337158,0.11944728344678879,-0.11732809990644455,0.10615444928407669,-0.06168055161833763,-0.04191162437200546,-0.08676023036241531,-0.20748959481716156,-0.039003051817417145,0.04587041214108467,0.34798359870910645,-0.14515124261379242,-0.24177992343902588,-0.0930897444486618,-0.09139765053987503,-0.0450824536383152,0.35856693983078003,-0.19201096892356873,-0.16286927461624146,-0.23936514556407928,0.06874416023492813,-0.06206348538398743,0.19058644771575928,-0.13427744805812836,-0.11497664451599121,-0.14405667781829834,0.01860753260552883,-0.21733304858207703,0.1102832704782486,0.08717567473649979,0.21386411786079407,-0.08505741506814957,0.17496630549430847,0.07265911251306534,0.25199592113494873,-0.1024547889828682,-0.0569198913872242,0.08301322907209396,-0.010597681626677513,-0.053977105766534805,-0.41881927847862244,0.15415287017822266,-0.03440194949507713,0.07841460406780243,0.27799293398857117,0.23888130486011505,0.5050021409988403,-0.008088745176792145,0.11962077021598816,0.1818302869796753,-0.04320961609482765,0.15223652124404907,0.391779363155365,0.07611685246229172,-0.1339465081691742,-0.11131896078586578,0.12029209733009338,0.03186085820198059,0.4004669487476349,0.09031181782484055,0.016036732122302055,0.08924838155508041,-0.02265249192714691,-0.06839442253112793,0.19782376289367676,0.013513934798538685,-0.07303798198699951,-0.2030787318944931,-0.17579865455627441,-0.1099328026175499,-0.002475420478731394,0.014494684524834156,-0.09477341175079346,0.04663998261094093,0.11571149528026581,-0.13824570178985596,-0.09009259194135666,0.0011827225098386407,0.1987532526254654,0.012906783260405064,-0.03914136067032814,0.11335439234972,0.03781762346625328,-0.12724889814853668,0.09169227629899979,0.043569523841142654,-0.00728880288079381,0.05774606019258499,-0.20946291089057922,0.04530305042862892,-0.12013076990842819,-0.13598330318927765,-0.0002318825718248263,-0.07061251252889633,-0.008622324094176292,0.08784511685371399,0.2291918843984604,0.09783069789409637,0.018813064321875572,-0.04094182699918747,-0.06977293640375137,0.06697685271501541,0.06423098593950272,0.025895023718476295,0.00419578468427062,-0.037687186151742935,0.09271979331970215,0.08319598436355591,0.16855654120445251,0.13467873632907867,-0.029944295063614845,-0.025537146255373955,-0.1803341507911682,0.18340124189853668,0.11319077759981155,0.14638176560401917,-0.11165247112512589,-0.010606556199491024,-0.13584837317466736,0.06753865629434586,0.1103835478425026,0.1599312126636505,-0.04805648699402809,0.09653010964393616,0.13518619537353516,-0.10756772756576538,-0.008190683089196682,0.0533238910138607,0.03823116049170494,0.037969283759593964,-0.1390470713376999,0.01453231181949377,0.07080762088298798,0.02670488879084587,0.0073705632239580154,0.0912468433380127,0.2061772644519806,0.1348225176334381,0.19691085815429688,-0.05456841364502907,-0.3152792155742645,-0.3346122205257416,-0.5488182306289673,-0.06994196027517319,-0.15934701263904572,-0.10549460351467133,-0.0684756487607956,-0.043156761676073074,0.20730045437812805,-0.021549992263317108,0.006708928383886814,0.10145983844995499,-0.22579306364059448,-0.010217705741524696,-0.19615964591503143,0.002966223983094096,0.06630760431289673,0.19569309055805206,0.010117069818079472,0.04026494920253754,0.18817371129989624,0.008621425367891788,0.03676898404955864,0.019255103543400764,0.11935807019472122,0.007065554615110159,-0.038100842386484146,0.022001594305038452,0.030883053317666054,0.07246469706296921,-0.020430680364370346,-0.04912527650594711,-0.0791277214884758,-0.03462236374616623,-0.08971560746431351,-0.22538122534751892,-0.2526644468307495,-0.21252374351024628,-0.23258331418037415,0.09722252190113068,0.022585105150938034,0.18428896367549896,-0.03187316283583641,-0.1071617603302002,0.47969937324523926,-0.16027455031871796,-0.12400402873754501,0.06892922520637512,0.17440636456012726,0.19976630806922913,-0.04454929754137993,-0.026172492653131485,0.001623060554265976,0.004777790978550911,-0.14182381331920624,0.08417138457298279,-0.05109965428709984,-0.1307484656572342,-0.07156138122081757,-0.01730293594300747,0.05201863497495651,0.013988245278596878,0.1439243108034134,-0.03119853138923645,-0.020360486581921577,-0.06848929077386856,0.13937973976135254,-0.08736173808574677,0.1511244922876358,0.058752771466970444,0.06640724837779999,0.058984629809856415,0.03647048771381378,0.06413793563842773,-0.1432272344827652,0.13878315687179565,0.12954410910606384,0.09745746850967407,0.06918676942586899,0.04136006906628609,-0.10916300863027573,-0.16840261220932007,-0.07912451773881912,-0.08451126515865326,-0.00847428198903799,-0.20356982946395874,-0.14486950635910034,0.1856343001127243,0.07297006994485855,0.06609577685594559,0.08915407210588455,0.06207283213734627,0.2815782129764557,0.06433495134115219,-0.04904184490442276,-0.03203028813004494,-0.020556647330522537,-0.028778517618775368,-0.13675130903720856,-0.19860699772834778,-0.00930734071880579,0.058661673218011856,-0.1397828310728073,0.06958893686532974,-0.007191606797277927,-0.2340247482061386,-0.187738835811615,-0.00840641651302576,-0.0712796151638031,-0.0446825735270977,-0.10283544659614563,0.00930766761302948,0.05778445303440094,-0.046983037143945694,0.19968263804912567,0.017488939687609673,0.22488093376159668,-0.018673166632652283,-0.07656965404748917,-0.011184237897396088,0.010542677715420723,0.15389691293239594,0.021347491070628166,0.09594111144542694,-0.010998004116117954,0.022020157426595688,0.15080319344997406,0.01980842649936676,-0.10274028033018112,-0.011270986869931221,0.0003100115281995386,-0.02644636295735836,0.10288150608539581,-0.022529639303684235,-0.1566917598247528,0.05708922818303108,0.09823732078075409,0.06670551747083664,-0.06834393739700317,-0.07213900983333588,0.0003786466259043664,-0.14104096591472626,-0.10334385186433792,-0.135537788271904,-0.28131505846977234,-0.14929582178592682,-0.049986112862825394,0.017333529889583588,0.021954327821731567,0.12344588339328766,0.03434605896472931,0.016951074823737144,0.06686185300350189,-0.1441720873117447,0.018001871183514595,-0.10586675256490707,0.06368262320756912,-0.17707931995391846,-0.12939846515655518,-0.23022234439849854,0.06864812970161438,0.17575456202030182,0.16156356036663055,0.017337201163172722,-0.061870262026786804,-0.02998392842710018,-0.004069385584443808,0.008669870905578136,0.17353802919387817,0.09795277565717697,0.027496319264173508,0.0022169610019773245,0.011224539950489998,0.00660872645676136,-0.004142956342548132,-0.16133524477481842,-0.233466237783432,-0.10344728827476501,-0.2244156152009964,0.28740763664245605,-0.10316769033670425,-0.22490155696868896,0.10205867141485214,0.221987783908844,0.1436847299337387,-0.03762790188193321,0.16567642986774445,-0.11092352867126465,0.41136693954467773,-0.0024575202260166407,-0.21557141840457916,0.5432456731796265,0.018078207969665527,0.2759042978286743,0.027102746069431305,-0.33130943775177,0.42206960916519165,0.2156085968017578,-0.1626540869474411,0.24447594583034515,0.1570930778980255,0.003544269362464547,0.04868312180042267,-0.15557153522968292,0.1440994143486023,0.1220460757613182,0.00169975939206779,0.14819763600826263,0.2638852894306183,-0.12921737134456635,-0.08977048099040985,0.063963882625103,0.1470724195241928,0.13660430908203125,0.31025102734565735,-0.2124139964580536,0.11063751578330994,-0.17241956293582916,0.2436515986919403,0.06852931529283524,-0.27559781074523926,0.012575137428939342,-0.006466616410762072,-0.11988719552755356,-0.14211614429950714,-0.07545176893472672,-0.08222495019435883,0.38657674193382263,0.2793198823928833,-0.32824164628982544,0.29895904660224915,0.473414808511734,0.2358822524547577,0.07988254725933075,0.0795866847038269,-0.21845285594463348,0.33822476863861084,0.3421136140823364,-0.07182981073856354,0.09086324274539948,-0.5242226719856262,0.28528106212615967,0.3195655941963196,-0.20189929008483887,0.4002946615219116,-0.03377503529191017,0.0854978859424591,-0.05445928871631622,-0.027011718600988388,-0.052893638610839844,0.17540206015110016,0.1697424352169037,0.07554729282855988,0.03798490762710571,0.28129681944847107,0.2828100919723511,0.29373636841773987,0.1479719877243042,-0.1287868767976761,-0.026213206350803375,-0.06387585401535034,-0.06880401819944382,0.022449877113103867,0.10638436675071716,-0.32162535190582275,-0.27261775732040405,-0.32543253898620605,-0.28990668058395386,-0.23005641996860504,-0.26213356852531433,-0.495987206697464,0.04748294875025749,0.1871795952320099,0.24393528699874878,0.24176745116710663,0.08324539661407471,-0.39661747217178345,-0.16485580801963806,-0.04568105563521385,0.04375723749399185,-0.08130830526351929,-0.0790974497795105,-0.36984869837760925,-0.1313074231147766,-0.1371617317199707,-0.06614579260349274,-0.008925916627049446,0.011860762722790241,0.6122959852218628,0.016560308635234833,-0.0622330866754055,-0.045032601803541183,-0.028689978644251823,0.03216962143778801,-0.07057894766330719,-0.06006232649087906,-0.07337730377912521,0.08016867935657501,-0.08011993020772934,-0.023832663893699646,0.12726855278015137,0.1249370127916336,0.16951043903827667,0.06755417585372925,0.007262615021318197,0.05482685938477516,-0.05258464068174362,-0.08446480333805084,-0.05563134700059891,-0.03088425099849701,-0.07444322854280472,-0.048380766063928604,0.033162347972393036,-0.07522974163293839,-0.1616578847169876,-0.09175436198711395,-0.2411419004201889,-0.20513780415058136,0.025431960821151733,0.10113224387168884,-0.0148515859618783,-0.21039336919784546,-0.14948144555091858,-0.034269582480192184,0.0896054282784462,-0.008878801017999649,-0.023981260135769844,0.12633240222930908,0.10477093607187271,-0.0023173547815531492,-0.14245599508285522,-0.012057596817612648,-0.030537430197000504,-0.05943308025598526,-0.26944273710250854,-0.14584068953990936,-0.001473517157137394,0.007451885845512152,0.02593161165714264,-0.09985678642988205,-0.10477079451084137,-0.0761791318655014,-0.006861725356429815,-0.00377035909332335,-0.011534116230905056,0.10104202479124069,0.11756729334592819,0.1713506281375885,0.014873120933771133,0.04050007462501526,0.05042240023612976,0.1091284528374672,0.13358667492866516,0.16476306319236755,0.13099917769432068,0.03462851047515869,0.006793114356696606,0.030423687770962715,0.037603456526994705,0.06046842038631439,0.046219341456890106,-0.06398484110832214,-0.10330787301063538,0.027289846912026405,0.047661129385232925,-0.11278340220451355,-0.2109604924917221,0.03441840410232544,0.050921857357025146,0.08178672194480896,0.18525885045528412,0.0495406873524189,0.2014743536710739,-0.05284322053194046,-0.06360708922147751,-0.046562373638153076,-0.13087421655654907,-0.11501555889844894,0.03743523731827736,0.014004002325236797,-0.026273785158991814,-0.05007590726017952,-0.015549316070973873,-0.04937444627285004,0.17738240957260132,-0.011097482405602932,-0.03153850510716438,-0.09194214642047882,-0.07971648126840591,-0.07309570163488388,0.08718756586313248,0.01906387135386467,-0.06704573333263397,-0.015039733611047268,-0.03639042004942894,-0.08640386909246445,-0.1299474835395813,0.14453667402267456,0.19616664946079254,-0.11556953936815262,0.11511353403329849,0.23282021284103394,0.26047083735466003,-0.0084226680919528,0.008679527789354324,0.009340431541204453,-0.16560907661914825,0.14434640109539032,-0.15086038410663605,-0.3272589445114136,-0.18731307983398438,-0.16236306726932526,-0.21046173572540283,0.05146166682243347,-0.26849085092544556,0.17706122994422913,0.2547399401664734,0.2342396229505539,0.01690349541604519,0.2116006761789322,-0.16019085049629211,0.025596924126148224,-0.011184537783265114,-0.09208730608224869,0.0016760163707658648,-0.27261894941329956,0.15818528831005096,-0.07465048879384995,0.00969992857426405,-0.1247573122382164,-0.2408113181591034,-0.2311258763074875,-0.1016031950712204,-0.0006645612302236259,-0.10709783434867859,-0.07942062616348267,0.019748173654079437,0.22459115087985992,-0.10937576740980148,-0.13441240787506104,-0.11060229688882828,-0.13540706038475037,-0.08554670214653015,0.17322015762329102,0.06379968672990799,-0.0779373049736023,-0.06870631873607635,-0.14602209627628326,-0.016060419380664825,0.22951816022396088,-0.1588161438703537,-0.04845196753740311,-0.08429702371358871,0.04157416149973869,0.07483043521642685,0.34938356280326843,-0.20160000026226044,0.0326610691845417,0.015412417240440845,-0.019295530393719673,0.011287150904536247,0.05347110703587532,-0.04578617587685585,-0.16795238852500916,0.04658999294042587,0.1365075409412384,-0.033602017909288406,-0.1977236419916153,-0.5786765813827515,0.036660030484199524,0.004630188923329115,-0.060292117297649384,0.04838045313954353,0.08057666569948196,0.19867104291915894,-0.04976620525121689,0.010088079608976841,-0.030945448204874992,0.0027192067354917526,-0.17191985249519348,0.2699090838432312,-0.020281225442886353,0.008865250274538994,-0.11365395784378052,0.03943837434053421,0.14319220185279846,-0.18039271235466003,0.12782903015613556,0.14729100465774536,0.18761271238327026,-0.1597299426794052,-0.41723960638046265,-0.15863460302352905,0.011981257237493992,0.034906163811683655,-0.04458732530474663,-0.15223810076713562,-0.3575764000415802,0.09768394380807877,-0.020213309675455093,0.028545169159770012,0.1257607340812683,0.006930716335773468,-0.16937536001205444,0.1665983498096466,0.03612113744020462,0.07005279511213303,-0.010321262292563915,0.01836591213941574,-0.09406063705682755,0.06082506477832794,-0.040431879460811615,-0.11574296653270721,-0.2492026686668396,-0.11103188246488571,-0.062019314616918564,-0.12975455820560455,0.023952636867761612,0.007884492166340351,-0.10479960590600967,0.06645040214061737,0.12456513196229935,0.027489177882671356,0.05085233226418495,0.04181442782282829,0.029768630862236023,0.010099560022354126,0.0007206095033325255,-0.07101460546255112,0.09887111186981201,0.06302094459533691,0.0460311584174633,-0.08769865334033966,-0.054582688957452774,0.22025066614151,-0.025286471471190453,-0.15224604308605194,-0.11522875726222992,-0.32483166456222534,-0.20930856466293335,0.06344158202409744,0.10707466304302216,-0.041046142578125,-0.14814229309558868,-0.028508009389042854,-0.06933628022670746,0.017298253253102303,-0.03503501042723656,0.0067389230243861675,0.08375245332717896,-0.14168277382850647,0.03636787459254265,0.08495298027992249,0.07072442024946213,0.14069058001041412,0.005028660874813795,-0.0456533320248127,0.1520456224679947,0.12521803379058838,-0.06439925730228424,0.017072021961212158,0.011926256120204926,0.044681064784526825,-0.14120888710021973,-0.19230881333351135,0.050752315670251846,0.1635054051876068,0.25248581171035767,0.24419495463371277,0.2583131492137909,0.3610241115093231,0.07031742483377457,0.15082424879074097,0.1476999819278717,0.0012945865746587515,-0.16894009709358215,0.12104979902505875,0.00383125152438879,-0.004288955591619015,0.04779157042503357,0.035371460020542145,0.20350442826747894,0.10970816761255264,-0.02393106184899807,-0.08954858034849167,-0.045389097183942795,0.14723464846611023,0.3193516731262207,0.003951365128159523,-0.08742191642522812,-0.10972791910171509,-0.19480431079864502,-0.031725212931632996,0.07017640769481659,-0.26158982515335083,0.051779791712760925,0.08586351573467255,0.014426760375499725,-0.019910698756575584,-0.04309925064444542,-0.021136082708835602,0.15198007225990295,0.17412208020687103,0.12298286706209183,0.1207212433218956,0.05191342905163765,0.18356268107891083,-0.0930977314710617,-0.1919516623020172,-0.2894183099269867,-0.45431363582611084,-0.35176709294319153,-0.2107778638601303,0.0746275931596756,0.18955515325069427,0.24242208898067474,0.4661639928817749,0.3547746539115906,-0.11790146678686142,0.14553984999656677,0.09348488599061966,0.11876041442155838,0.06078687310218811,-0.05139222741127014,0.07048695534467697,0.07403850555419922,0.004088080022484064,0.17433838546276093,0.17808207869529724,0.14463521540164948,-0.4354139268398285,-0.24672028422355652,-0.013504275120794773,-0.03287805616855621,-0.09850113093852997,-0.008765781298279762,0.17627564072608948,0.01144055463373661,0.1862495243549347,0.011301558464765549,-0.0005457515944726765,0.0003910633677151054,0.006365698296576738,-0.06297516822814941,0.12603223323822021,0.12637871503829956,-0.08064520359039307,0.16586752235889435,-0.2152697592973709,0.08738449215888977,-0.35278692841529846,0.16295357048511505,0.0941203311085701,0.20119385421276093,-0.31975531578063965,0.0028119056951254606,0.021187100559473038,-0.021595893427729607,-0.05173741653561592,-0.11892038583755493,0.13100187480449677,0.15915001928806305,-0.2100721150636673,0.18778137862682343,0.011725625954568386,-0.24074578285217285,0.2136666178703308,-0.09989909082651138,0.13546539843082428,-0.17751483619213104,0.03856644034385681,-0.009672478772699833,-0.011219306848943233,-0.12259035557508469,0.0761326476931572,-0.07226670533418655,0.1693514883518219,0.12131448090076447,-0.1120271235704422,-0.019400786608457565,-0.05303679406642914,-0.11908172070980072,0.12175429612398148,0.12170801311731339,-0.01717076264321804,-0.07286445051431656,0.05617458000779152,-0.07581155747175217,0.22829866409301758,-0.10777640342712402,0.43051302433013916,-0.1965111792087555,0.3614628314971924,-0.37455323338508606,0.15495392680168152,-0.44881507754325867,-0.1571100652217865,0.0040188017301261425,-0.2571931779384613,0.26131337881088257,-0.34048160910606384,-0.058530449867248535,0.1782502830028534,0.1563543677330017,-0.1272241771221161,-0.06370466202497482,-0.09638477861881256,-0.08959796279668808,-0.00037538015749305487,0.1651349812746048,-0.1156059205532074,-0.07199278473854065,-0.19895438849925995,0.27277329564094543,0.28846773505210876,-0.21596106886863708,0.09030218422412872,0.006252540275454521,-0.19356675446033478,-0.007400316186249256,-0.0655524954199791,-0.09898633509874344,-0.06784303486347198,-0.08939950913190842,0.030295193195343018,-0.05220616236329079,-0.07007168978452682,0.01821896992623806,-0.08268040418624878,-0.07380567491054535,-0.16184553503990173,-0.10125041007995605,0.06289677321910858,0.07924310863018036,-0.044537823647260666,-0.017855415120720863,0.0579347163438797,0.055209770798683167,-0.0692431703209877,-0.012439200654625893,0.07932087779045105,0.007072858512401581,-0.2064332365989685,-0.021015340462327003,-0.029452964663505554,-0.045728009194135666,0.0219811350107193,-0.11160939186811447,-0.18349693715572357,0.015720471739768982,0.0407172255218029,0.13870491087436676,0.34098517894744873,0.30496636033058167,0.29756462574005127,-0.0330577977001667,-0.00745477806776762,-0.008288852870464325,0.005063564516603947,-0.10286172479391098,0.03447813168168068,0.07185091823339462,-0.028190020471811295,-0.176791250705719,0.00036279752384871244,-0.0784352496266365,0.07137513905763626,0.010577873326838017,-0.053593866527080536,-0.08164769411087036,-0.07205453515052795,0.06292411684989929,0.3365051746368408,-0.06111077964305878,0.024571845307946205,-0.010734804905951023,-0.020161833614110947,-0.10543332248926163,-0.07003296911716461,-0.004904193338006735,-0.010327007621526718,-0.06355514377355576,-0.053737446665763855,0.19310161471366882,-0.021336309611797333,0.04372364282608032,-0.05393952131271362,-0.006289039272814989,0.06519174575805664,0.044189538806676865,0.12454476952552795,-0.07437467575073242,-0.009641879238188267,-0.0724150761961937,-0.017723334953188896,-0.07215540111064911,-0.25290700793266296,-0.001221200916916132,0.028128257021307945,0.07358625531196594,0.22460266947746277,-0.03423558920621872,-0.1400143802165985,-0.07006962597370148,-0.03674263879656792,-0.0713980570435524,-0.017875229939818382,-0.05793662741780281,0.131979838013649,-0.044694673269987106,-0.05328501760959625,-0.05603883042931557,-0.056384921073913574,0.07639728486537933,-0.3993372619152069,-0.006043261848390102,-0.02898906171321869,0.03372068703174591,0.04975864291191101,0.043616555631160736,-0.013197459280490875,0.033840131014585495,0.02098825015127659,0.05094931274652481,0.027697080746293068,-0.10084798187017441,-0.09975653886795044,-0.06173304095864296,0.10445937514305115,0.012738880701363087,-0.05096791684627533,0.1849973499774933,-0.021345144137740135,0.008508479222655296,0.060386281460523605,0.02361609973013401,-0.01931455172598362,-0.05808837339282036,0.06799296289682388,-0.007197435945272446,-0.04271307960152626,-0.0767095685005188,-0.11141940951347351,0.008548572659492493,0.10443812608718872,0.037198565900325775,0.031028619036078453,0.027068382129073143,0.0267358236014843,0.03272523730993271,-0.04434475675225258,0.01788053661584854,0.0998491495847702,0.07419680804014206,0.0112119410187006,0.09780872613191605,-0.014670386910438538,0.035737037658691406,-0.07387755066156387,0.024495426565408707,0.0759374126791954,-0.009485435672104359,-0.015112340450286865,-1.276172224606853e-05,-0.04760490730404854,0.00852778647094965,-0.02633603662252426,0.017669128254055977,-0.004981320817023516,-0.01427276898175478,0.0980183407664299,0.059520598500967026,0.06497008353471756,0.04835301637649536,0.10041690617799759,-0.013099505566060543,0.0049658166244626045,-0.039630234241485596,-0.033233970403671265,0.1400490254163742,0.1217188835144043,0.05766969174146652,0.04237586259841919,0.06286454200744629,-0.010396843776106834,-0.040083739906549454,0.007320252712816,0.03235955908894539,-0.002754087094217539,0.11322865635156631,-0.10901180654764175,0.006669278722256422,0.09276264905929565,-0.06318638473749161,-0.054502710700035095,-0.03640419617295265,-0.060997188091278076,-0.1805708110332489,-0.16317066550254822,0.027713311836123466,-0.025616466999053955,-0.022244373336434364,-0.08372877538204193,-0.0023863674141466618,-0.016547126695513725,0.012058802880346775,-0.12994909286499023,-0.051389116793870926,-0.08687476068735123,-0.018757810816168785,0.06417752057313919,-0.017827175557613373,0.004831611644476652,-0.06589509546756744,-0.07330755889415741,-0.13415749371051788,0.02786821871995926,0.05077461153268814,-0.06963655352592468,-0.004416493698954582,-0.0652514323592186,-0.14984814822673798,0.15359941124916077,-0.0045182229951024055,0.008305692113935947,-0.014784458093345165,-0.047207873314619064,-0.1363104283809662,0.17208673059940338,0.06437581777572632,0.08951999247074127,-0.06421130150556564,0.05014532431960106,0.11617343872785568,0.09980861097574234,-0.02918102592229843,-0.06278026103973389,-0.13428130745887756,-0.0832739919424057,0.004135174676775932,-0.26882117986679077,0.026241814717650414,0.04815542325377464,0.07632898539304733,0.22646290063858032,0.2569097876548767,0.2248382270336151,0.009351620450615883,-0.03647160530090332,-0.11537843942642212,-0.012385229580104351,-0.10194207727909088,0.09573863446712494,-0.07467708736658096,-0.046825166791677475,-0.10656104236841202,-0.032659973949193954,-0.026441797614097595,0.32032546401023865,-0.012602264992892742,-0.004151587840169668,0.007189312018454075,0.07420359551906586,0.027995027601718903,-0.21154294908046722,0.0012392388889566064,-0.07162333279848099,-0.04980587586760521,0.009992172010242939,-0.03866138681769371,-0.06662380695343018,0.06666926294565201,0.09128322452306747,0.11226988583803177,-0.03450930118560791,0.05626080185174942,0.03961515054106712,-0.010135411284863949,-0.0019265096634626389,-0.03814384341239929,-0.022800393402576447,-0.1388956606388092,-0.15200020372867584,0.0149330273270607,-0.034852784126996994,0.055634934455156326,0.041253264993429184,-0.08369075506925583,0.05799631029367447,-0.022337183356285095,-0.0481761135160923,-0.07929277420043945,0.03927458077669144,0.08283136039972305,-0.08430608361959457,-0.023008616641163826,0.0037950254045426846,0.01991196908056736,0.022609617561101913,0.1228049024939537,0.042529378086328506,-0.07674748450517654,-0.05474358797073364,-0.06284884363412857,0.08905374258756638,-0.00481600733473897,0.039445895701646805,-0.027998486533761024,-0.02681204304099083,-0.04547730088233948,0.0025546327233314514,0.001323344768024981,0.14803935587406158,0.1775403469800949,0.15105211734771729,0.19236686825752258,0.185591459274292,0.30733293294906616,-0.18695302307605743,-0.03909798339009285,-0.06663702428340912,-0.056111764162778854,-0.06259351968765259,-0.018713099882006645,0.0038872859440743923,-0.18743397295475006,-0.13520678877830505,-0.12460540980100632,-0.08067028224468231,-0.3184506893157959,-0.7416076064109802,0.10157755762338638,0.09421101957559586,0.11072131246328354,0.1092529371380806,0.18293631076812744,-0.09329172223806381,-0.042752429842948914,-0.051671985536813736,-0.019672052934765816,0.034233205020427704,0.014111936092376709,0.2501775026321411,-0.0576501339673996,-0.0824998989701271,-0.048202741891145706,-0.015920108184218407,-0.05296068638563156,0.36119920015335083,-0.030459638684988022,-0.04208074510097504,-0.06340235471725464,-0.052320197224617004,-0.06777825951576233,-0.23445233702659607,-0.00047927326522767544,-0.008594455197453499,0.04601752758026123,0.0213998481631279,-0.08640555292367935,-0.27654576301574707,-0.001737784594297409,0.05283278226852417,-0.013421793468296528,-0.05490025132894516,-0.14674119651317596,0.15497943758964539,-0.00529307359829545,-0.039840247482061386,0.028156183660030365,-0.02131509594619274,-0.13085901737213135,0.08636433631181717,0.02739798091351986,-0.0010463090147823095,0.010782578960061073,0.05257158726453781,0.024042626842856407,-0.1631108820438385,-0.02365892007946968,0.01532275602221489,-0.0008448545704595745,-0.006321285385638475,-0.09448299556970596,-0.08234421908855438,0.021113228052854538,0.032880764454603195,0.005417915526777506,-0.031866297125816345,0.1160549521446228,0.07452729344367981,0.006540824193507433,0.03237346559762955,0.04809309542179108,-0.0502956248819828,0.07757793366909027,0.1637975126504898,0.00858992524445057,0.02999207004904747,0.0493585430085659,0.02088450826704502,0.0009395921952091157,0.29416197538375854,0.036079950630664825,0.06220146641135216,-0.004836654756218195,0.018314296379685402,0.09703253209590912,0.004254211205989122,-0.13752968609333038,-0.044797610491514206,0.04702290892601013,-0.0352327898144722,-0.010329289361834526,-0.0037657010834664106,0.05411235988140106,0.003294376889243722,0.026764020323753357,0.03924077749252319,0.16234877705574036,-0.013402413576841354,-0.1711941361427307,-0.0589105449616909,-0.07902170717716217,0.05512036755681038,-0.09581547975540161,-0.06391668319702148,0.17686884105205536,-0.11983679234981537,0.091643325984478,-0.07799167931079865,-0.1077980175614357,0.19092535972595215,0.23189935088157654,0.12902326881885529,-0.023411761969327927,-0.0932132750749588,-0.1355060189962387,-0.18780206143856049,0.029917007312178612,0.24021443724632263,0.4537276029586792,0.15935704112052917,0.16157111525535583,-0.14716216921806335,-0.03554902225732803,0.10631490498781204,0.14198094606399536,-0.0691445842385292,0.1298113614320755,0.09638673067092896,-0.0005069683538749814,0.13222149014472961,-0.03985212370753288,-0.027144581079483032,0.2679130434989929,-0.33011701703071594,0.04343998432159424,0.032492782920598984,-0.15039490163326263,-0.022769564762711525,-0.11055531352758408,-0.17981868982315063,-0.31362184882164,0.028664203360676765,-0.05372392013669014,-0.03775625675916672,0.06609217077493668,0.20814885199069977,-0.10528343170881271,-0.1579151749610901,0.15221983194351196,-0.0017079465324059129,-0.005716211162507534,-0.04215209558606148,0.1907426118850708,0.11783161014318466,-0.1690249890089035,-0.19130496680736542,-0.006240046117454767,0.053368836641311646,0.47964170575141907,0.022545453161001205,0.20557601749897003,-0.40855249762535095,0.0846155509352684,0.11506021022796631,-0.4333726763725281,0.308098167181015,0.046447429805994034,-0.02694712206721306,-0.012940569780766964,-0.03454102203249931,-0.012539970688521862,-0.034017398953437805,0.036641016602516174,-0.35188665986061096,0.006055451929569244,0.07231014221906662,0.058706074953079224,0.13151508569717407,0.04144741967320442,-0.15053898096084595,-0.06730130314826965,-0.1459677666425705,-0.07841334491968155,-0.1021236851811409,0.018127406015992165,0.19084051251411438,-0.08427229523658752,-0.059138938784599304,-0.08801653236150742,-0.04461665824055672,-0.18284152448177338,-0.14818710088729858,-0.03213897719979286,-0.00950624980032444,0.030823949724435806,0.07172521203756332,0.04221821203827858,-0.022096749395132065,-0.039787691086530685,-0.007956700399518013,-0.046260442584753036,-0.005395602434873581,-0.08883373439311981,0.23483337461948395,-0.07117406278848648,-0.04332466423511505,-0.09362379461526871,-0.023834895342588425,-0.11494211107492447,-0.05889853462576866,0.07703202962875366,0.1164926290512085,-0.002363267820328474,0.01851063221693039,-0.026901252567768097,-0.10423706471920013,0.010831667110323906,0.022831743583083153,-0.0065478007309138775,-0.006848467513918877,-0.013162648305296898,0.029023373499512672,-0.023448627442121506,-0.04383710026741028,0.055562276393175125,0.022163931280374527,-0.02007218636572361,0.20930644869804382,0.01541757769882679,0.014785419218242168,0.004057982936501503,0.05937943235039711,0.023695049807429314,-0.005447689909487963,-0.004196953494101763,0.014883846044540405,-0.0563679113984108,-0.005186752416193485,-0.03327637538313866,0.13959436118602753,-0.0010499211493879557,-0.03478299081325531,-0.00015855095989536494,-0.038725730031728745,-0.006855804938822985,-0.3485611379146576,0.010357246734201908,0.002998811425641179,0.0052900658920407295,0.04182884842157364,0.08713778108358383,0.2773982584476471,-0.0030925432220101357,0.001833389513194561,0.0002668725501280278,0.04139167070388794,0.03418250009417534,0.2731472849845886,-0.0024086053017526865,0.017885763198137283,0.0023470406886190176,-0.031453173607587814,0.020523913204669952,0.37329772114753723,-0.013565627858042717,-0.0074533503502607346,-0.010642162524163723,0.02635003626346588,-0.008539767935872078,0.17584580183029175,-0.029274333268404007,0.01377238892018795,0.05400197580456734,-0.05719534307718277,-0.115815170109272,-0.1730014830827713,0.03638618066906929,0.005166651681065559,-0.04366180673241615,-0.05510561168193817,-0.018066521733999252,0.22045256197452545,0.07567348331212997,-0.0005125561146996915,0.06265189498662949,0.07838381081819534,0.04682490974664688,-0.03311917558312416,-0.022772928699851036,0.040159665048122406,0.01659984141588211,-0.037467509508132935,-0.06332001835107803,-0.08963397145271301,0.007915928959846497,-0.0237480066716671,-0.026686402037739754,0.029425008222460747,-0.019752714782953262,0.14846286177635193,0.05139307305216789,-0.009806009940803051,0.0010310296202078462,0.007904242724180222,0.02111681178212166,0.18737399578094482,-0.025965183973312378,-0.03598226606845856,-0.051654160022735596,0.07865829765796661,0.11287675052881241,-0.40138524770736694,0.011041993275284767,0.0048939562402665615,-0.025157561525702477,-0.0002494456712156534,0.004238292574882507,0.2619924247264862,-0.08575320243835449,-0.1126728355884552,-0.03390941396355629,-0.04071555659174919,0.017579374834895134,0.1728326380252838,-0.0021892201621085405,-0.02509610541164875,-0.04087632894515991,-0.14538557827472687,-0.08033518493175507,0.04511253163218498,0.06901673227548599,0.11786679923534393,0.13780391216278076,0.1365474909543991,0.06290944665670395,0.15331682562828064,-0.043592751026153564,-0.06498029083013535,-0.03367177024483681,-0.011709299869835377,-0.07110033184289932,-0.10386761277914047,-0.006001755595207214,0.009576303884387016,-0.015013161115348339,0.00937294028699398,-0.009445283561944962,0.21525432169437408,0.006727311294525862,0.015352349728345871,0.05468926578760147,0.022165711969137192,0.05805106461048126,0.11786160618066788,0.03666679933667183,0.056212883442640305,0.025494901463389397,0.14256592094898224,0.15117131173610687,0.22338071465492249,0.007493673823773861,0.018316514790058136,-0.021325355395674706,0.011422739364206791,-0.0168803371489048,-0.35090047121047974,-0.07757610082626343,-0.08292020112276077,-0.010749127715826035,-0.042989879846572876,-0.05983442813158035,-0.10424251854419708,0.053354404866695404,0.03818534314632416,-0.004680780228227377,-0.05456697568297386,-0.09592819958925247,-0.5249916315078735,0.08902048319578171,0.05048153176903725,0.06585238128900528,0.06408722698688507,0.044084999710321426,0.23668846487998962,-0.05134608596563339,-0.02605404146015644,-0.02360505796968937,-0.014353393577039242,-0.07008740305900574,0.017756635323166847,-0.018504392355680466,-0.01585490070283413,-0.02114713005721569,0.000921727332752198,-0.07110773026943207,-0.03442525863647461,0.019330216571688652,-0.010702237486839294,0.02833562158048153,-0.004618702922016382,-0.021778319031000137,-0.04070675000548363,-0.048403527587652206,-0.03307679295539856,-0.014422070235013962,0.06236890330910683,0.12956641614437103,0.4094656705856323,0.011319262906908989,0.026437003165483475,0.008723179809749126,0.006190876010805368,0.04268946871161461,0.03233892843127251,-0.05096294730901718,-0.09337958693504333,-0.031559836119413376,-0.036289773881435394,-0.017459847033023834,0.16649241745471954,0.00805744994431734,0.012517493218183517,0.010000155307352543,0.03148288652300835,-0.019594255834817886,-0.13104793429374695,-0.00549907935783267,0.07399352639913559,0.05346033349633217,-0.02138112112879753,-0.028303172439336777,-0.010960225947201252,-0.015457588247954845,-0.03204401209950447,-0.033955156803131104,-0.00501906918361783,0.00013450536062009633,0.10217005014419556,0.0019028253154829144,0.008412646129727364,0.013629603199660778,-0.03569040074944496,-0.01950959488749504,0.22849558293819427,-0.014796319417655468,0.00436492171138525,0.024821322411298752,-0.02742987871170044,-0.05178072676062584,0.04111817106604576,0.019799135625362396,0.012895413674414158,7.424679643008858e-05,-0.01988367736339569,0.03117774799466133,-0.09859038144350052,-0.00933887530118227,-0.006027440074831247,-2.4192351702367887e-05,-0.01854594610631466,-0.021082039922475815,0.22059164941310883,0.02211987040936947,0.015467235818505287,0.05218259245157242,0.030847463756799698,0.07227202504873276,0.10904018580913544,-0.06786613166332245,-0.018183279782533646,0.007509315386414528,0.07032827287912369,0.042585380375385284,0.2628055512905121,-0.050221771001815796,-0.03929930925369263,-0.10915032774209976,-0.10332053154706955,-0.0714266374707222,-0.22516511380672455,-0.008239039219915867,-0.01969563029706478,0.04243162274360657,0.04651780426502228,0.09054980427026749,-0.2942694127559662,0.01674039289355278,-0.014787642285227776,0.005980979651212692,-0.04113180562853813,0.01990036852657795,0.03944883123040199,-0.010899553075432777,-0.017970578745007515,-0.024655284360051155,-0.030637264251708984,0.018177427351474762,0.14513777196407318,0.09194748103618622,0.020859766751527786,-0.001136362785473466,-0.10032682865858078,-0.06960872560739517,-0.09654004126787186,-0.02085043117403984,-0.015064988285303116,-0.02168261632323265,-0.005501621402800083,0.007211470976471901,-0.39259135723114014,0.23204739391803741,0.18202842772006989,0.2119443267583847,0.2738990783691406,0.1640840619802475,0.21309822797775269,-0.025327470153570175,-0.0013112366432324052,-0.021063538268208504,-0.040879178792238235,-0.01742643304169178,0.1685098558664322,-0.22374527156352997,-0.2682080566883087,-0.29550960659980774,-0.2569096088409424,-0.2514316439628601,0.14082850515842438,0.1374179869890213,0.13565433025360107,0.13135112822055817,0.18883098661899567,0.13527372479438782,0.1724735051393509,-0.02510693669319153,-0.035278741270303726,-0.017906643450260162,0.017210813239216805,-0.027165092527866364,-0.595452070236206,-0.0660533457994461,-0.09365406632423401,-0.09275280684232712,-0.054376449435949326,-0.09710290282964706,-0.5917611718177795,-0.06903311610221863,-0.05440376698970795,-0.034961532801389694,-0.0421239398419857,-0.02383608929812908,0.18693725764751434,-0.03582148626446724,0.04758789390325546,0.06341523677110672,0.18445748090744019,0.1433393657207489,0.03185645863413811,-0.01796756684780121,-0.31891143321990967,-0.0015961620956659317,