{"version":"0.7.0","architecture":"SlimmableContainer","config":{"submodels":[{"max_value":0.5,"model":{"version":"0.7.0","metadata":{"date":{"year":2026,"month":5,"day":7,"hour":20,"minute":52,"second":27},"loudness":-17.288135528564453,"gain":0.772935999321152},"architecture":"WaveNet","config":{"layers":[{"input_size":1,"condition_size":1,"head":{"out_channels":1,"kernel_size":16,"bias":true},"channels":3,"kernel_sizes":[6,6,6,6,6,6,6,6,6,6,6,6,6,6,15,15,6,6,6,6,6,6,6],"dilations":[1,3,7,17,41,101,239,1,3,7,17,41,101,239,1,13,1,3,7,17,41,101,239],"activation":[{"type":"LeakyReLU","negative_slope":0.01},{"type":"LeakyReLU","negative_slope":0.01},{"type":"LeakyReLU","negative_slope":0.01},{"type":"LeakyReLU","negative_slope":0.01},{"type":"LeakyReLU","negative_slope":0.01},{"type":"LeakyReLU","negative_slope":0.01},{"type":"LeakyReLU","negative_slope":0.01},{"type":"LeakyReLU","negative_slope":0.01},{"type":"LeakyReLU","negative_slope":0.01},{"type":"LeakyReLU","negative_slope":0.01},{"type":"LeakyReLU","negative_slope":0.01},{"type":"LeakyReLU","negative_slope":0.01},{"type":"LeakyReLU","negative_slope":0.01},{"type":"LeakyReLU","negative_slope":0.01},{"type":"LeakyReLU","negative_slope":0.01},{"type":"LeakyReLU","negative_slope":0.01},{"type":"LeakyReLU","negative_slope":0.01},{"type":"LeakyReLU","negative_slope":0.01},{"type":"LeakyReLU","negative_slope":0.01},{"type":"LeakyReLU","negative_slope":0.01},{"type":"LeakyReLU","negative_slope":0.01},{"type":"LeakyReLU","negative_slope":0.01},{"type":"LeakyReLU","negative_slope":0.01}],"bottleneck":3,"head1x1":{"active":false,"out_channels":1,"groups":1},"layer1x1":{"active":true,"groups":1},"groups_input":1,"groups_input_mixin":1,"conv_pre_film":{"active":false,"shift":true,"groups":1},"conv_post_film":{"active":false,"shift":true,"groups":1},"input_mixin_pre_film":{"active":false,"shift":true,"groups":1},"input_mixin_post_film":{"active":false,"shift":true,"groups":1},"activation_pre_film":{"active":false,"shift":true,"groups":1},"activation_post_film":{"active":false,"shift":true,"groups":1},"layer1x1_post_film":{"active":false,"shift":true,"groups":1},"head1x1_post_film":{"active":false,"shift":true,"groups":1},"gating_mode":["none","none","none","none","none","none","none","none","none","none","none","none","none","none","none","none","none","none","none","none","none","none","none"],"secondary_activation":[null,null,null,null,null,null,null,null,null,null,null,null,null,null,null,null,null,null,null,null,null,null,null],"slimmable":null}],"head":null,"head_scale":0.010287377523513648},"weights":[-6.368555068969727,5.7602667808532715,-1.4884580373764038,-0.10233726352453232,0.27945101261138916,0.7605627179145813,1.6732537746429443,2.5328025817871094,1.8296496868133545,0.16205790638923645,-0.4760725796222687,-0.4878025949001312,-1.6538231372833252,-2.6902267932891846,-1.6738100051879883,0.11622709780931473,0.26013922691345215,0.2535879611968994,0.6398705244064331,0.9967422485351562,0.9730607867240906,0.12210872024297714,0.04873398691415787,-0.024126363918185234,-0.6266263723373413,-0.8231676816940308,-0.32065096497535706,-0.08373963087797165,0.10996323823928833,-0.007329985499382019,0.4623502790927887,0.7150302529335022,0.14754419028759003,-0.029325900599360466,-0.022074101492762566,-0.0025248806923627853,-0.18384525179862976,-0.18973100185394287,-0.11072725802659988,0.08426444977521896,-0.21515171229839325,-0.03832043334841728,-0.5713610649108887,-1.1894190311431885,-0.31102538108825684,0.04081672057509422,0.17142941057682037,0.29958346486091614,0.813879132270813,1.013188362121582,0.3790314495563507,0.10817642509937286,0.0005195990088395774,-0.06642806529998779,-0.14179323613643646,-0.2816792130470276,-0.30374547839164734,1.2604188919067383,1.1313456296920776,1.2683323621749878,-1.1241331100463867,0.294465035200119,0.9603468179702759,0.1088184118270874,0.04945256561040878,-0.48367947340011597,-0.7169933319091797,0.3863782286643982,-0.04441003128886223,0.5218133926391602,-0.6935598254203796,-0.6803767681121826,-0.2679247558116913,-0.5361764430999756,-0.6344883441925049,-0.6952749490737915,-0.693190336227417,-0.516400158405304,-0.4575672745704651,-0.057250071316957474,0.3964194059371948,-0.14451532065868378,-0.042247120290994644,0.0040868232026696205,-0.2760651409626007,-0.07781381160020828,-0.8224650025367737,-0.02694052830338478,-0.10177547484636307,-0.4601697027683258,-0.0707135945558548,-0.2659127712249756,0.5709740519523621,-0.18496224284172058,-0.35335972905158997,-0.22589360177516937,0.15592707693576813,0.46825817227363586,0.4932108521461487,-0.028481710702180862,0.011914893984794617,0.002957236720249057,-0.03185231238603592,-0.06709443032741547,-0.39546510577201843,-0.09131214022636414,-0.017768286168575287,-0.11882536858320236,0.08266770839691162,-0.16505560278892517,-0.34582921862602234,-0.06255875527858734,0.012012033723294735,-0.14290232956409454,-0.13320571184158325,-0.2925748825073242,-0.6531691551208496,-0.006869982928037643,0.07599899172782898,0.15762320160865784,-0.03278376907110214,0.2599363327026367,1.645255446434021,-0.00930118840187788,0.09866586327552795,0.1889762282371521,0.07239367812871933,0.012465735897421837,-0.2079339623451233,0.34614694118499756,-0.4394342005252838,-1.0321365594863892,-0.47916296124458313,-2.2194526195526123,1.2181509733200073,0.5175639986991882,0.3342737853527069,-0.9298178553581238,0.3858054578304291,-0.42223215103149414,1.1035610437393188,0.15381187200546265,0.40285351872444153,-1.1799179315567017,-0.3058592677116394,0.8260282278060913,-1.1060527563095093,0.16103801131248474,0.12664522230625153,0.11942673474550247,0.1332911103963852,0.19957074522972107,-0.7069792151451111,-0.4873564541339874,-0.3682659864425659,-0.376919686794281,-0.3487524092197418,-0.4153507351875305,0.32127097249031067,-0.2685333490371704,0.04101715236902237,0.1186244934797287,0.029337698593735695,0.05492214858531952,-0.06849119812250137,-0.259564608335495,-0.23005661368370056,0.01452290453016758,-0.08407005667686462,-0.13454033434391022,0.20415663719177246,-0.04115644097328186,0.017488209530711174,0.20877277851104736,0.15980719029903412,0.12320534884929657,0.9119107127189636,0.24156707525253296,0.34800899028778076,0.2502915859222412,0.2996808588504791,0.4305807054042816,0.01576809026300907,0.08787469565868378,-0.09541642665863037,-0.014084843918681145,-0.037468284368515015,-0.34115931391716003,0.5106428861618042,0.3939816653728485,0.46376967430114746,0.4798266887664795,0.7067813277244568,0.3359154462814331,-0.539110541343689,-0.035461995750665665,-0.1484619677066803,-0.38917770981788635,-0.2693123519420624,-0.34530842304229736,0.6204791069030762,-0.8261762857437134,-3.8228001594543457,0.41892343759536743,0.6433923840522766,0.127891406416893,-1.8075473308563232,-0.7916892170906067,3.5913801193237305,0.5160234570503235,0.4905572533607483,-2.6386942863464355,-0.3051114082336426,-0.12950804829597473,2.2922377586364746,0.08471199870109558,-0.2743088901042938,0.9083664417266846,-0.5119490623474121,0.08499810844659805,0.07237058132886887,-0.11265460401773453,-0.10095885396003723,0.029419371858239174,-0.366558313369751,0.028178030624985695,0.14006291329860687,0.03811804577708244,-0.2665512263774872,-0.11755119264125824,0.3541128635406494,-0.027117028832435608,0.002759246388450265,0.22291795909404755,0.007670928258448839,-0.08811948448419571,-0.22415027022361755,-0.06898079067468643,-0.07253959029912949,0.018420374020934105,0.002876495011150837,0.03237665072083473,-0.2965235412120819,-0.1116069033741951,-0.2751997411251068,-0.2603934407234192,0.18278656899929047,0.22911621630191803,-0.2483908236026764,0.030352097004652023,-0.11498592048883438,-0.22003032267093658,0.19977009296417236,0.447041779756546,0.17518840730190277,0.05860748887062073,-0.013537372462451458,-0.00023867213167250156,-0.014144162647426128,0.26498943567276,-0.16221439838409424,0.11731922626495361,0.12943251430988312,0.13442543148994446,-0.12698958814144135,0.2690356373786926,0.5071578621864319,-0.0289585180580616,0.12192430347204208,0.05412016436457634,-0.18890643119812012,-0.4684956669807434,0.06866542249917984,-0.27582719922065735,-0.2030646800994873,0.08014154434204102,0.20744475722312927,-0.48972442746162415,-0.6129055619239807,0.32508885860443115,-0.25660690665245056,0.45674899220466614,0.12821979820728302,0.5557252764701843,-0.16498398780822754,0.19037920236587524,0.015573651529848576,0.2056470662355423,-0.15802001953125,0.08444619923830032,-0.18760976195335388,-0.02079663798213005,-0.01657538302242756,-0.04391394555568695,-0.0921742394566536,-0.018290545791387558,0.5860686898231506,-0.013098686933517456,0.018238617107272148,0.008356884121894836,0.0752914696931839,-0.03230689465999603,-0.8297262191772461,0.012262118980288506,0.05593160539865494,0.09380851686000824,0.2605896592140198,-0.08248286694288254,0.09556860476732254,0.01769438572227955,-0.015566224232316017,-0.01953369751572609,-0.0856756865978241,0.2395789474248886,0.5983622670173645,0.07673097401857376,0.050044797360897064,0.08924755454063416,-0.028799671679735184,0.24546164274215698,-0.07919226586818695,0.0573408305644989,0.07739260792732239,0.12581203877925873,0.09881123155355453,-0.25532639026641846,0.27179762721061707,-0.0034004817716777325,-0.010794073343276978,-0.015179927460849285,-0.024097442626953125,-0.0008632981916889548,0.1678166389465332,0.016689101234078407,-0.0017142827855423093,0.00924962479621172,0.012904110364615917,-0.0003664059331640601,-0.48032283782958984,0.022224754095077515,0.010406962595880032,0.03683038055896759,0.052603255957365036,-0.035177044570446014,0.045087192207574844,0.1415339708328247,1.470847725868225,-3.12458872795105,-0.9649773836135864,-1.1629726886749268,1.4889605045318604,0.4776361286640167,-0.4074462652206421,-1.4593640565872192,-0.13319653272628784,-0.3529772460460663,2.0939266681671143,0.40621182322502136,0.5497415065765381,-2.629939079284668,-1.172089695930481,-0.17942741513252258,0.4564547538757324,0.0007658457034267485,-0.00935692060738802,-0.0070648714900016785,-0.04140864685177803,-0.04961804300546646,0.4152017831802368,-0.05048827454447746,-0.05332620069384575,-0.04794125631451607,-0.0215750802308321,0.07227347791194916,-0.14026577770709991,-0.046828094869852066,-0.03727250173687935,-0.030022168532013893,0.02525315247476101,0.08579843491315842,0.45709577202796936,-0.0030085293110460043,-0.005515275988727808,-0.005511964205652475,0.017300570383667946,-0.0028756859246641397,-0.08399681001901627,-0.019431930035352707,-0.0324845165014267,-0.08026622980833054,-0.10348909348249435,-0.18202929198741913,-0.1869126856327057,-0.017586736008524895,-0.019384536892175674,-0.06005585193634033,-0.09629471600055695,-0.15390503406524658,-0.15384194254875183,0.0071055046282708645,-0.00025089160772040486,-0.01166700292378664,0.0022688673343509436,-0.0014415266923606396,-0.5126408934593201,-0.006934026721864939,-0.007639208342880011,-0.026857009157538414,0.03679418936371803,-0.029638368636369705,0.21814337372779846,-0.00909231137484312,-0.005364472046494484,-0.01895887590944767,0.026995882391929626,-0.020600594580173492,0.7352167367935181,0.17639373242855072,0.2683585286140442,0.4861626625061035,-0.34719499945640564,0.18211686611175537,-0.43603113293647766,-0.13309362530708313,-0.05064486712217331,0.7882967591285706,-0.49056416749954224,0.1539788544178009,-0.09778972715139389,-0.48521915078163147,-0.1997176557779312,-0.7295019030570984,-0.5488105416297913,-0.3056144118309021,-0.6273928880691528,0.021916769444942474,0.016853947192430496,-0.0005892077460885048,0.016696805134415627,-0.0026365178637206554,0.07669887691736221,0.038887299597263336,0.03279763460159302,0.01241331547498703,0.027309319004416466,0.03455917909741402,-0.2691500782966614,0.04029832407832146,0.040793001651763916,0.013174834661185741,0.017640193924307823,0.04129725322127342,0.1430726945400238,0.006771366111934185,0.0006896908744238317,-0.003934319131076336,-0.01674284040927887,-0.017844920977950096,0.9110450148582458,0.006926783826202154,0.0009928642539307475,0.006926600355654955,0.002380120800808072,-0.04432159662246704,0.31320124864578247,0.004843515809625387,0.0018827721942216158,0.017176827415823936,0.01153414137661457,-0.05389188975095749,-0.6501293182373047,-0.047584082931280136,-0.0530615858733654,0.004664488602429628,0.020655103027820587,-0.012713829055428505,0.00563357537612319,-0.0777747854590416,-0.09788773953914642,-0.05800570547580719,-0.021436072885990143,-0.1628131866455078,-0.624326765537262,-0.0678628534078598,-0.08907582610845566,-0.07065382599830627,-0.046493303030729294,-0.16355067491531372,0.6021521687507629,0.09373749047517776,-0.4715668559074402,0.3304292857646942,-0.255237340927124,0.7129189372062683,-0.06673311442136765,0.10804244130849838,-0.6614528298377991,0.10302114486694336,-0.06074414402246475,-0.027866685763001442,-0.05832294002175331,0.21832489967346191,0.4909091591835022,-0.06676051765680313,-0.05755925178527832,0.12931302189826965,-0.5243111252784729,-0.10704461485147476,-0.08179789781570435,0.10732991248369217,0.1144789606332779,0.06464928388595581,0.3079614043235779,0.08887825161218643,0.058151692152023315,0.09300550073385239,0.049589719623327255,0.011982981115579605,0.07201278209686279,0.07040771842002869,0.20737260580062866,0.05722463130950928,0.16365735232830048,0.09080729633569717,0.2531823515892029,0.16273054480552673,-0.03679190203547478,-0.09256875514984131,0.2947399914264679,-0.010218856856226921,0.2968144416809082,-0.015743916854262352,0.1511216014623642,0.12484393268823624,-0.056908704340457916,0.1859164983034134,-0.0608542263507843,-0.15222924947738647,0.012891901656985283,0.05696664750576019,0.25538942217826843,-0.0753333568572998,-0.30159422755241394,0.06932482123374939,0.23593854904174805,-0.09937194734811783,-0.0637635663151741,0.04356972873210907,0.30800965428352356,-0.017864275723695755,0.028954926878213882,-0.051017310470342636,-0.009464460425078869,-0.031540825963020325,0.07465901970863342,-0.00016978145868051797,0.18086358904838562,-0.002504431875422597,-0.1290648877620697,-0.30089280009269714,-0.38491931557655334,-1.374596357345581,-0.44391679763793945,0.21856601536273956,-0.13365983963012695,-0.9017654061317444,0.4187444746494293,-0.48363974690437317,-0.4995540380477905,-0.31823092699050903,0.18767386674880981,0.3777341842651367,0.04572353884577751,-0.49628186225891113,0.24497506022453308,0.41862842440605164,0.32685843110084534,0.5496307611465454,-0.12632474303245544,-0.12195690721273422,-0.32215598225593567,0.04217908903956413,-0.027911005541682243,-0.04301303252577782,-0.42670735716819763,-0.20932097733020782,-0.28327175974845886,-0.2964273989200592,-0.29540327191352844,-0.04716148599982262,0.11889529973268509,0.02735334075987339,0.048451051115989685,-0.31968340277671814,-0.3171789348125458,0.10444638878107071,0.10354121029376984,-0.3713386058807373,0.00602197227999568,-0.18461675941944122,0.03778482973575592,-0.0704558864235878,-0.6037360429763794,-0.13986049592494965,0.011856619268655777,-0.05360846593976021,0.11022697389125824,-0.04368097707629204,0.18129897117614746,0.26154202222824097,0.03199830651283264,0.1808433085680008,0.06748878955841064,-0.020156895741820335,0.194806769490242,0.19462834298610687,0.15126332640647888,0.10888338088989258,0.05604904890060425,-0.20460882782936096,0.3718119263648987,0.17679975926876068,0.11353040486574173,0.29107633233070374,0.11515677720308304,0.1181066557765007,0.05759872868657112,-0.05894201621413231,-0.054040368646383286,0.09399519115686417,0.04033030569553375,0.16126970946788788,0.2751673460006714,0.023777827620506287,-0.4602455496788025,0.3194928467273712,-1.1008965969085693,0.8051034808158875,-0.8914141058921814,0.3603651821613312,0.7908387184143066,-0.21488934755325317,0.44119855761528015,-1.0380971431732178,-0.4957195818424225,0.3211447298526764,0.5336161851882935,-0.47550168633461,0.2631641626358032,0.6033692955970764,-0.1718454360961914,-0.013207105919718742,0.04406305029988289,0.0031574603635817766,0.03224225342273712,-0.030599338933825493,0.467187762260437,-0.04914434626698494,0.00528445839881897,0.012093576602637768,0.0754639059305191,0.03204116225242615,-0.3237052857875824,-0.18557800352573395,-0.2923688292503357,-0.23501446843147278,-0.10720039159059525,-0.07020797580480576,0.22069226205348969,0.20260277390480042,0.25936827063560486,0.30292096734046936,0.38388288021087646,0.43307429552078247,0.04004976898431778,0.04281635954976082,0.09170273691415787,0.06373157352209091,0.16782140731811523,0.1711656153202057,-0.12674619257450104,0.04106699302792549,-0.09328807145357132,-9.115095599554479e-05,-0.17795348167419434,0.15228034555912018,0.0918954461812973,0.08405432105064392,0.05408987030386925,0.17345751821994781,0.20140324532985687,0.15967310965061188,-0.8008904457092285,0.08998454362154007,0.008071435615420341,0.09113718569278717,0.054062601178884506,0.019654911011457443,-0.0021636029705405235,0.19052059948444366,0.06817653030157089,0.12889309227466583,0.12150031328201294,0.11752928793430328,-0.1753527969121933,-0.14875386655330658,0.1576225459575653,-0.14512939751148224,-0.5886783599853516,0.5071590542793274,0.6938692331314087,-0.03212404251098633,0.46220842003822327,0.5604819059371948,-0.8370119333267212,0.24930916726589203,-0.06876065582036972,-0.4014814794063568,-0.691598653793335,0.28750646114349365,-0.5288383364677429,0.10016126185655594,-0.008684405125677586,-0.10733403265476227,-0.03989283740520477,-0.07148656249046326,-0.14582306146621704,-0.09093980491161346,0.05302030220627785,-0.03219405189156532,0.002824801253154874,-0.014948982745409012,-0.05221492052078247,-0.008466432802379131,-0.7491349577903748,0.046324461698532104,0.0787271037697792,0.08038902282714844,0.06468954682350159,-0.10336782038211823,0.33306702971458435,-0.19526395201683044,-0.1617414504289627,-0.07015971839427948,0.04667156934738159,-0.45612066984176636,0.5436857342720032,-0.03636869788169861,0.027843834832310677,0.01873265951871872,0.10202433913946152,-0.023059876635670662,-0.040658533573150635,-0.21805858612060547,-0.21554498374462128,-0.22078770399093628,-0.34006068110466003,-0.4070274829864502,-0.18802349269390106,-0.1645994335412979,0.026956794783473015,0.015533462166786194,-0.03964228183031082,-0.04418899863958359,0.115632563829422,-0.03193029761314392,0.05859920009970665,0.017839279025793076,0.01933126337826252,0.01898125559091568,0.1416153758764267,-0.013608703389763832,-0.05277373269200325,0.003169405274093151,-0.21401499211788177,0.0338498130440712,-0.19226257503032684,-0.3092265725135803,0.030072152614593506,0.16941677033901215,1.1367007493972778,-0.9301987886428833,-0.7119569182395935,-0.23224708437919617,-0.2085941731929779,-0.4214327335357666,0.9632443785667419,-0.48952174186706543,0.4238041937351227,0.03323489800095558,-0.03113439492881298,0.41196033358573914,0.3198944628238678,-0.33327043056488037,-0.19502121210098267,-0.08667927980422974,-0.1424703150987625,-0.18852844834327698,-0.32367047667503357,-0.6453671455383301,0.017408888787031174,-0.02396799996495247,-0.031552061438560486,-0.028855908662080765,-0.07591896504163742,-0.13393157720565796,-0.9755162596702576,-0.027603264898061752,-0.03845351189374924,-0.08601979911327362,0.01386953517794609,-0.2414701282978058,0.19879454374313354,0.07176560908555984,0.028512397781014442,0.11911587417125702,0.19177228212356567,0.44482341408729553,0.15288189053535461,0.02462993748486042,0.021921878680586815,0.04696996882557869,0.06355425715446472,0.1323559284210205,0.6607951521873474,-0.17018786072731018,-0.20883427560329437,-0.1581258475780487,-0.21045725047588348,-0.1823589950799942,0.33754822611808777,0.05414915084838867,0.08087651431560516,0.12982387840747833,0.2117140293121338,0.35568517446517944,-0.3720068037509918,0.018055658787488937,0.02343638427555561,0.04053640365600586,0.06591705977916718,0.09071268141269684,-0.024228578433394432,-0.04347873851656914,-0.042924072593450546,-0.04924057796597481,-0.1091446727514267,-0.058446839451789856,-0.6495450735092163,-0.0605030432343483,0.3006167411804199,-0.9050900936126709,-0.5521348714828491,0.8622825741767883,0.547523021697998,0.04500013217329979,0.2952647805213928,0.8194941282272339,-0.7481071949005127,0.22659893333911896,0.45063573122024536,0.7013292908668518,-0.8295772671699524,0.36808639764785767,-1.23281991481781,-0.2249511033296585,-0.5265552401542664,0.018968995660543442,0.013674994930624962,-0.00774935120716691,-0.02513142302632332,-0.004328664857894182,0.619426965713501,0.01311425305902958,0.004457410424947739,-0.012493917718529701,-0.027750825509428978,-0.023112595081329346,0.53065025806427,0.019915034994482994,0.00722518702968955,-0.03039955347776413,-0.05174275115132332,-0.06091437488794327,0.3936231732368469,-0.026146726682782173,0.0045093572698533535,0.03590378910303116,0.010767294093966484,0.07201477885246277,0.11796625703573227,-0.012102138251066208,-0.01595422439277172,0.023628609254956245,0.00283917342312634,0.010570512153208256,-0.2564302086830139,-0.02296212688088417,-0.040133167058229446,0.035003095865249634,0.02662675641477108,0.015412269160151482,0.6842629909515381,-0.1799093782901764,-0.2742362916469574,-0.23877106606960297,-0.10139288008213043,-0.29057255387306213,0.13431306183338165,-0.02732064016163349,-0.06996858865022659,-0.064702108502388,-0.0464140810072422,-0.1085028350353241,0.15898288786411285,-0.032700687646865845,-0.09315922856330872,-0.07559748739004135,-0.05597115308046341,-0.1189630776643753,0.20321078598499298,-0.13873672485351562,0.2813226878643036,-0.08730827271938324,-0.686448335647583,0.631236732006073,-0.10424385964870453,-0.3251716196537018,-0.2827465832233429,0.5255473852157593,-0.5814877152442932,0.21328268945217133,-0.20387570559978485,0.17764179408550262,-0.18662014603614807,-0.274742066860199,-0.9875558614730835,-0.4138161540031433,-0.19229382276535034,0.014394314959645271,0.012896404601633549,0.0031507504172623158,0.021847665309906006,0.04216001555323601,0.2274087369441986,0.005195206496864557,-0.0025690116453915834,-0.009626791812479496,0.004878302104771137,-0.01901811547577381,0.9803252220153809,0.010747155174612999,-0.0004326806520111859,-0.018571631982922554,0.009350603446364403,-0.028929565101861954,-0.9562888145446777,0.10503331571817398,-0.17489299178123474,-0.259726881980896,0.11567158997058868,-0.14178307354450226,-0.2860884964466095,0.026633668690919876,0.175334170460701,0.0801897794008255,0.04590378701686859,0.4338880777359009,-0.009067635051906109,0.14320315420627594,0.22103187441825867,0.2661117613315582,0.19008022546768188,0.12476241588592529,0.11183822154998779,-0.004819669295102358,-0.0011253595585003495,-0.005600569304078817,-0.0066878823563456535,0.0945611447095871,-0.17532308399677277,-0.010661967098712921,-0.020272746682167053,-0.022259753197431564,-0.03308548033237457,-0.031875092536211014,0.6146748065948486,-0.023288561031222343,-0.03537276014685631,-0.04446135088801384,-0.0701376274228096,-0.06853604316711426,-1.068354606628418,-0.6621648073196411,-0.07702863216400146,0.3005775213241577,0.38680243492126465,0.0356636717915535,0.6679350137710571,-0.4093697965145111,0.14457888901233673,0.41860559582710266,-0.7678203582763672,0.04480981081724167,0.872130274772644,0.5399744510650635,0.6831598877906799,-0.23760637640953064,-0.28979337215423584,0.25224488973617554,-0.7624707818031311,-0.04365193098783493,-0.14465230703353882,-0.21769723296165466,-0.15353788435459137,0.01728200726211071,0.009540844708681107,-0.12651069462299347,-0.1268981397151947,-0.29019448161125183,-0.47950106859207153,-0.6250685453414917,-0.6199981570243835,-0.03403231129050255,0.5995708703994751,0.3257061541080475,-0.014244193211197853,0.09601538628339767,0.01054466050118208,0.014394193887710571,-0.08008293062448502,-0.06170808523893356,-0.005277842283248901,0.043884966522455215,0.02083807811141014,-0.11221381276845932,-0.29792386293411255,-0.583914577960968,-0.8782253861427307,-0.9678536653518677,-0.7345661520957947,-0.044562406837940216,0.05222370848059654,-0.15411359071731567,-0.045955196022987366,-0.07029891759157181,-0.10822266340255737,-0.151109516620636,0.016866479068994522,0.005138198845088482,0.04131993651390076,0.12861913442611694,0.3244248628616333,0.3610721826553345,0.49368053674697876,-0.047265540808439255,-0.0015660729259252548,-0.04001369699835777,0.011620701290667057,-0.06245637685060501,0.046567607671022415,-0.05859696865081787,0.0209116879850626,-0.12035658955574036,-0.2667408287525177,-0.2732485830783844,-0.13279664516448975,-0.08393846452236176,0.05495481565594673,0.3149855434894562,0.2904353439807892,-0.014059280045330524,0.042508792132139206,0.07145630568265915,0.02090699039399624,0.1018252745270729,-0.01292209792882204,-0.047479573637247086,0.0051442841067910194,0.17878197133541107,-0.11842495203018188,0.08229681104421616,-0.11374227702617645,-0.19063425064086914,-0.0035282124299556017,-1.011242151260376,-0.011967378668487072,0.07079753279685974,0.07029211521148682,0.003387886332347989,0.02647835947573185,-0.011198955588042736,-0.02105559967458248,0.21916617453098297,0.05261128395795822,0.23334567248821259,0.18123020231723785,0.1293703019618988,-0.1655064821243286,0.07012967765331268,0.6879517436027527,-0.04139556735754013,-0.10566947609186172,-0.059239670634269714,-0.008649181574583054,0.053435083478689194,0.041204750537872314,0.031114928424358368,0.07430471479892731,-0.020783748477697372,-0.09633006155490875,-0.1297004371881485,-0.14212359488010406,-0.27659207582473755,0.21197158098220825,0.0821453183889389,0.0012320555979385972,0.015506616793572903,-0.026400594040751457,0.02508877031505108,0.01819700561463833,-0.13213114440441132,-0.012319994159042835,0.103144571185112,-0.06121424585580826,0.06403243541717529,-0.060189057141542435,-0.20585089921951294,-0.17559032142162323,-0.06827086210250854,-0.0846133902668953,-0.02306417003273964,0.010838620364665985,-0.0069670467637479305,-0.10263635218143463,-0.09869619458913803,-0.035837531089782715,-0.22919191420078278,-0.21829503774642944,0.08722931891679764,0.12280239164829254,0.20238400995731354,0.5545831322669983,0.5196623802185059,-0.08482997864484787,0.17108634114265442,0.18982185423374176,0.05558004602789879,-0.08834921568632126,-0.0006714641349390149,0.0367257185280323,-0.48843953013420105,1.5843993425369263,-0.022236324846744537,-1.109716773033142,-0.30272921919822693,1.315128207206726,0.6053854823112488,0.43382343649864197,-0.3785022497177124,-0.5455747246742249,-0.7228389978408813,-0.7882052063941956,-2.032804250717163,-0.007284603547304869,-0.0037031122483313084,-0.024053160101175308,-0.030994191765785217,-0.028910037130117416,-0.016673393547534943,-0.009805421344935894,-0.004391304217278957,0.015413235872983932,0.03719506040215492,0.039676081389188766,0.07044124603271484,0.08134756982326508,0.04955420643091202,0.09147834032773972,0.07669798284769058,0.05000763013958931,0.04607529938220978,0.07804916799068451,0.08522539585828781,0.06505972146987915,0.08992815762758255,0.0780239924788475,0.03114602528512478,0.016635267063975334,0.07523693889379501,0.0817045345902443,0.026334837079048157,0.07093067467212677,-0.7248292565345764,0.026829006150364876,-0.010397831909358501,0.046318814158439636,0.10020013898611069,0.07297519594430923,-0.0072840298525989056,-0.04506465047597885,-0.09481433033943176,-0.1524396389722824,-0.19457735121250153,-0.25968384742736816,-0.46344828605651855,-0.4643913209438324,-0.42455047369003296,-0.5722259283065796,0.026189254596829414,0.021011032164096832,0.013245549984276295,0.014651745557785034,0.014955047518014908,0.005309832748025656,0.012949883006513119,0.012983911670744419,0.010396763682365417,0.025092702358961105,0.017064381390810013,0.023464005440473557,0.01516328752040863,0.04368545860052109,-0.8279100656509399,-0.0502668060362339,-0.04330279678106308,-0.01765606738626957,-0.034545548260211945,-0.04768746718764305,-0.03128626197576523,-0.05389750748872757,-0.056141164153814316,-0.03140818700194359,-0.04599585756659508,-0.0641343891620636,-0.05121616646647453,-0.042087044566869736,-0.02275380864739418,-0.30408748984336853,-0.12279368191957474,-0.08558838069438934,-0.041717804968357086,-0.0464681051671505,-0.050806719809770584,0.008576999418437481,-0.019464954733848572,-0.010764839127659798,0.00325146596878767,-0.08620505034923553,-0.03582077473402023,-0.028093677014112473,0.009657172486186028,-0.03796575218439102,-0.9562094211578369,-0.03556047007441521,-0.012427602894604206,0.008096680976450443,0.028343724086880684,0.003431849181652069,0.0024832759518176317,-0.002999053103849292,-0.02735111117362976,-0.09117979556322098,-0.2648296654224396,-0.040112826973199844,0.009859679266810417,-0.006692179478704929,0.04926643520593643,0.08346972614526749,0.06917747110128403,0.04369603097438812,-0.014245365746319294,0.06529557704925537,-0.0583096481859684,-0.09208875149488449,-0.03933621570467949,0.0007822617189958692,-0.13381609320640564,-0.09405937790870667,-0.07322251051664352,-0.0009097863221541047,-0.025884190574288368,0.11979427933692932,-0.09451048821210861,0.04191688820719719,0.010603759437799454,-0.13329960405826569,-0.17451156675815582,-0.1123514249920845,-0.2210748791694641,-0.08207163959741592,-0.02521352842450142,-0.2507377564907074,-0.18654108047485352,-0.10303378105163574,-0.2059316635131836,-0.1774863451719284,-0.21850667893886566,-0.47440341114997864,0.5071790218353271,1.045021891593933,0.12282665818929672,-0.226700097322464,-0.9385181069374084,0.053121790289878845,-0.40376996994018555,-0.404428631067276,0.04693136736750603,0.9668057560920715,-0.372526615858078,0.27772989869117737,0.07080534100532532,-0.6668278574943542,0.0617925263941288,-0.8107035160064697,0.12155074626207352,-1.3036129474639893,-0.021272143349051476,-0.2885342836380005,-0.07128874212503433,0.09051428735256195,0.25518015027046204,0.28365665674209595,-0.1395016461610794,0.20164106786251068,0.06459922343492508,0.24869701266288757,0.043865472078323364,0.015052576549351215,0.006644587032496929,0.1418023556470871,0.44703689217567444,0.13643532991409302,0.7952227592468262,0.9659863710403442,-0.02925153076648712,-0.0563153512775898,0.022317228838801384,0.2153182327747345,0.07626249641180038,-0.444637268781662,-0.052650086581707,-0.010524345561861992,0.03904043883085251,0.10127386450767517,0.2692264914512634,-0.38389918208122253,0.0878257229924202,0.027934463694691658,-0.06115870922803879,-0.24575290083885193,-0.3458177447319031,-0.6458010077476501,0.18063205480575562,0.03329256549477577,-0.025815999135375023,0.29302266240119934,-1.0585508346557617,-0.44738391041755676,-0.22092430293560028,-0.12008962780237198,-0.18701033294200897,0.12059759348630905,0.04825124517083168,0.20892681181430817,-0.33296215534210205,-0.004681081045418978,-0.17396633327007294,-0.36160001158714294,-0.37691590189933777,-0.8773224949836731,-0.5288127064704895,0.825386643409729,0.4701589345932007,0.01853335276246071,-0.5550860166549683,-0.03696225956082344,-1.2717303037643433,-0.3630809485912323,-0.312189519405365,-0.1963232308626175,0.9564314484596252,0.1455310732126236,0.15743784606456757,-0.0009526181383989751,-0.46272966265678406,-0.4577712416648865,0.25202158093452454,-0.9002445340156555,0.020788487046957016,0.06995014101266861,0.056181348860263824,-0.0726846382021904,-0.2465457022190094,0.8124405145645142,0.04311950132250786,-0.008613861165940762,0.03248465061187744,0.053690437227487564,0.17767950892448425,-0.22192375361919403,0.009085021913051605,-0.10010791569948196,-0.03946807608008385,-0.14120805263519287,-0.5037381052970886,0.24643740057945251,0.0582784041762352,0.04525243490934372,0.03236217424273491,-0.11745783686637878,-0.3158408999443054,-0.09493022412061691,-0.04391119256615639,0.1333838701248169,0.05496026948094368,-0.08234167844057083,-0.007687825243920088,-0.29870763421058655,-0.04019097611308098,0.03435690701007843,-0.018998339772224426,-0.052354127168655396,-0.14688852429389954,0.6579117774963379,-0.041264522820711136,-0.07066354155540466,-0.035549771040678024,-0.06818345934152603,-0.040323685854673386,0.19093602895736694,0.07253111898899078,0.13083775341510773,0.2059125006198883,0.13555315136909485,-0.16088464856147766,-0.032336268573999405,0.07831165194511414,0.15363797545433044,0.1222897619009018,0.20353426039218903,0.08940447866916656,0.3433312773704529,1.5448906421661377,0.26634708046913147,-0.16176901757717133,0.10142631083726883,0.10829415917396545,0.061344634741544724,-0.7646961212158203,0.8005369305610657,-0.906772255897522,0.020808029919862747,-0.2099660187959671,0.7380367517471313,-0.12988735735416412,0.8199149966239929,-0.10390082001686096,-1.0843671560287476,0.13061228394508362,-0.43511971831321716,-0.2521246373653412,-0.06598735600709915,-0.14154647290706635,-0.08250478655099869,-0.06308693438768387,1.082876205444336,0.10791394114494324,0.0464928038418293,0.07513594627380371,0.09709502011537552,0.056054532527923584,-0.2585083544254303,0.14396049082279205,0.03697377070784569,0.10002386569976807,-0.0050980811938643456,0.09428022056818008,0.09756278246641159,0.08429475873708725,0.04219929128885269,0.040651362389326096,0.05262252688407898,0.03582342714071274,-0.9396622180938721,-0.12581489980220795,-0.06785524636507034,-0.07835661619901657,-0.13725551962852478,-0.16373103857040405,0.4890505075454712,-0.07167582958936691,-0.03877631947398186,-0.026836032047867775,-0.03232245147228241,-0.039636317640542984,-1.101088285446167,-0.1519348919391632,-0.09364058077335358,-0.13904713094234467,-0.06502731889486313,-0.10686863958835602,0.09259884804487228,-0.09494490921497345,0.10758352279663086,0.14417769014835358,0.2126854807138443,0.16702093183994293,0.06617535650730133,-0.06617189198732376,-0.10286843031644821,0.01474801730364561,0.017051780596375465,-0.040781017392873764,0.026152538135647774,-0.15637339651584625,-0.06461278349161148,0.8310540914535522,-0.06497546285390854,-0.28958573937416077,-0.12056038528680801,-0.5047975778579712,-0.29916173219680786,-0.929523229598999,-0.07746944576501846,-0.6702662110328674,0.5463906526565552,-0.41805028915405273,1.537068486213684,-0.4409390687942505,-0.7905773520469666,-0.5555434226989746,-0.6340588331222534,-0.24453189969062805,-0.13661538064479828,-0.1964598149061203,-0.04974104464054108,-0.008177023380994797,0.5852371454238892,-0.24897684156894684,-0.3039458394050598,-0.24677851796150208,-0.39613109827041626,-0.20728865265846252,0.221144437789917,-0.215799480676651,-0.13787615299224854,-0.13537326455116272,-0.18570773303508759,-0.06476001441478729,-1.168222188949585,-0.01600043848156929,-0.11678604781627655,-0.11862941831350327,-0.060147762298583984,-0.058817047625780106,-0.20472702383995056,-0.4224867522716522,-0.27897384762763977,-0.5965784788131714,-0.3492964208126068,-0.2532516121864319,-0.21091505885124207,-0.1873713880777359,-0.16290061175823212,-0.2806791067123413,-0.136797234416008,-0.15860536694526672,0.007513562683016062,-0.09659348428249359,-0.04522111639380455,-0.14640261232852936,-0.18013069033622742,-0.19157662987709045,0.14201508462429047,-0.03589770197868347,-0.04242563247680664,-0.012099937535822392,0.09309820830821991,0.08764722943305969,-0.1117485836148262,-0.05374518036842346,-0.02738046646118164,-0.054620854556560516,-0.015341163612902164,-0.046862103044986725,0.21762412786483765,0.3146016001701355,0.13581933081150055,0.40942859649658203,-0.009271380491554737,0.04828200489282608,0.03943391889333725,-0.2165127843618393,0.4566441476345062,-1.121624231338501,-0.5309414863586426,-0.400204598903656,0.014157174155116081,0.3824574947357178,-0.6240612864494324,-0.40786248445510864,-0.4185110032558441,-0.1499917060136795,-0.016695087775588036,0.0730874091386795,0.08801858127117157,0.06293315440416336,0.06621962040662766,0.09000489115715027,-0.2132376730442047,0.2090221792459488,0.19754037261009216,0.199998140335083,0.17680834233760834,0.2473241537809372,-0.17502939701080322,0.1338527947664261,0.13171835243701935,0.11784972995519638,0.10096731036901474,0.1497540920972824,0.33201533555984497,0.316789835691452,0.07189173996448517,0.1589365154504776,0.11426780372858047,0.07081159949302673,-0.4213889539241791,-0.3266838490962982,-0.6331709027290344,-0.2125425934791565,0.009326528757810593,0.1239972859621048,0.00023085740394890308,0.08257349580526352,-0.21406356990337372,0.0030499116983264685,0.0717289075255394,0.09470335394144058,0.20311561226844788,-0.2221900373697281,-0.3113342821598053,-0.40338802337646484,-0.4282660186290741,-0.2920331060886383,0.12554451823234558,-0.02930949442088604,0.08564355969429016,0.15954545140266418,0.25643834471702576,0.23654179275035858,-1.0355318784713745,-0.1646830439567566,-0.1958242505788803,-0.23678021132946014,-0.2046602964401245,-0.15078844130039215,0.7168680429458618,0.2800186574459076,-0.05838584899902344,0.42352724075317383,0.13251404464244843,-0.005222077015787363,0.11784755438566208,0.16296665370464325,0.6214750409126282,0.09326273202896118,-0.034250665456056595,-0.44414764642715454,0.5971437692642212,-0.16242359578609467,-0.657762885093689,-0.43078696727752686,0.026092110201716423,-0.3580223023891449,-0.29707351326942444,-0.04985808581113815,-0.12670005857944489,-0.07407832145690918,-0.038932885974645615,0.1126798614859581,0.1310904324054718,0.07976552098989487,0.3704690933227539,0.2889891266822815,0.0777437835931778,-0.18351149559020996,-0.37359198927879333,-0.13553018867969513,-0.2819955050945282,-0.2186741679906845,-0.10901542752981186,0.0759533941745758,-0.2723669111728668,-0.0005096060340292752,-0.021347565576434135,-0.05181249976158142,-0.07047460973262787,0.12943091988563538,-0.3441374599933624,0.004100104793906212,0.12901723384857178,0.1912403106689453,0.050093874335289,-0.07577536255121231,0.24520938098430634,0.003916723188012838,-0.08319245278835297,-0.13642145693302155,-0.09293520450592041,0.14783664047718048,0.29757916927337646,-0.01696225069463253,-0.0007150917081162333,0.007581864017993212,0.021339142695069313,-0.2197991907596588,-0.3120726943016052,0.04492010176181793,-0.09549355506896973,-0.20835767686367035,-0.019156157970428467,0.15544456243515015,0.2307993769645691,-0.04976052790880203,0.03944212943315506,0.08566301316022873,0.03745786100625992,-0.28639674186706543,0.04868923872709274,-0.026658980175852776,-0.1457817554473877,0.3701903820037842,-0.019831329584121704,-0.20600338280200958,0.05301933363080025,-0.4732501804828644,-0.1710536926984787,-0.14881521463394165,-1.1853101253509521,-0.12881097197532654,-0.16630811989307404,-0.015515093691647053,0.5443091988563538,0.491975337266922,0.100928895175457,0.06209079548716545,-0.18645288050174713,-0.06200722977519035,-0.07151194661855698,-0.07483532279729843,-0.06423313170671463,-0.011289705522358418,0.4039173126220703,-0.016293227672576904,-0.007241558283567429,0.012943699024617672,-0.027597688138484955,-0.06285987049341202,0.09633010625839233,-0.04799746721982956,-0.058154501020908356,-0.08328553289175034,-0.05330928787589073,-0.0320243313908577,-0.7267460823059082,0.016112923622131348,0.026381103321909904,0.05187997594475746,-0.01123046875,-0.08156431466341019,-0.26868629455566406,-0.010601351968944073,-0.021071869879961014,-0.03538741543889046,0.01247490756213665,0.208200603723526,-0.2448645681142807,0.013118469156324863,0.02658466435968876,0.047856248915195465,-0.015442220494151115,-0.16739775240421295,0.2711787521839142,-0.03190698102116585,-0.04268399626016617,-0.0773601084947586,-0.027566194534301758,0.06428022682666779,0.60667884349823,0.01604166254401207,0.021273301914334297,0.013376913033425808,-0.025931622833013535,-0.29278290271759033,0.5610419511795044,-0.019279425963759422,-0.06446158140897751,-0.10579145699739456,-0.02249477617442608,0.1803172528743744,-0.6419928669929504,0.00928359106183052,-0.10535880923271179,0.059902746230363846,-0.03552752360701561,-0.21836532652378082,-0.023846345022320747,-5.7483112720576905e-39,3.376205843334819e-39,1.2329374985106619e-38,-1.6758800958123363e-38,1.6797793489191666e-38,1.1992640161532437e-38,-1.7769334733985026e-38,3.804631829325167e-39,1.5643276296120628e-38,1.0493013985264411e-38,1.6986035517098276e-38,-5.1436313665230314e-39,0.0017214544350281358,0.0007797745056450367,0.0031485166400671005,0.006590622011572123,0.0032886923290789127,0.007570084650069475,-0.0021237232722342014,0.013221168890595436,-0.007446905132383108,0.05465814098715782,-0.03288266435265541,-0.06047113239765167,-0.011119752191007137,-0.002271894831210375,-0.002238026587292552,-0.002551704877987504,0.011994704604148865,-0.007570289075374603,-0.00904869008809328,-0.0012230611173436046,0.013533842749893665,0.0007511359290219843,-0.021804120391607285,-0.030189426615834236,0.025761373341083527,-0.058861199766397476,0.02502187341451645,0.11746547371149063,0.03989001363515854,0.03169090300798416,0.009052242152392864,0.012452516704797745,-0.015065161511301994,-0.002871554344892502,0.009665239602327347,-0.006269109435379505,-0.009040599688887596,-0.032947223633527756,0.029018547385931015,-0.00397903099656105,-0.018519502133131027,0.007995384745299816,-0.06126519665122032,0.05370094254612923,0.02846597507596016,-0.036488842219114304,-0.013200611807405949,-0.014441535808146,-0.4593604803085327,0.01028737798333168],"sample_rate":48000.0}},{"max_value":1.0,"model":{"version":"0.7.0","metadata":{"date":{"year":2026,"month":5,"day":7,"hour":15,"minute":16,"second":4},"loudness":-16.827762603759766,"gain":0.7572155919986933},"architecture":"WaveNet","config":{"layers":[{"input_size":1,"condition_size":1,"head":{"out_channels":1,"kernel_size":16,"bias":true},"channels":8,"kernel_sizes":[6,6,6,6,6,6,6,6,6,6,6,6,6,6,15,15,6,6,6,6,6,6,6],"dilations":[1,3,7,17,41,101,239,1,3,7,17,41,101,239,1,13,1,3,7,17,41,101,239],"activation":[{"type":"LeakyReLU","negative_slope":0.01},{"type":"LeakyReLU","negative_slope":0.01},{"type":"LeakyReLU","negative_slope":0.01},{"type":"LeakyReLU","negative_slope":0.01},{"type":"LeakyReLU","negative_slope":0.01},{"type":"LeakyReLU","negative_slope":0.01},{"type":"LeakyReLU","negative_slope":0.01},{"type":"LeakyReLU","negative_slope":0.01},{"type":"LeakyReLU","negative_slope":0.01},{"type":"LeakyReLU","negative_slope":0.01},{"type":"LeakyReLU","negative_slope":0.01},{"type":"LeakyReLU","negative_slope":0.01},{"type":"LeakyReLU","negative_slope":0.01},{"type":"LeakyReLU","negative_slope":0.01},{"type":"LeakyReLU","negative_slope":0.01},{"type":"LeakyReLU","negative_slope":0.01},{"type":"LeakyReLU","negative_slope":0.01},{"type":"LeakyReLU","negative_slope":0.01},{"type":"LeakyReLU","negative_slope":0.01},{"type":"LeakyReLU","negative_slope":0.01},{"type":"LeakyReLU","negative_slope":0.01},{"type":"LeakyReLU","negative_slope":0.01},{"type":"LeakyReLU","negative_slope":0.01}],"bottleneck":8,"head1x1":{"active":false,"out_channels":1,"groups":1},"layer1x1":{"active":true,"groups":1},"groups_input":1,"groups_input_mixin":1,"conv_pre_film":{"active":false,"shift":true,"groups":1},"conv_post_film":{"active":false,"shift":true,"groups":1},"input_mixin_pre_film":{"active":false,"shift":true,"groups":1},"input_mixin_post_film":{"active":false,"shift":true,"groups":1},"activation_pre_film":{"active":false,"shift":true,"groups":1},"activation_post_film":{"active":false,"shift":true,"groups":1},"layer1x1_post_film":{"active":false,"shift":true,"groups":1},"head1x1_post_film":{"active":false,"shift":true,"groups":1},"gating_mode":["none","none","none","none","none","none","none","none","none","none","none","none","none","none","none","none","none","none","none","none","none","none","none"],"secondary_activation":[null,null,null,null,null,null,null,null,null,null,null,null,null,null,null,null,null,null,null,null,null,null,null],"slimmable":null}],"head":null,"head_scale":0.010287377523513648},"weights":[-3.0102033615112305,3.323594808578491,2.5950963497161865,-2.4660215377807617,-3.268808364868164,2.805548667907715,-2.320374011993408,-2.5382840633392334,-0.26093044877052307,-0.3062339723110199,-0.39832910895347595,-0.6900312900543213,-0.8576943278312683,-0.8542349338531494,0.313538134098053,0.4150942265987396,0.47809815406799316,0.7310523390769958,0.9085633754730225,0.8260175585746765,0.2429361790418625,0.3169151842594147,0.39266687631607056,0.6833981871604919,0.8096054792404175,0.7098414301872253,-0.2566312253475189,-0.29588770866394043,-0.34145209193229675,-0.6670265197753906,-0.8174130916595459,-0.7062254548072815,-0.3119303286075592,-0.3447190821170807,-0.4129364788532257,-0.8108990788459778,-1.008857011795044,-0.8751723766326904,0.23888729512691498,0.3211973309516907,0.3840823471546173,0.7937654256820679,0.9616870284080505,0.7387269139289856,-0.19585591554641724,-0.2536374032497406,-0.35872164368629456,-0.6466343998908997,-0.800653338432312,-0.7167798280715942,-0.2706258296966553,-0.2672351002693176,-0.33553674817085266,-0.6650413870811462,-0.8119688034057617,-0.7068470120429993,-0.5825164318084717,-0.2806186378002167,-0.06552593410015106,0.26459044218063354,0.48885348439216614,0.2789381742477417,0.6976039409637451,0.35792553424835205,0.20749859511852264,-0.3160192370414734,-0.5864339470863342,-0.16872413456439972,0.5900699496269226,0.373766154050827,0.08093205839395523,-0.3382662534713745,-0.4924164414405823,-0.29129815101623535,-0.5555760860443115,-0.35716867446899414,-0.051076337695121765,0.29529520869255066,0.5240215063095093,0.2377953827381134,-0.5062934160232544,-0.3415076434612274,-0.17164285480976105,0.2985098659992218,0.43216073513031006,0.2812080979347229,0.4986684322357178,0.3416012227535248,0.22172069549560547,-0.32243451476097107,-0.4379478991031647,-0.31367194652557373,-0.4895307719707489,-0.36441802978515625,-0.0852753221988678,0.21978414058685303,0.4690935015678406,0.31924083828926086,-0.6147469282150269,-0.3308238089084625,-0.1485440582036972,0.2839658558368683,0.5759062170982361,0.233649343252182,0.24786560237407684,0.3341226577758789,0.47566574811935425,0.75002521276474,0.8949107527732849,0.8065170645713806,-0.3522385358810425,-0.3901999890804291,-0.4413125813007355,-0.8450038433074951,-0.904887318611145,-0.8315143585205078,-0.24198925495147705,-0.33656999468803406,-0.3931637406349182,-0.6686910390853882,-0.8253380656242371,-0.7134051322937012,0.29128697514533997,0.3450249135494232,0.36485159397125244,0.6687543392181396,0.7671456933021545,0.7241144180297852,0.29491573572158813,0.3634704649448395,0.472918838262558,0.7166284918785095,0.9493907690048218,0.8487621545791626,-0.27809932827949524,-0.3605489730834961,-0.43477684259414673,-0.7084556221961975,-0.8406065106391907,-0.840449869632721,0.2616361975669861,0.39380741119384766,0.3935110867023468,0.6178539991378784,0.7801948189735413,0.7305430769920349,0.22367435693740845,0.34449559450149536,0.4137731194496155,0.6739532947540283,0.8084965348243713,0.724490761756897,-0.05623350292444229,-0.03437311574816704,-0.09992919862270355,-0.007859064266085625,0.09152060002088547,0.05342845991253853,0.0909091979265213,0.02111736312508583,0.17919430136680603,0.03528160601854324,-0.07336576282978058,-0.08962475508451462,0.0410831943154335,0.00526264775544405,0.09996020793914795,0.0223150085657835,-0.04734474793076515,-0.022319477051496506,-0.03029729798436165,0.004243478178977966,-0.09049125760793686,0.00023825235257390887,0.05679893493652344,0.04775373265147209,-0.030088994652032852,-0.04670993611216545,-0.12472668290138245,-0.06596298515796661,0.0815347284078598,0.024967404082417488,0.036270104348659515,0.027757467702031136,0.12015704810619354,0.0020341211929917336,-0.039067286998033524,-0.07276956737041473,-0.04308972507715225,-0.02682843618094921,-0.08129873871803284,-0.03889194503426552,0.036939267069101334,0.04477984830737114,-0.010413886979222298,-0.002062674378976226,-0.11052118986845016,-0.02263682335615158,0.05590798705816269,0.032717037945985794,0.4620729386806488,0.07225947082042694,0.002425994724035263,-0.11746637523174286,-0.28547051548957825,-0.24690555036067963,-0.4646344482898712,-0.29561230540275574,-0.0508294403553009,0.1939535290002823,0.39921122789382935,0.27656659483909607,-0.3642745912075043,-0.25492337346076965,-0.023118674755096436,0.1783362627029419,0.355239599943161,0.2309643030166626,0.2955634891986847,0.13589458167552948,0.18677233159542084,-0.12169278413057327,-0.34168046712875366,-0.12465046346187592,0.38827234506607056,0.14540955424308777,0.12278888374567032,-0.12196409702301025,-0.42480993270874023,-0.10844354331493378,-0.42772960662841797,-0.24032354354858398,-0.10751979798078537,0.25198644399642944,0.42118388414382935,0.19578759372234344,0.3428746163845062,0.2565847635269165,0.10693066567182541,-0.12213540077209473,-0.44872912764549255,-0.20407108962535858,0.4248656928539276,0.09723321348428726,0.14936326444149017,-0.2234201431274414,-0.39344918727874756,-0.23908588290214539,0.16210827231407166,0.1139567568898201,0.0719221979379654,-0.1485724002122879,-0.35080617666244507,-0.0473940409719944,-0.1578388810157776,-0.06238918378949165,-0.11588598042726517,0.14548812806606293,0.32589560747146606,0.14986053109169006,-0.2124992460012436,-0.006720855366438627,-0.02371920272707939,0.1845281720161438,0.3613271117210388,0.12459483742713928,0.15426737070083618,0.033500008285045624,0.0974247083067894,-0.1482268124818802,-0.2983698546886444,-0.11573275178670883,0.2924831211566925,0.10439876466989517,-0.014277988113462925,-0.27229321002960205,-0.29291149973869324,-0.1725848764181137,-0.212699756026268,-0.0033635736908763647,-0.1019681841135025,0.24019435048103333,0.3140256106853485,0.17376269400119781,0.1583452820777893,0.07795502990484238,0.1021030992269516,-0.1889994591474533,-0.28931501507759094,-0.14095115661621094,0.1583435833454132,0.06805560737848282,0.08489170670509338,-0.17201177775859833,-0.23583298921585083,-0.055924054235219955,-0.12035193294286728,-0.28146758675575256,-0.2912251055240631,-0.8059582114219666,-0.9298601150512695,-0.8300763964653015,0.10770922154188156,0.2725505530834198,0.3773093819618225,0.8169147372245789,1.0130113363265991,0.8200040459632874,0.10285856574773788,0.2559927999973297,0.31346726417541504,0.6789373755455017,0.8654264807701111,0.72951340675354,-0.12137250602245331,-0.21964193880558014,-0.2609219551086426,-0.6810113191604614,-0.8305956721305847,-0.6954239010810852,-0.15287543833255768,-0.25166672468185425,-0.3166431188583374,-0.770537793636322,-1.0165530443191528,-0.8489382863044739,0.16033323109149933,0.21580789983272552,0.34962233901023865,0.7806491851806641,0.9729322791099548,0.7839866280555725,-0.09871821850538254,-0.2534014880657196,-0.24962761998176575,-0.6522818207740784,-0.8122060298919678,-0.6765700578689575,-0.1264248639345169,-0.21257852017879486,-0.27342385053634644,-0.6761892437934875,-0.8826186060905457,-0.7301986217498779,0.1310177743434906,0.26369449496269226,0.3724265396595001,0.8087313771247864,1.0430428981781006,0.7878633737564087,-0.07619655877351761,-0.25198620557785034,-0.38415566086769104,-0.8823822736740112,-1.1250957250595093,-0.8825172781944275,-0.05944416671991348,-0.23137930035591125,-0.25006672739982605,-0.7530092000961304,-0.9902307987213135,-0.7515172958374023,0.14900141954421997,0.21483486890792847,0.3005802631378174,0.7041445374488831,0.8771415948867798,0.7026870250701904,0.1614246368408203,0.31681129336357117,0.33224454522132874,0.8153908848762512,1.1342880725860596,0.8560972809791565,-0.12082487344741821,-0.2505704462528229,-0.33115503191947937,-0.7923478484153748,-1.0078798532485962,-0.8072243332862854,0.1335420161485672,0.20799154043197632,0.24965135753154755,0.7045477032661438,0.9666314721107483,0.7202988266944885,0.09598228335380554,0.27746668457984924,0.27139461040496826,0.7070468068122864,0.9135916233062744,0.7276938557624817,-0.1466469168663025,0.5682032704353333,0.15091462433338165,1.1950165033340454,0.8918665647506714,1.0145316123962402,-0.25847724080085754,0.27083754539489746,0.5625320076942444,-0.5632748603820801,-0.5107336640357971,-0.07255713641643524,0.16837722063064575,0.0335971862077713,0.44867512583732605,-0.45124945044517517,-0.9706441164016724,0.7062079310417175,0.9113512635231018,-0.05852603539824486,-0.3640668988227844,-0.3454665541648865,-0.9101760387420654,0.912930965423584,0.8187501430511475,0.2049752175807953,-0.6613863110542297,0.6556353569030762,0.04517730697989464,0.5521607995033264,0.5718998312950134,-0.20148932933807373,0.3074890971183777,0.7170250415802002,-0.3845217227935791,0.5719287395477295,0.2828678488731384,-0.0035287532955408096,0.11622844636440277,-0.1554776281118393,0.31374940276145935,-0.9425298571586609,-0.5564060807228088,-0.7883741855621338,-0.12670886516571045,-0.16160792112350464,0.1915953904390335,-0.40532106161117554,-0.9030575156211853,0.2771162986755371,1.0159964561462402,0.0025319403503090143,-0.2376427948474884,-0.3051496148109436,-1.0842925310134888,1.0637048482894897,0.24545852839946747,-0.5298058986663818,-0.2561512589454651,-0.08490253984928131,1.3163009881973267,0.4150962829589844,0.33902233839035034,-0.3249322175979614,0.09343244135379791,0.9344654679298401,-0.09146790206432343,-0.1358872801065445,-0.9305198192596436,-0.5210073590278625,-0.10332488268613815,0.16373810172080994,0.3857296109199524,-0.6341829895973206,-0.15422537922859192,-0.6569163203239441,-0.04833096265792847,0.02996358834207058,0.5869543552398682,-0.5941294431686401,-0.10430504381656647,0.7168235182762146,0.8448383808135986,-0.686752438545227,0.3545878827571869,0.4634881317615509,-0.9175488352775574,-1.2953766584396362,0.039075352251529694,0.06705984473228455,-0.16071248054504395,0.004678967874497175,0.08646824955940247,-0.11648225784301758,0.039804860949516296,0.14877644181251526,0.026646409183740616,0.07403489202260971,0.012735300697386265,-0.028899721801280975,0.2043004333972931,0.010077206417918205,0.17431484162807465,0.06512624770402908,0.040645211935043335,0.05198012292385101,-0.06396902352571487,-0.03082130290567875,-0.041905079036951065,-0.04073159769177437,0.02226647175848484,0.03748943656682968,0.05083635449409485,0.05538921803236008,-0.051515016704797745,0.051716480404138565,-0.04994596913456917,0.09207555651664734,0.09965937584638596,0.04133414104580879,0.17941665649414062,-0.040815599262714386,0.1552918255329132,-0.08015964180231094,-0.1462993621826172,-0.23313362896442413,-0.2870860695838928,-0.22769016027450562,-0.3135613799095154,-0.23559732735157013,0.0339411161839962,-0.10014118254184723,-0.0684613585472107,-0.3215300738811493,-0.1304728388786316,-0.2268444001674652,0.09078560769557953,-0.004766866099089384,0.050678517669439316,-0.0020871758460998535,0.18354101479053497,-0.2549516558647156,-0.15668097138404846,-0.11183176189661026,-0.19319075345993042,-0.11690592765808105,-0.2110689878463745,0.019583921879529953,-0.18916814029216766,-0.07781698554754257,-0.09224126487970352,0.04226011782884598,-0.08133090287446976,-0.0764794647693634,0.03188677504658699,0.1517379730939865,0.10564200580120087,0.10659534484148026,0.03912651911377907,0.21333274245262146,0.04244236275553703,-0.07444654405117035,0.09588664770126343,-0.112979456782341,0.16025622189044952,-0.2454482913017273,0.19273105263710022,0.04559049755334854,-0.09311405569314957,-0.024976154789328575,-0.24623161554336548,0.2457905113697052,-0.11341023445129395,0.15713360905647278,0.15764574706554413,0.1869218796491623,0.32858166098594666,0.056490909308195114,0.18723922967910767,0.1853911280632019,0.10520530492067337,0.09224070608615875,0.02649676240980625,0.37471216917037964,0.0894794911146164,0.13379821181297302,0.026902861893177032,-0.0027922666631639004,0.04736658185720444,-0.06742490082979202,-0.07725618034601212,-0.060612618923187256,0.015326349064707756,0.11306577920913696,-0.024477530270814896,0.07393532991409302,-0.22120094299316406,-0.19660767912864685,-0.18931645154953003,-0.02903667837381363,-0.07767018675804138,-0.08821152150630951,-0.06134313717484474,-0.010045499540865421,0.02826054021716118,-0.11560649424791336,-0.08643350005149841,0.1432104855775833,0.05751222372055054,-0.003934992011636496,-0.11749536544084549,0.01407954003661871,0.10600633919239044,-0.22564372420310974,-0.0664040744304657,-0.1579585075378418,-0.1582057774066925,-0.08420161157846451,-0.19562380015850067,0.17339181900024414,0.06097979471087456,0.4573482573032379,0.406180739402771,0.5121344327926636,0.5390074253082275,0.3510868549346924,0.26618850231170654,0.21949949860572815,0.38163015246391296,0.2539353668689728,0.19876739382743835,0.34891951084136963,0.25146323442459106,0.18403682112693787,0.2449163794517517,0.03382163494825363,-0.17665688693523407,-0.3668641149997711,-0.047731317579746246,0.07165458053350449,0.012838607653975487,-0.12160944193601608,-0.030729861930012703,0.30165335536003113,-0.11063851416110992,0.12024792283773422,0.014115110971033573,-0.019637593999505043,0.004414285998791456,0.21148236095905304,0.053517233580350876,-0.12754668295383453,-0.028633615002036095,-0.010684255510568619,-0.2280547022819519,-0.026775633916258812,0.19220277667045593,0.23925384879112244,0.08298359811306,0.05508733540773392,-0.03019389510154724,-0.3927110433578491,0.17137202620506287,-0.12216459214687347,-0.01720171980559826,-0.11423402279615402,0.2533692717552185,0.40813806653022766,-0.16181696951389313,0.12176155298948288,0.012303023599088192,0.012222550809383392,-0.12271188944578171,-0.3573450744152069,0.02211441658437252,0.05538620799779892,-0.013308338820934296,-0.13175281882286072,-0.19938987493515015,0.04760687053203583,0.1526528000831604,0.13349880278110504,0.11159605532884598,-0.044000618159770966,-0.05514037236571312,-0.40394899249076843,-0.06237459182739258,-0.0935945063829422,-0.010737575590610504,0.1096138209104538,0.1075466200709343,0.3337419927120209,-0.022298691794276237,0.18212080001831055,-0.018353799358010292,0.11273607611656189,0.07161112874746323,0.29849278926849365,-0.23840287327766418,-0.00271915877237916,-0.13575565814971924,-0.180952787399292,-0.06035632640123367,-0.029120521619915962,0.2213333696126938,-0.06981626152992249,0.1683325320482254,0.078428715467453,-0.05239398404955864,-0.25135430693626404,-0.0122586190700531,-0.12152250111103058,-0.15238747000694275,-0.2103583663702011,0.05382078140974045,0.30990374088287354,-0.28126227855682373,0.10051117837429047,0.046881355345249176,0.153315007686615,0.08732956647872925,-0.019943587481975555,-0.20019470155239105,-0.06286273151636124,-0.12389937043190002,-0.13197271525859833,-0.20806671679019928,0.02094973251223564,0.034541238099336624,0.11743684858083725,0.15668648481369019,0.14904925227165222,-0.06730520725250244,-0.4446274936199188,-0.010717553086578846,-0.09869157522916794,-0.03158648684620857,0.14230714738368988,0.0759739950299263,0.2117275595664978,0.036440424621105194,0.09078314155340195,-0.03322881832718849,0.022539954632520676,-0.10470608621835709,0.30557265877723694,-0.2136663943529129,0.04521382600069046,-0.024180203676223755,0.048305071890354156,-0.09658663719892502,-0.1612156480550766,0.20357534289360046,0.12617690861225128,0.23336763679981232,0.06251613795757294,-0.042125556617975235,-0.2033974826335907,0.18432055413722992,-0.10584349185228348,0.06850199401378632,-0.008491934277117252,0.02983492985367775,0.49547478556632996,-0.6533169150352478,-0.18395809829235077,-0.3451760709285736,-0.4214414060115814,-0.1312234103679657,-0.4765572249889374,-0.06504914909601212,-0.20478416979312897,-0.05175689980387688,-0.08177245408296585,-0.06862164288759232,-0.059540536254644394,0.04338378086686134,0.21327367424964905,0.06476003676652908,-0.06940054148435593,0.0356067530810833,-0.4765101671218872,-0.13628225028514862,0.06724502146244049,-0.022644683718681335,-0.11522416025400162,0.008160190656781197,0.33477675914764404,-0.0887615978717804,-0.08782700449228287,0.031041748821735382,-0.12663638591766357,0.005988715682178736,0.11096033453941345,-0.1165381520986557,-0.14324499666690826,-5.386594057199545e-05,-0.11186841875314713,-0.21813997626304626,0.07881158590316772,0.2623344659805298,0.020115021616220474,0.14154939353466034,0.09357421100139618,-0.05204842612147331,-0.45502665638923645,-0.03787640854716301,-0.159172922372818,-0.21114695072174072,-0.0011542517459020019,0.3182201087474823,0.2948816418647766,-0.23342104256153107,0.033025968819856644,-0.06162175163626671,-0.1795170158147812,-0.1358896791934967,-0.32605937123298645,-0.14638899266719818,-0.24078421294689178,-0.21474018692970276,-0.0017103190766647458,-0.10899955034255981,0.038538772612810135,-0.07132133096456528,0.0397871658205986,0.039210014045238495,0.017116831615567207,-0.02618877962231636,2.758729169727303e-05,0.027978768572211266,-0.03364303335547447,-0.06567709147930145,-0.039000701159238815,-0.013809951022267342,-0.04159441962838173,0.04345523566007614,0.019005484879016876,-0.03102068044245243,0.007053479552268982,0.024535205215215683,0.013817067258059978,0.0706309974193573,-0.017017148435115814,0.00453962991014123,0.006806172430515289,0.04862157255411148,0.04577761888504028,-0.08411455899477005,0.023934178054332733,0.030248625203967094,0.006231395062059164,-0.036176931113004684,-0.015054497867822647,0.05614854395389557,-0.05484028533101082,-0.025160877034068108,-0.004802269395440817,0.026333360001444817,-0.019145216792821884,-0.01905694045126438,0.10552146285772324,0.015970461070537567,0.0282913725823164,-0.007239622995257378,0.05213204771280289,0.07499541342258453,-0.029828576371073723,-0.019786344841122627,-0.017533162608742714,0.02080610767006874,-0.009563274681568146,0.10481224954128265,-0.1513272076845169,-0.24146783351898193,0.38745778799057007,0.33781731128692627,0.5492828488349915,0.5769525170326233,-0.01900714822113514,-0.020850393921136856,-0.00019004243949893862,-0.004354951437562704,0.48899397253990173,-0.05260684713721275,0.10843290388584137,0.5190271735191345,0.0004992572939954698,0.035630080848932266,0.42129912972450256,0.44022583961486816,-0.03047802299261093,0.18899525701999664,-0.11201483011245728,-0.15503279864788055,0.08828886598348618,0.008712949231266975,-0.21859624981880188,0.10939888656139374,-0.11783962696790695,-0.0026096708606928587,0.1986653357744217,0.1417541354894638,0.143324077129364,0.1193045899271965,-0.35597822070121765,-0.13027040660381317,-0.21359431743621826,0.060238782316446304,-0.0936925858259201,-0.015481945127248764,0.01766938529908657,-0.23776115477085114,0.34701061248779297,0.041278790682554245,0.435188889503479,0.08901214599609375,0.21705535054206848,0.29187631607055664,0.032626934349536896,-0.03893837705254555,0.1039300411939621,-0.036970965564250946,-0.32569965720176697,-0.3227143883705139,0.057074420154094696,0.1791510134935379,0.02006012201309204,0.1358107626438141,-0.21454443037509918,-0.0487716943025589,0.08460281789302826,0.053177718073129654,0.24655374884605408,0.007341356482356787,0.010795781388878822,-0.381873220205307,0.37042370438575745,0.6183874607086182,-0.10068836808204651,-0.21018101274967194,0.06584806740283966,-0.3619663119316101,0.24161046743392944,-0.18184563517570496,0.02084514871239662,-0.05222705751657486,0.20045259594917297,0.22318267822265625,0.03513611480593681,0.29404982924461365,0.004215470515191555,-0.10888172686100006,0.32990482449531555,0.5731117129325867,-0.17379020154476166,-0.20795127749443054,0.5075457096099854,-0.17137183248996735,-0.08306878060102463,0.10847006738185883,-0.07325256615877151,-0.07402819395065308,-0.12934920191764832,0.029054656624794006,-0.12434904277324677,-0.379794716835022,-0.3719451427459717,-0.2767751216888428,-0.22719760239124298,-0.07180903851985931,0.10439333319664001,-0.45911216735839844,-0.27492204308509827,-0.3132075369358063,-0.24019739031791687,-0.4360046982765198,-0.3363182842731476,0.03889157995581627,0.13122236728668213,0.11037943512201309,0.10197347402572632,0.04132743179798126,0.32478922605514526,-0.08637852221727371,-0.07388068735599518,-0.02509378455579281,-0.19400911033153534,-0.1436721533536911,-0.40702909231185913,-0.2902626693248749,-0.23172812163829803,-0.32047778367996216,-0.26470133662223816,-0.3466133773326874,-0.21448729932308197,0.259423166513443,0.3536822199821472,0.34976470470428467,0.4122921824455261,0.6503990292549133,0.3905753195285797,0.36508965492248535,0.12993872165679932,0.10751616954803467,0.23919272422790527,0.16652217507362366,0.4608306884765625,-0.04036680981516838,-0.042220186442136765,-0.11800810694694519,-0.08835893124341965,-0.17064988613128662,0.1773698627948761,-0.11856116354465485,0.03594907000660896,-0.06540600955486298,0.2006353884935379,0.2630225419998169,-0.41241633892059326,-0.04729432985186577,-0.019012993201613426,-0.05560189113020897,0.14394572377204895,0.45187559723854065,-0.03509435057640076,0.002039137063547969,0.054384127259254456,0.042930155992507935,0.11313095688819885,0.20483344793319702,-0.2717979848384857,0.023749684914946556,-0.04263328015804291,-0.07254575937986374,-0.1256529837846756,-0.4205825924873352,0.446387380361557,-0.012253702618181705,-0.08397704362869263,-0.11368221789598465,0.10248642414808273,-0.4032234251499176,-0.2748529613018036,0.09916291385889053,0.07828879356384277,0.17571943998336792,0.13761818408966064,0.37155404686927795,-0.22418460249900818,0.11134646087884903,-0.04088473692536354,0.026757853105664253,0.018927639350295067,-0.045075610280036926,-0.436133474111557,0.04611333832144737,0.0381074957549572,-0.04714253172278404,-0.022035982459783554,0.03400164842605591,0.02422579750418663,-0.03362659737467766,0.02038542553782463,-0.007895594462752342,-0.011558170430362225,-0.15250803530216217,-0.08437176793813705,-0.06168017163872719,-0.04594114050269127,0.05715401470661163,-0.018889516592025757,0.0740881934762001,0.04516107961535454,-0.01457033772021532,0.034371837973594666,0.054550543427467346,-0.022620931267738342,0.1209767609834671,0.06022343784570694,-0.011574615724384785,-0.04909077286720276,-0.14305205643177032,0.01474197767674923,-0.09486189484596252,-0.09829156845808029,0.012267758138477802,-0.08208297193050385,-0.0658806636929512,-0.0331307016313076,-0.1204066351056099,-0.04194299876689911,0.027669120579957962,0.173753559589386,0.07568379491567612,0.06603413820266724,0.1400213986635208,0.061063576489686966,0.04369280859827995,0.0404396690428257,0.04620324820280075,0.05387202277779579,-0.07132261246442795,-0.0009146330412477255,-0.01895730383694172,-0.06699130684137344,0.002052571624517441,-0.07700695097446442,-0.1600206196308136,0.03520949184894562,0.055232275277376175,-0.08334547281265259,-0.037691302597522736,-0.0809987261891365,-0.007101818919181824,-0.14382722973823547,-0.011888660490512848,-0.025040246546268463,-0.12918686866760254,-0.08791374415159225,0.024395780637860298,-0.0873270109295845,-0.04609716683626175,-0.010270504280924797,0.025910137221217155,-0.03592444583773613,-0.001015678746625781,-0.07450929284095764,0.04149475693702698,-0.03569791093468666,0.07299469411373138,-0.026448694989085197,-0.04667331278324127,0.0889282301068306,-0.049633897840976715,0.03566526249051094,-0.0738748162984848,0.05092283710837364,-0.04795911908149719,0.018873753026127815,0.05384314805269241,-0.0051685357466340065,0.10971337556838989,0.07106708735227585,0.16196902096271515,-0.06308414041996002,0.11209999769926071,-0.004706237930804491,0.09589861333370209,-0.010258013382554054,0.009403339587152004,-0.020713038742542267,-0.20534853637218475,-0.3497043251991272,-0.33461686968803406,-0.2821771204471588,-0.174455925822258,-0.01813550665974617,0.004539547022432089,0.01001925952732563,-0.0021781553514301777,-0.17271612584590912,-0.15109869837760925,-0.22226114571094513,0.08242321014404297,0.008876434527337551,0.052478909492492676,-0.11549130082130432,-0.1753305196762085,-0.1694602370262146,0.025266854092478752,0.01764560677111149,0.02072385512292385,0.11822321265935898,0.17649619281291962,-0.06998150050640106,0.07869873940944672,0.03328835964202881,0.039004988968372345,0.005653624888509512,-0.019568542018532753,0.43704232573509216,-0.08774586766958237,-0.14025835692882538,-0.04485730826854706,-0.16042309999465942,-0.2232028990983963,0.004256265237927437,-0.04141148552298546,0.009965494275093079,0.03527194634079933,0.10879319906234741,0.2823166251182556,0.24911727011203766,-0.02545948140323162,-0.027144959196448326,0.08781072497367859,0.03804634138941765,0.13012440502643585,-0.09725659340620041,0.16615596413612366,0.21202757954597473,0.21648354828357697,0.012831650674343109,0.12500354647636414,-0.07224218547344208,0.012004311196506023,-0.056004125624895096,-0.3988402783870697,-0.19764143228530884,-0.39092543721199036,0.04781624302268028,-0.15072983503341675,-0.15831589698791504,-0.42189499735832214,-0.07691793143749237,-0.055258095264434814,0.14978915452957153,0.11094744503498077,0.09336189180612564,0.046224500983953476,0.1562741994857788,0.002555417362600565,0.010919741354882717,0.10030076652765274,0.33694955706596375,0.2198636829853058,0.07823708653450012,0.06871872395277023,-0.17747004330158234,-0.16308583319187164,-0.25551703572273254,-0.09603390097618103,-0.04384550079703331,0.04967208951711655,0.26018819212913513,0.09649760276079178,-0.011955912224948406,0.09294649958610535,0.061443354934453964,-0.10482124239206314,0.17723186314105988,0.013878719881176949,0.05884164944291115,-0.021500250324606895,0.026280248537659645,0.03459534794092178,0.061179693788290024,-0.21723335981369019,-0.3822491466999054,-0.46535173058509827,-0.23428015410900116,0.004298037849366665,0.18239694833755493,-0.01501779817044735,0.25838685035705566,0.2545590102672577,0.09570781886577606,0.25942909717559814,0.043451402336359024,0.2270813286304474,0.2992483079433441,0.5217624306678772,0.14884038269519806,0.1894477754831314,-0.00538405729457736,-0.179264634847641,-0.040548551827669144,0.040648724883794785,-0.2763490676879883,0.04408806189894676,-0.02523888275027275,-0.18010209500789642,-0.33235809206962585,-0.30320942401885986,-0.03170769661664963,-0.16041898727416992,0.19666123390197754,0.1013941764831543,0.11156396567821503,0.07649291306734085,0.11440961062908173,-0.0017874999903142452,-0.21554045379161835,-0.1456272006034851,-0.008120492100715637,0.0507480651140213,-0.10936131328344345,-0.09626957029104233,-0.3838779032230377,0.060642071068286896,-0.054279595613479614,0.1289176493883133,0.009737517684698105,-0.1120913177728653,-0.3078775107860565,0.016762036830186844,-0.16752727329730988,-0.12227953970432281,0.21293973922729492,0.10727187991142273,0.23808547854423523,0.11453145742416382,0.07687461376190186,0.16985291242599487,-0.12536486983299255,-0.14460209012031555,0.07574822753667831,0.02255721390247345,-0.00028778717387467623,0.09264197945594788,0.02244788594543934,-0.06725246459245682,-0.11181221902370453,-0.12443078309297562,-0.02703065611422062,0.0338134765625,0.17617689073085785,0.14631381630897522,0.4089696407318115,-0.09517420828342438,0.013117757625877857,-0.14561893045902252,0.10779032111167908,0.1642686277627945,0.022539569064974785,-0.015615670941770077,0.015127353370189667,-0.027611875906586647,-0.14721383154392242,-0.050431832671165466,-0.07726975530385971,0.06866031140089035,0.15246011316776276,0.1324724555015564,-0.07592179626226425,0.025130778551101685,0.006572446785867214,0.06801740825176239,0.07061085850000381,-0.04077068343758583,0.18476243317127228,0.038114700466394424,0.2897804081439972,-0.18508973717689514,-0.006696342956274748,-0.00483936071395874,-0.034488823264837265,-0.10653086006641388,0.07918226718902588,0.12761898338794708,0.0015505148330703378,-0.005878171417862177,-0.027537306770682335,-0.0003270583983976394,0.0016099507920444012,0.0008387967245653272,-0.01549870241433382,-0.143168106675148,-0.0001858129253378138,0.42743995785713196,0.14413705468177795,0.12844409048557281,-0.12821412086486816,-0.06440280377864838,-0.15490902960300446,0.12130620330572128,-0.021483689546585083,-0.27544426918029785,-0.2997554540634155,0.11184904724359512,0.1077115535736084,0.0012397699756547809,0.0551895834505558,-0.04598482698202133,0.04032716527581215,0.17438824474811554,0.13877752423286438,0.2002364695072174,-0.07453792542219162,-0.06129821762442589,0.161663219332695,-0.11545293778181076,0.040591783821582794,-0.6768903732299805,-0.41362255811691284,0.04192767292261124,0.18296650052070618,0.1683322787284851,0.1324300467967987,-0.04711603373289108,-0.2224022001028061,0.4020022451877594,-0.030766276642680168,0.18547937273979187,-0.22809737920761108,-0.37695908546447754,-0.10037346184253693,0.07845709472894669,0.09781990945339203,-0.2565726339817047,-0.0344475694000721,0.11193674057722092,-0.06249913573265076,0.030747557058930397,0.07983749359846115,-0.043616537004709244,1.1750827979994938e-05,0.7196652293205261,0.43909338116645813,0.0766860768198967,0.15943926572799683,-0.297019898891449,-0.23053492605686188,0.20953717827796936,0.14068980515003204,-0.6945134997367859,-0.5532587170600891,0.18061140179634094,0.020348606631159782,0.33056819438934326,0.4270128011703491,-0.3251726031303406,0.006105429958552122,-0.2636357843875885,0.09441563487052917,0.12000084668397903,-0.27320265769958496,0.05049536004662514,0.4287106394767761,-0.0948130264878273,0.17982564866542816,-0.22178417444229126,-0.10684528946876526,-0.31010591983795166,-0.14913438260555267,-0.1667066216468811,0.2579364776611328,-0.2478237748146057,-0.16068415343761444,-0.17283135652542114,0.014862841926515102,0.038689024746418,-0.2683725655078888,-0.04662670940160751,-0.21698185801506042,-0.2763136625289917,-0.233329638838768,-0.29194846749305725,-0.383807897567749,0.01488373801112175,0.015217608772218227,0.026842433959245682,-0.04999777674674988,-0.07325729727745056,-0.13785310089588165,0.08348523825407028,0.04482334107160568,0.0070709893479943275,-0.0733630359172821,-0.14187517762184143,0.04581378027796745,-0.1450919806957245,-0.0908614993095398,-0.09843138605356216,-0.0667395293712616,-0.14361359179019928,-0.380565345287323,0.016077104955911636,0.060721248388290405,0.022337105125188828,-0.0921795666217804,0.13855388760566711,0.5653897523880005,0.13286444544792175,0.13341552019119263,0.0023193347733467817,-0.06618186086416245,0.0790708065032959,0.00811322033405304,0.12851303815841675,0.1500595510005951,0.12220609933137894,0.06323244422674179,0.058651577681303024,-0.14529404044151306,-0.04462093487381935,0.02884925715625286,0.13798345625400543,0.014947466552257538,-0.03342344984412193,-0.03628159686923027,0.051840730011463165,0.01564951427280903,0.04802269861102104,0.14160671830177307,0.08378143608570099,0.07008913904428482,0.004850984551012516,-0.04477393999695778,-0.10586416721343994,-0.03155865892767906,-0.00864135380834341,-0.08234111964702606,0.064279705286026,0.011500438675284386,-0.05483277514576912,0.04896670579910278,0.0023110336624085903,0.002717633033171296,0.020771460607647896,-0.018506625667214394,0.07060648500919342,0.1985967606306076,0.11072266101837158,-0.015989789739251137,0.12066713720560074,0.17142106592655182,0.2577800750732422,0.13482323288917542,0.2992854416370392,0.0758834257721901,0.16239483654499054,0.1618492752313614,0.11118584126234055,0.01863408274948597,0.1366746425628662,-0.030714591965079308,-0.10987947881221771,-0.1329435408115387,-0.183197483420372,-0.12356461584568024,-0.10152840614318848,-0.044968314468860626,-0.10494817793369293,-0.18674632906913757,-0.08654327690601349,0.011108164675533772,-0.031582631170749664,-0.0558835007250309,-0.01540480274707079,0.05560118705034256,0.058040801435709,-0.023545917123556137,0.007824459113180637,-0.04861554130911827,-0.07504665851593018,0.04160872474312782,-0.045199453830718994,-0.1592315286397934,-0.09832447022199631,-0.01996714062988758,-0.07847843319177628,-0.09422729164361954,-0.012605302035808563,-0.05294535309076309,-0.12125545740127563,0.009603926911950111,-0.12538039684295654,-0.13378900289535522,-0.17277275025844574,-0.16947291791439056,-0.044155318289995193,-0.03823743015527725,0.023277105763554573,0.01632690243422985,-0.021008627489209175,0.04742881655693054,0.09066635370254517,0.03568902611732483,0.06232479214668274,0.016078585758805275,0.027787594124674797,0.19420824944972992,0.1826198399066925,0.004128578118979931,0.03566988557577133,-0.022460540756583214,-0.059428729116916656,0.00043646153062582016,0.07921965420246124,-0.17991557717323303,0.010996798053383827,0.012507378123700619,-0.038130756467580795,-0.034418217837810516,-0.12889708578586578,-0.3113214373588562,-0.043757565319538116,0.03431005775928497,-0.024989502504467964,-0.07214779406785965,0.08428388833999634,0.2516724169254303,-0.033911120146512985,0.032494429498910904,0.012077371589839458,-0.07403033971786499,-0.03255625069141388,-0.3870781362056732,-0.05119618773460388,0.0611281581223011,0.015450848266482353,-0.05822550132870674,-0.08606059849262238,-0.13354068994522095,-0.004564063623547554,0.0007407435332424939,0.0032769087702035904,-0.051062364131212234,0.01238425262272358,0.21902713179588318,0.07654497027397156,0.07006986439228058,0.059217773377895355,0.05223141610622406,0.08118562400341034,-0.0704801008105278,0.058089762926101685,0.020199330523610115,0.016063321381807327,0.10752051323652267,0.13777117431163788,0.04769182950258255,0.031112046912312508,0.0551171600818634,-0.1275032013654709,-0.25030773878097534,0.1646367758512497,-0.13587312400341034,-0.06401112675666809,-0.010484911501407623,-0.040110994130373,0.12084352225065231,-0.23045019805431366,-0.007021149154752493,0.051471684128046036,0.14850841462612152,0.030654877424240112,0.10218096524477005,-0.2083350270986557,0.08785372227430344,-0.04364641383290291,-0.05070994421839714,-0.03230183199048042,0.019871555268764496,0.05678172409534454,-0.16697384417057037,-0.09975837171077728,-0.1325523406267166,-0.004679751582443714,-0.19215507805347443,0.16612455248832703,0.09664363414049149,0.0060790120624005795,-0.057406410574913025,-0.029964225366711617,0.003637355286628008,0.03782032057642937,0.05395384132862091,-0.0691012367606163,-0.08136090636253357,0.01005787868052721,0.13705991208553314,-0.017716659232974052,-0.1008705422282219,-0.029298435896635056,-0.028448915109038353,0.027475429698824883,-0.03206927701830864,0.2992546856403351,0.00026927856379188597,-0.03013175167143345,-0.1199762374162674,0.08012577891349792,0.23434984683990479,0.1948467195034027,-0.17016814649105072,0.014806985855102539,0.007242599967867136,-0.1158590018749237,-0.2075401246547699,-0.30830612778663635,-0.02385919913649559,-0.12904642522335052,-0.04071718454360962,-0.03337709233164787,-0.14969071745872498,0.02855503559112549,0.14081759750843048,-0.001687353360466659,-0.07199910283088684,0.004747689235955477,-0.016856441274285316,-0.07165265828371048,0.1470262110233307,-0.14315028488636017,-0.031067045405507088,0.13584700226783752,0.21478435397148132,0.19296571612358093,-0.03801322728395462,-0.09129278361797333,0.08775163441896439,-0.027872633188962936,-0.23269440233707428,-0.1863531470298767,-0.06384939700365067,0.08509264886379242,0.12451227754354477,0.09328217804431915,0.027742907404899597,-0.11223427206277847,0.05841828137636185,-0.05592186748981476,-0.007612654007971287,0.1754496544599533,0.38366514444351196,0.3238864243030548,0.09062645584344864,0.12148145586252213,0.09099605679512024,-0.10664071142673492,-0.3503226637840271,-0.4189244508743286,0.3135264813899994,0.009155233390629292,0.030605090782046318,0.10390079021453857,0.12527716159820557,0.27481698989868164,0.13063518702983856,0.14880061149597168,0.014931505545973778,0.048236291855573654,0.01586647517979145,0.08122479915618896,0.2900439500808716,0.012906108982861042,0.019721269607543945,-0.08455580472946167,-0.01543961651623249,-0.015601780265569687,-0.2759990096092224,0.12717783451080322,0.020197229459881783,-0.14123745262622833,-0.2461271435022354,-0.4633799195289612,0.19402320683002472,-0.0031583497766405344,-0.06808636337518692,0.09775847941637039,0.13455817103385925,0.17619381844997406,0.1115790456533432,-0.11418423056602478,-0.08546192198991776,-0.05581158399581909,0.09919006377458572,0.10062499344348907,-0.4932131767272949,0.0926414355635643,0.0157056525349617,-0.11203479021787643,-0.2696688175201416,-0.5178315043449402,-0.12631946802139282,-0.024787219241261482,-0.029530538246035576,-0.12406262010335922,-0.1434536874294281,-0.2734066843986511,-0.012918086722493172,-0.06596239656209946,-0.09932911396026611,-0.12613341212272644,-0.13561996817588806,0.10927444696426392,-0.01130745280534029,-0.13410182297229767,-0.13159959018230438,-0.12235130369663239,-0.0695909932255745,-0.18699972331523895,0.03149496018886566,-0.07245156168937683,-0.025314809754490852,0.02078581228852272,0.08943860232830048,0.0027604212518781424,-0.027638010680675507,-0.03964267671108246,-0.004891062621027231,-0.06404872983694077,0.057707007974386215,0.2433064728975296,0.21241354942321777,-0.09516151249408722,-0.07198268175125122,0.0002948843175545335,0.06336594372987747,-0.03869932144880295,0.0017356772441416979,0.1189393699169159,0.007331215310841799,0.07196570932865143,0.0034770744387060404,-0.11115450412034988,0.1077619418501854,0.15698730945587158,0.06783676892518997,-0.027882173657417297,-0.013067076914012432,0.023910939693450928,-0.0405106283724308,-0.2500525414943695,-0.026056967675685883,-0.024226777255535126,0.01035669818520546,-0.02430836297571659,-0.026057643815875053,0.06774355471134186,-0.04663323611021042,0.0006608814001083374,0.0021183157805353403,-0.0003977655724156648,-0.0007925983518362045,-0.00311467656865716,0.005683970637619495,0.0027075139805674553,0.002834988757967949,-0.09849680215120316,0.2784387469291687,0.2859382629394531,0.09696242213249207,0.03551403433084488,-0.07057974487543106,0.04269905760884285,-0.0021732107270509005,0.31949129700660706,0.3407455086708069,0.06784726679325104,-0.26570457220077515,0.09166890382766724,0.21722567081451416,-0.16891519725322723,0.05518633499741554,-0.15792274475097656,0.11791705340147018,0.07679424434900284,-0.15016911923885345,0.09754742681980133,0.1513289213180542,0.0014425755944103003,-0.06456542015075684,0.19139480590820312,0.34608903527259827,-0.09881176799535751,0.2456117868423462,0.1194387748837471,0.20430633425712585,-0.26663774251937866,0.004270422738045454,-0.32379159331321716,-0.07854386419057846,0.014131645672023296,0.30578961968421936,-0.2226141095161438,-0.408012717962265,0.3221956491470337,-0.20546986162662506,0.08156073093414307,0.0716237723827362,-0.0761915072798729,0.03291556239128113,0.043049879372119904,0.16212348639965057,-0.09974632412195206,-0.15693223476409912,-0.30245253443717957,-0.040924832224845886,0.3307553827762604,0.5162757039070129,-0.09726100414991379,0.043495237827301025,-0.004415913484990597,0.1819486916065216,0.30070915818214417,-0.22056002914905548,-0.04205458611249924,-0.22789742052555084,-0.16246460378170013,-0.17262274026870728,0.19097208976745605,0.3008255362510681,-0.1276039332151413,-0.11004824191331863,0.2188812792301178,0.2312307059764862,0.14740341901779175,0.4248387813568115,-0.04176415130496025,-0.08880368620157242,0.05992152914404869,0.08445258438587189,0.07861930876970291,0.12791235744953156,0.054601263254880905,-0.17770670354366302,0.07894732803106308,0.06142890453338623,0.04354313388466835,0.0895446166396141,-0.021870536729693413,-0.2649226784706116,0.020514462143182755,-0.045961327850818634,-0.03605880215764046,0.0032310213427990675,-0.050165146589279175,0.13797007501125336,-0.07326995581388474,-0.022230997681617737,-0.05974794179201126,-0.025501243770122528,-0.09909925609827042,-0.016189858317375183,-0.03198212757706642,-0.0076350439339876175,0.008085532113909721,0.07948026806116104,-0.08672936260700226,-0.03396426513791084,0.04549703747034073,-0.006375293713063002,0.08432245999574661,0.1414303034543991,0.03894786164164543,-0.003245282918214798,-0.055391356348991394,-0.025402192026376724,-0.058711983263492584,-0.1035371646285057,-0.2135758101940155,0.13660959899425507,-0.006993857678025961,0.03080517239868641,0.01483287662267685,0.005295528564602137,-0.011116351932287216,-0.03890427574515343,-0.012351746670901775,-0.03290749341249466,-0.044959791004657745,0.008251696825027466,0.1759188324213028,-0.014815478585660458,0.05448595806956291,0.10596638172864914,0.1254580318927765,0.18646769225597382,0.13435369729995728,0.09797404706478119,-0.04228842258453369,0.0053316387347877026,-0.07077883183956146,-0.078517384827137,-0.0035071084275841713,-0.3403639495372772,-0.01679140515625477,0.02636120282113552,-0.051763564348220825,-0.02531622163951397,0.09469445794820786,-0.06596426665782928,-0.03477675840258598,0.028700726106762886,-0.0054498533718287945,0.006769823841750622,0.12436705082654953,-0.3128434121608734,-0.028022902086377144,-0.01789560355246067,-0.007872549816966057,-0.027786729857325554,0.012343154288828373,-0.3154922425746918,0.038493812084198,0.01476258970797062,-0.03779638931155205,0.04055902361869812,-0.08236747980117798,-0.007180818356573582,-0.0023462504614144564,-0.07241790741682053,-0.05442771688103676,-0.0062309554778039455,-0.045637890696525574,-0.11480124294757843,-0.005644616205245256,0.03601986914873123,-0.06221070885658264,-0.026192298159003258,0.13910295069217682,-0.26299363374710083,0.0069409445859491825,0.1386987417936325,-0.01151380967348814,0.03768403083086014,-0.10769814997911453,-0.023940302431583405,-0.02993077039718628,0.01737009361386299,-0.018817061558365822,0.012067565694451332,0.03337027132511139,0.29478171467781067,-0.07339155673980713,-0.02554750256240368,-0.014661634340882301,-0.030114280059933662,-0.06316055357456207,0.10802855342626572,-0.0075017246417701244,0.019277149811387062,-0.027063680812716484,0.014887247234582901,0.0030059409327805042,0.0050501031801104546,0.13653996586799622,0.0950600802898407,0.08821924775838852,0.15243376791477203,0.19079387187957764,0.04753335937857628,-0.003009050153195858,0.016069810837507248,0.09804590046405792,0.002260552253574133,-0.13815321028232574,-0.0621616393327713,-0.017135968431830406,-0.07896925508975983,-0.03839618340134621,-0.08145154267549515,-0.0958719328045845,0.10637504607439041,-0.03421539440751076,-0.03974027931690216,-0.11637699604034424,-0.08358366042375565,-0.025250090286135674,-0.013297836296260357,-0.06757697463035583,0.0181804820895195,-0.09653646498918533,-0.08273948729038239,-0.010203833691775799,-0.023402687162160873,0.037728533148765564,-0.03260760381817818,-0.01878531090915203,-0.005300440825521946,-0.02533361129462719,-0.12429534643888474,0.017507357522845268,0.05069670453667641,0.015668543055653572,0.01318990159779787,0.03545732423663139,0.06800716370344162,0.0069245994091033936,0.051932334899902344,0.05199114978313446,0.06809646636247635,0.0657581016421318,-0.0014572835061699152,-0.00920515600591898,-0.011352515779435635,-0.0359131321310997,-0.07487062364816666,-0.04203996807336807,0.041056741029024124,0.04404958710074425,0.020363664254546165,0.0009737718501128256,-0.08410293608903885,-0.029700441285967827,-0.012333047576248646,0.03390836715698242,-0.02345963567495346,-0.004650893155485392,0.006762494333088398,0.05963319540023804,-0.10944443941116333,-0.0029596611857414246,0.0457257479429245,0.09407880157232285,-0.024362513795495033,0.11978816241025925,-0.15286703407764435,0.06238744035363197,0.14038072526454926,0.18146803975105286,0.1947842836380005,0.1757311373949051,0.09861355274915695,-0.02921672724187374,-0.08886105567216873,-0.012659500353038311,-0.05608523264527321,0.16951970756053925,-0.025731317698955536,-0.11075104773044586,-0.068511001765728,-0.034251295030117035,0.0034260025713592768,0.02327909506857395,-0.23661784827709198,-0.012090260162949562,-0.03163571655750275,0.010329282842576504,0.0012101654428988695,0.026004107668995857,-0.07125458121299744,0.08963752537965775,0.09340366721153259,0.17638027667999268,0.12627281248569489,0.04876463860273361,0.04953804984688759,0.022712428122758865,-0.026519548147916794,0.0384707897901535,0.06563767045736313,0.08264076709747314,0.027235399931669235,0.029218604788184166,-0.05934033542871475,-0.09523036330938339,-0.1908176988363266,-0.04201725125312805,0.14442278444766998,0.07610075920820236,0.030901405960321426,0.10546736419200897,0.21558715403079987,0.32301977276802063,-0.0004382859624456614,0.07222451269626617,0.10512799024581909,0.12138605117797852,0.13605226576328278,0.21810100972652435,-0.1315293163061142,0.08812472224235535,-0.040592193603515625,0.0799664705991745,0.046661242842674255,0.21561439335346222,-0.1279742568731308,-0.0235624760389328,-0.14119766652584076,-0.09463236480951309,-0.042642153799533844,-0.08760923892259598,0.05193069949746132,-0.0003214792814105749,0.03588820621371269,0.024570005014538765,0.025575168430805206,0.055618930608034134,0.26218095421791077,0.06735722720623016,0.11946512758731842,0.007088136859238148,0.08693362772464752,0.23692096769809723,-0.050370678305625916,-0.03553774207830429,-0.05171207711100578,-0.01657351665198803,-0.10803087800741196,-0.1661473661661148,0.07513095438480377,-0.04951244220137596,0.019881896674633026,0.1047748550772667,-0.0007773888064548373,-0.021082356572151184,0.1256498396396637,0.007235358934849501,-0.1139473170042038,-0.010198911651968956,0.02015482448041439,0.3801710605621338,-0.33539143204689026,0.03816404193639755,-0.030441340059041977,0.028007181361317635,0.049150824546813965,0.10341385751962662,-0.15215924382209778,-0.007182908244431019,-0.02338462322950363,-0.06778930872678757,-0.029478074982762337,-0.048555467277765274,-0.23491978645324707,-0.013226806186139584,0.017725745216012,-0.045540761202573776,-0.04496133327484131,-0.049632180482149124,0.04296121373772621,0.008849219419062138,0.028757236897945404,-0.012722681276500225,-0.017057597637176514,0.10121744871139526,0.0156510341912508,0.007386071141809225,-0.060703665018081665,0.09440262615680695,-0.04591120779514313,0.2052185982465744,0.02048482559621334,-0.013146561570465565,-0.006177466828376055,-0.04746326804161072,0.014707164838910103,-0.14593158662319183,0.15064167976379395,-0.012384375557303429,-0.01680549420416355,-0.038002897053956985,0.07655823230743408,0.02113591879606247,0.1381666511297226,0.09463781863451004,0.09540373086929321,0.18660296499729156,0.1674346774816513,-0.3255811929702759,0.19886615872383118,0.09533281624317169,0.06762443482875824,0.045148372650146484,0.02697695791721344,0.08883699029684067,0.01784035935997963,0.0361952930688858,0.06589095294475555,0.14833496510982513,0.06803841888904572,-0.014863167889416218,-0.14087946712970734,-0.02237798646092415,-0.01879189722239971,-0.009713013656437397,-0.06535933166742325,-0.07621408253908157,-0.4252416789531708,0.007515899371355772,0.0467151403427124,0.08331331610679626,-0.017252117395401,-0.09763601422309875,0.2160288244485855,0.03490542992949486,-0.023883085697889328,0.051659923046827316,0.05168740823864937,-0.07572606205940247,-0.07237560302019119,-0.03816404938697815,-0.0902770608663559,-0.14606426656246185,-0.13060812652111053,-0.10740738362073898,0.04152180626988411,0.00355891021899879,0.030374320223927498,0.07259374111890793,0.06961280107498169,-0.07760699838399887,-0.6246452331542969,0.17791157960891724,0.03647996857762337,0.016673851758241653,-0.0004429593391250819,0.08777056634426117,0.20030835270881653,0.08834715932607651,-0.01634429767727852,0.013576596975326538,-0.008996236138045788,0.012396924197673798,-0.00056950852740556,-0.012263785116374493,-0.005592267960309982,0.021858658641576767,-0.26700931787490845,-0.2054789662361145,-0.0012507224455475807,0.2519662082195282,0.11148041486740112,0.16649660468101501,-0.2622508108615875,-0.16759024560451508,-0.12143325805664062,0.06349311769008636,-0.08428782969713211,0.08108905702829361,-0.059330057352781296,-0.16246119141578674,0.03224962577223778,-0.0765710175037384,-0.19409871101379395,-0.27855372428894043,0.21428371965885162,-0.22078503668308258,0.3110032379627228,0.1607106328010559,0.14185728132724762,0.10357282310724258,-0.04015650227665901,0.03534109145402908,0.06805702298879623,0.05479729175567627,-0.17335155606269836,0.18623065948486328,0.0065192487090826035,-0.09582728147506714,-0.15759490430355072,0.10121516138315201,0.2421630471944809,-0.12509971857070923,-0.06400030106306076,0.09563244134187698,-0.18693044781684875,-0.045486822724342346,0.1303914487361908,0.023476989939808846,0.012699166312813759,-0.12799645960330963,0.025592096149921417,-0.06294170767068863,0.11637970060110092,-0.01589696668088436,-0.11440126597881317,0.09503177553415298,-0.1185615062713623,-0.20238950848579407,-0.09665337949991226,-0.2391788810491562,0.3358500897884369,-0.10743235796689987,0.378427654504776,0.175314262509346,0.29044008255004883,0.2161952406167984,0.016183476895093918,-0.058679524809122086,-0.30650946497917175,0.13809973001480103,0.349016398191452,-0.08923624455928802,0.0489867739379406,0.030817806720733643,-0.11639247089624405,0.013485332019627094,0.35923996567726135,0.19809839129447937,0.102576345205307,-0.002629866125062108,-0.06177627667784691,-0.07558402419090271,-0.03515799716114998,0.013831435702741146,0.09466102719306946,0.06016453728079796,0.04656747356057167,-0.0013236445374786854,0.008007564581930637,0.010411783121526241,0.23364649713039398,0.001847443520091474,-0.03890165314078331,-0.04111350700259209,0.0056789047084748745,-0.01192530244588852,0.4098868668079376,0.06185876578092575,0.0417194627225399,0.06455336511135101,0.08334426581859589,0.16175590455532074,0.24165965616703033,0.0076551674865186214,0.012784895487129688,-0.005762800108641386,-0.0338677242398262,-0.030495179817080498,-0.35775020718574524,-0.14445993304252625,-0.20618295669555664,-0.21089287102222443,-0.277258962392807,-0.24715733528137207,-0.08948314189910889,0.025491390377283096,-0.019062763080000877,-0.01131652481853962,-0.012251936830580235,0.059518128633499146,-0.27386340498924255,-0.015080785378813744,-0.004662093240767717,-0.010302774608135223,-0.01922495663166046,-0.07493340224027634,0.21789605915546417,-0.04311465471982956,-0.03202962875366211,-0.0624874085187912,-0.10128412395715714,-0.17588303983211517,0.03424568101763725,-0.09607701003551483,0.06849384307861328,-0.009310689754784107,-0.044003937393426895,0.11198817938566208,-0.10792910307645798,-0.035478800535202026,0.03227565810084343,-0.03820367157459259,-0.13810396194458008,0.13040845096111298,-0.17906738817691803,0.057655006647109985,0.12932534515857697,0.042995888739824295,-0.022650817409157753,-0.07611943781375885,0.22949658334255219,0.020454803481698036,0.06743790209293365,0.03937269002199173,-0.03777528554201126,0.20602083206176758,0.015332654118537903,0.09155028313398361,-0.09043464809656143,0.047379765659570694,-0.10010185837745667,0.130300372838974,0.09270898252725601,0.0205149557441473,0.08241006731987,0.05963228642940521,-0.03021339699625969,0.20992566645145416,0.1495431512594223,-0.024843178689479828,0.004515348933637142,0.03248561546206474,0.03216959163546562,0.004191327840089798,0.048990026116371155,0.016495686024427414,-0.018075982108712196,0.014796333387494087,-0.037091247737407684,-0.13729605078697205,0.06693849712610245,-0.0093073146417737,-0.018513355404138565,-0.041458699852228165,0.01481984555721283,0.01685163378715515,0.10007070749998093,0.02124190889298916,0.04297182708978653,0.10477735847234726,0.015133836306631565,0.08548475056886673,-0.10812672972679138,0.031739331781864166,0.07889007776975632,0.040212757885456085,0.10976573824882507,-0.06241988763213158,-0.09563426673412323,0.02561236172914505,0.06193377077579498,0.015335953794419765,0.05886591598391533,-0.04500756785273552,0.18846102058887482,0.07830391824245453,-0.05503823980689049,-0.00398055138066411,-0.088961660861969,-0.019909270107746124,0.12511833012104034,0.02859542705118656,-0.00196738145314157,0.0056704869493842125,0.03727477788925171,0.04509030655026436,-0.09869887679815292,-0.006903728935867548,-0.005784534849226475,-0.00837867334485054,-0.02328164502978325,0.06539997458457947,-0.09351550042629242,-0.026875300332903862,-0.03868851438164711,-0.0038236542604863644,0.00215111649595201,0.06960690021514893,-0.04744536802172661,-0.020409787073731422,-0.03260836750268936,-0.04665650427341461,-0.02482661046087742,-0.006362531799823046,-0.2020615041255951,-0.01947750337421894,-0.012687264010310173,0.02548537217080593,0.047647155821323395,0.13944801688194275,0.06027984619140625,0.028602181002497673,0.026875663548707962,-0.019435642287135124,0.0494108721613884,0.013398894108831882,0.10300955176353455,-0.004123228136450052,0.011486384086310863,0.004778709262609482,0.06050504371523857,0.06968773901462555,0.1538757085800171,-0.07323016226291656,-0.055595893412828445,0.05474306270480156,0.028141476213932037,0.10128824412822723,-0.010511194355785847,-0.017282741144299507,-0.027168676257133484,-0.022104537114501,0.009513926692306995,0.0003552068956196308,-0.03766307607293129,-0.012708899565041065,-0.01622864231467247,-0.0005779354250989854,0.010043761692941189,0.048438750207424164,0.16563166677951813,0.019359907135367393,0.025237828493118286,0.07865718752145767,0.04356967657804489,0.08841337263584137,0.019583208486437798,0.01564311422407627,0.049222152680158615,0.09395064413547516,0.03166066110134125,0.030785568058490753,-0.005474199540913105,0.026982899755239487,0.019402865320444107,0.05303303152322769,0.01181107945740223,0.0893886387348175,-0.15321803092956543,0.08688253909349442,0.15218906104564667,0.13893002271652222,0.14646820724010468,0.1386948972940445,-0.17830109596252441,-0.0036459530238062143,0.0019480822375044227,0.016490092501044273,-0.017401060089468956,-0.001002311473712325,0.06925097852945328,-0.15973502397537231,-0.23257748782634735,-0.2231760174036026,-0.2771405577659607,-0.2662922143936157,-0.47451937198638916,0.025825142860412598,0.05569735914468765,0.06291513890028,0.03744938597083092,0.054324109107255936,0.40338948369026184,-0.0015276623889803886,-0.02574795112013817,-0.0016008163802325726,-0.008352317847311497,0.0232850294560194,-0.17917492985725403,0.02580147422850132,-0.027092918753623962,-0.17260228097438812,0.003489544615149498,0.0990685522556305,-0.1567695140838623,0.0938376933336258,0.0660301223397255,0.06401044875383377,0.06579320877790451,0.07972261309623718,-0.03522184118628502,-0.0067988247610628605,0.11327502131462097,-0.07334701716899872,-0.012166419066488743,0.14963221549987793,-0.07547058165073395,-0.054272186011075974,-0.060910649597644806,-0.11427057534456253,-0.013469072058796883,0.02971072494983673,0.00544541934505105,-0.0014399715000763535,-0.006664636079221964,0.00773784751072526,0.022819800302386284,-0.04343683272600174,0.00018905526667367667,-0.07330839335918427,-0.06149168685078621,-0.015147857367992401,-0.028012055903673172,0.06798366457223892,-0.02553226426243782,-0.03774994984269142,-0.0006964870844967663,-0.04490906745195389,0.004622310865670443,0.15735697746276855,-0.005072408821433783,0.017739523202180862,0.03283405676484108,0.021328456699848175,0.05991414934396744,-0.010381728410720825,-0.09917214512825012,-0.016815338283777237,0.057026688009500504,0.11847029626369476,0.13095565140247345,0.1307266801595688,0.006121119949966669,0.1032240018248558,0.02419258840382099,0.13182313740253448,-0.022067954763770103,0.11735273897647858,0.05986684188246727,0.1311752200126648,0.012278839014470577,0.11682650446891785,0.05778557062149048,0.04703100025653839,0.027299078181385994,-0.06681562960147858,-0.08960990607738495,-0.07202564924955368,-0.07874947041273117,-0.084539033472538,-0.1693311184644699,0.07546167075634003,0.018667500466108322,0.054431427270174026,-0.014578958973288536,0.06283657997846603,-0.010367626324295998,-0.007844892330467701,0.038479965180158615,-0.08697961270809174,-0.05223546922206879,0.08051984012126923,0.034009821712970734,-0.0697997435927391,-0.11220430582761765,-0.16360682249069214,-0.20572498440742493,-0.18533553183078766,-0.130972221493721,0.0011582568986341357,-0.019502054899930954,-0.11629834771156311,-0.15562394261360168,-0.17614878714084625,-0.24582569301128387,-0.030277112498879433,-0.033245738595724106,-0.026492083445191383,0.011824946850538254,-0.0960024744272232,-0.13960832357406616,-0.054540447890758514,-0.06668172776699066,-0.06857627630233765,0.013306773267686367,-0.05259241908788681,-0.10260844230651855,0.020760076120495796,0.026888150721788406,0.2911451458930969,0.08407968282699585,0.11446046829223633,0.015964558348059654,-0.013150574639439583,0.12266052514314651,0.11481016874313354,0.06820704787969589,0.013819951564073563,0.12327505648136139,0.030104774981737137,0.08238613605499268,0.0823921412229538,0.04560790956020355,-0.05573996528983116,0.018587304279208183,0.06724678725004196,0.11567439883947372,-0.03552887588739395,-0.02118154615163803,0.022584015503525734,-0.1831032633781433,-0.026572614908218384,0.030627692118287086,0.035045426338911057,0.028191544115543365,-0.09026222676038742,-0.10648415237665176,0.013171260245144367,-0.0827685296535492,-0.02268170192837715,-0.03721482306718826,-0.021991213783621788,-0.10580409318208694,-0.34834542870521545,0.10226082801818848,0.02717023342847824,0.06802704185247421,-0.45138877630233765,0.0020672944374382496,0.13119512796401978,-0.09175645560026169,