{"version":"0.7.0","architecture":"SlimmableContainer","config":{"submodels":[{"max_value":0.5,"model":{"version":"0.7.0","metadata":{"date":{"year":2026,"month":5,"day":7,"hour":20,"minute":52,"second":10},"loudness":-18.205917358398438,"gain":0.8130897548377439},"architecture":"WaveNet","config":{"layers":[{"input_size":1,"condition_size":1,"head":{"out_channels":1,"kernel_size":16,"bias":true},"channels":3,"kernel_sizes":[6,6,6,6,6,6,6,6,6,6,6,6,6,6,15,15,6,6,6,6,6,6,6],"dilations":[1,3,7,17,41,101,239,1,3,7,17,41,101,239,1,13,1,3,7,17,41,101,239],"activation":[{"type":"LeakyReLU","negative_slope":0.01},{"type":"LeakyReLU","negative_slope":0.01},{"type":"LeakyReLU","negative_slope":0.01},{"type":"LeakyReLU","negative_slope":0.01},{"type":"LeakyReLU","negative_slope":0.01},{"type":"LeakyReLU","negative_slope":0.01},{"type":"LeakyReLU","negative_slope":0.01},{"type":"LeakyReLU","negative_slope":0.01},{"type":"LeakyReLU","negative_slope":0.01},{"type":"LeakyReLU","negative_slope":0.01},{"type":"LeakyReLU","negative_slope":0.01},{"type":"LeakyReLU","negative_slope":0.01},{"type":"LeakyReLU","negative_slope":0.01},{"type":"LeakyReLU","negative_slope":0.01},{"type":"LeakyReLU","negative_slope":0.01},{"type":"LeakyReLU","negative_slope":0.01},{"type":"LeakyReLU","negative_slope":0.01},{"type":"LeakyReLU","negative_slope":0.01},{"type":"LeakyReLU","negative_slope":0.01},{"type":"LeakyReLU","negative_slope":0.01},{"type":"LeakyReLU","negative_slope":0.01},{"type":"LeakyReLU","negative_slope":0.01},{"type":"LeakyReLU","negative_slope":0.01}],"bottleneck":3,"head1x1":{"active":false,"out_channels":1,"groups":1},"layer1x1":{"active":true,"groups":1},"groups_input":1,"groups_input_mixin":1,"conv_pre_film":{"active":false,"shift":true,"groups":1},"conv_post_film":{"active":false,"shift":true,"groups":1},"input_mixin_pre_film":{"active":false,"shift":true,"groups":1},"input_mixin_post_film":{"active":false,"shift":true,"groups":1},"activation_pre_film":{"active":false,"shift":true,"groups":1},"activation_post_film":{"active":false,"shift":true,"groups":1},"layer1x1_post_film":{"active":false,"shift":true,"groups":1},"head1x1_post_film":{"active":false,"shift":true,"groups":1},"gating_mode":["none","none","none","none","none","none","none","none","none","none","none","none","none","none","none","none","none","none","none","none","none","none","none"],"secondary_activation":[null,null,null,null,null,null,null,null,null,null,null,null,null,null,null,null,null,null,null,null,null,null,null],"slimmable":null}],"head":null,"head_scale":0.009471787102773724},"weights":[-7.008480548858643,-4.053490161895752,8.347900390625,-0.18374408781528473,0.6972396373748779,0.6021289825439453,1.2587823867797852,2.2176761627197266,1.6196911334991455,0.15074962377548218,0.6547461748123169,0.5505997538566589,1.2310467958450317,1.705064058303833,1.2353951930999756,-0.06187458708882332,-0.5894097685813904,-0.5917938351631165,-1.5577236413955688,-2.255702257156372,-1.5120866298675537,-0.18607240915298462,-0.1263604760169983,0.06811142712831497,0.03937916085124016,0.08110208809375763,0.33961719274520874,-0.25870081782341003,-0.0019073615549132228,-0.013573669828474522,-0.18104442954063416,0.022771146148443222,0.2440122663974762,0.18654151260852814,0.045854877680540085,-0.05594930797815323,0.03602522984147072,-0.07243898510932922,-0.32575923204421997,-0.12187963724136353,-0.08033575862646103,0.09254170209169388,0.003113195300102234,0.09301575273275375,0.373710036277771,-0.09230376034975052,-0.10454840213060379,0.06709092855453491,-0.06238376721739769,0.09712021797895432,0.2232821136713028,0.14897000789642334,0.15399706363677979,-0.17043204605579376,-0.017970630899071693,-0.1905306726694107,-0.27106690406799316,3.294034957885742,-1.2174137830734253,-0.05598881468176842,-0.7822614908218384,-0.17746537923812866,-0.11701066046953201,1.2079402208328247,-0.48852863907814026,0.06060364097356796,0.5490414500236511,-1.0477235317230225,0.2028495818376541,-0.173529252409935,0.5338629484176636,0.09596959501504898,-0.12049885839223862,1.1683571338653564,0.4721243381500244,0.1333017647266388,0.1479116827249527,-0.051762655377388,0.21070760488510132,-0.674913763999939,-1.2783879041671753,-0.29347139596939087,-0.3299548625946045,-0.1142810508608818,0.012643659487366676,-0.42793044447898865,-0.6623985767364502,0.03901544213294983,-0.19220472872257233,-0.2661077678203583,0.24678978323936462,1.4653397798538208,1.1033278703689575,-0.01712804287672043,-0.09514383971691132,0.22271661460399628,0.15870347619056702,0.411492258310318,0.588916003704071,-0.031535230576992035,0.06330560147762299,-0.11780336499214172,0.213190957903862,0.030914651229977608,0.07475351542234421,-0.43643277883529663,-0.4118700325489044,-0.15747404098510742,1.6808122396469116,3.0208323001861572,4.125108242034912,0.049410074949264526,-0.10339929163455963,0.1949801743030548,0.13862033188343048,0.22615261375904083,-0.5577081441879272,-0.2943248450756073,-0.2841896116733551,-0.19360317289829254,-0.12637604773044586,-0.2632148563861847,-1.1509449481964111,-1.0003063678741455,-0.7117793560028076,-0.47331756353378296,0.32573172450065613,0.6751078963279724,0.6540554761886597,-0.2054615616798401,1.5474953651428223,-0.5386057496070862,1.345786452293396,1.4855492115020752,0.1591428816318512,-3.003645181655884,-0.32890594005584717,0.8314347267150879,-1.9729969501495361,0.2767641246318817,-1.663029432296753,1.6016852855682373,1.1870372295379639,-1.6559008359909058,-0.4086400866508484,2.3265488147735596,1.2486445903778076,0.046518731862306595,0.1309814602136612,0.28015926480293274,0.31778234243392944,0.24889343976974487,-0.9374079704284668,0.3473189175128937,0.36254873871803284,0.6074920892715454,0.46747738122940063,0.5266964435577393,0.3940390348434448,0.18763355910778046,0.10491281002759933,0.4852761924266815,0.006707065738737583,-0.033083170652389526,0.3100631535053253,-0.1169348880648613,0.4665059447288513,0.3831019401550293,0.41713446378707886,0.3558928668498993,-0.9316757321357727,0.2809004783630371,0.1178305447101593,0.24126721918582916,0.519819974899292,0.39047372341156006,-0.2518928647041321,0.2798915505409241,0.2037981152534485,0.2325839400291443,0.1251206248998642,-0.28757673501968384,0.7107347249984741,-0.3739326298236847,-0.25778523087501526,-0.4176669418811798,-0.3025737404823303,-0.1071505919098854,0.7888152599334717,0.17716765403747559,0.37068724632263184,0.3074442446231842,0.18491090834140778,0.3852696120738983,0.8532862663269043,0.3125978708267212,0.4191930592060089,0.6328692436218262,0.49207139015197754,0.5088679194450378,-0.5923943519592285,0.40434154868125916,0.2593437433242798,0.2926523983478546,0.639298677444458,1.3831316232681274,-0.9459573030471802,-0.3230339586734772,-0.4650968313217163,0.4508521854877472,-0.3307269513607025,-0.8589690327644348,0.286807656288147,0.5136401653289795,-0.03723831847310066,0.007454644422978163,0.01131961029022932,0.14351987838745117,0.9844699501991272,0.11681245267391205,0.1596892923116684,0.2770574688911438,0.19681498408317566,0.26577433943748474,-0.20352114737033844,-0.09009496122598648,-0.11458998173475266,-0.1705736219882965,-0.29534026980400085,-0.29841840267181396,0.16887669265270233,0.0010583138791844249,0.0006834416417405009,0.07812433689832687,0.1519557237625122,0.1497451215982437,-0.16884656250476837,0.059737447649240494,0.0578247494995594,0.016114886850118637,0.041027139872312546,0.08924972265958786,-0.27735739946365356,-0.015867408365011215,0.049672577530145645,0.038279835134744644,0.07135839760303497,-0.04222256690263748,0.2114025205373764,0.0874301865696907,0.20081661641597748,0.04603381082415581,0.3422533869743347,0.12071007490158081,-0.2327278107404709,0.03871191293001175,-0.12266163527965546,-0.18983808159828186,-0.16840656101703644,-0.16390565037727356,-0.14134880900382996,-0.04918776452541351,0.022683460265398026,0.1151144802570343,0.24671670794487,0.1868712306022644,-0.05899808183312416,0.06990644335746765,-0.03092365525662899,0.19178460538387299,0.2950049042701721,0.3378525674343109,0.22168786823749542,-0.16128253936767578,0.04294664040207863,0.20552422106266022,0.42761051654815674,-0.11071399599313736,-0.47841280698776245,-0.2279500812292099,0.14818423986434937,0.3228450417518616,-0.5118164420127869,-0.19067704677581787,-0.39292699098587036,0.027809109538793564,0.5308096408843994,0.11693646013736725,-0.11873114854097366,0.24476458132266998,0.1473868191242218,-0.04404030367732048,-0.10199461132287979,0.07163328677415848,-0.16504912078380585,-0.029854167252779007,0.19881322979927063,0.08835258334875107,0.0944911539554596,0.04300811141729355,0.06609045714139938,0.01577945053577423,-0.29203787446022034,0.11105179786682129,0.0017450061859562993,0.03396723419427872,-0.036405473947525024,-0.06190535053610802,0.06571760773658752,0.025872524827718735,0.03392523154616356,-0.008927044458687305,0.10613997280597687,-0.06393668055534363,1.1314700841903687,0.018224669620394707,0.022527562454342842,0.04316706210374832,-0.026970308274030685,0.10556796193122864,-0.3847285211086273,0.11459433287382126,0.1345747709274292,0.06677886098623276,0.10613714158535004,-0.08712474256753922,0.4203629493713379,-0.03367994353175163,-0.0819709375500679,-0.00466978270560503,0.07426219433546066,-0.021229397505521774,0.17626824975013733,0.09313330054283142,0.09554783999919891,-0.017691005021333694,-0.015125532634556293,0.03707750886678696,-0.6459295749664307,0.09769310802221298,0.029159212484955788,-0.028203347697854042,0.10134243220090866,-0.0593426413834095,-0.1721785068511963,0.010897439904510975,-0.06146441400051117,-0.1475738137960434,0.12222374975681305,0.4129807949066162,0.06379491090774536,-0.005592307075858116,-0.17503102123737335,-0.08288335055112839,0.7251726388931274,-0.2612305283546448,0.8355633616447449,-0.02922137640416622,-0.07230590283870697,0.016496878117322922,0.6454291343688965,-0.07630117237567902,1.2084205150604248,0.02481462061405182,0.01670708693563938,0.0033345723059028387,-0.00946731586009264,0.002474146895110607,0.15041834115982056,-0.016298890113830566,0.03692124783992767,0.12692022323608398,-0.020228324458003044,0.03504396975040436,-0.5463871359825134,0.020596077665686607,0.04850271716713905,0.1330631971359253,-0.022692542523145676,-0.09334800392389297,-0.18193431198596954,-0.029332177713513374,-0.038420651108026505,-0.05936022475361824,-0.04680151864886284,-0.06256897747516632,0.4778200089931488,-0.011937646195292473,-0.04111094772815704,-0.03908628597855568,0.0006467541097663343,-0.04182492569088936,-0.4622878432273865,-0.06958075612783432,-0.12112302333116531,-0.14328275620937347,-0.11087198555469513,-0.14799723029136658,0.28635331988334656,0.019181083887815475,0.0038651113864034414,-0.020288335159420967,0.03767314553260803,-0.03227924183011055,0.014273537322878838,-0.019811058416962624,0.03731464594602585,0.07937142997980118,0.09067559987306595,-0.032263826578855515,-0.4823142886161804,0.03176698088645935,0.07208701223134995,0.05700806900858879,0.14683549106121063,-0.001992293167859316,-0.3362700939178467,-0.3004802167415619,-1.0230426788330078,0.4263856112957001,-0.14392003417015076,0.32652729749679565,-0.6238133311271667,-0.025654464960098267,0.07541786879301071,0.10306427627801895,0.7489365339279175,0.4250158369541168,0.445276141166687,0.026279766112565994,-0.6714314818382263,0.333915114402771,0.812400221824646,-0.10189639031887054,0.4582368731498718,-0.09921805560588837,0.018071066588163376,-0.09964912384748459,0.02948812022805214,0.051235076040029526,0.08604682236909866,-0.027379699051380157,0.011764632537961006,0.04497651383280754,-0.07071740925312042,-0.004376685246825218,-0.06046631187200546,-0.07693587243556976,-0.023237159475684166,-0.3053627610206604,-0.0892164334654808,0.04273497313261032,0.008911709301173687,-0.026257850229740143,-0.03301958367228508,-0.04320637509226799,-0.04209841042757034,-0.056142695248126984,-0.6808693408966064,-0.00476487074047327,-0.0011717332527041435,0.05099984630942345,0.043098319321870804,0.021317103877663612,-0.13145628571510315,-0.05541438236832619,-0.06368216872215271,-0.034339167177677155,-0.04023592546582222,-0.0823233425617218,-0.5332457423210144,-0.012486298568546772,-0.003390700789168477,-0.009434930048882961,0.0059370058588683605,-0.04595217853784561,0.04344289004802704,0.015499338507652283,-0.017290091142058372,-0.009007654152810574,-0.06290757656097412,0.03480786085128784,-0.46095937490463257,-0.00756542943418026,-0.020499810576438904,-0.027536408975720406,-0.0482301190495491,-0.05106675997376442,0.6453810930252075,-0.004953849595040083,-0.7809668779373169,-0.2228173464536667,0.006818694993853569,0.22051358222961426,-0.09575111418962479,-0.26827365159988403,1.567736029624939,0.06092875450849533,0.14802201092243195,-0.2693566083908081,0.5500165224075317,0.20451048016548157,-0.1615505814552307,-0.7367140650749207,0.33442553877830505,-0.17622649669647217,0.6003703474998474,-0.12235799431800842,0.09407132863998413,0.06187557056546211,0.06715840101242065,0.3524986505508423,0.035381019115448,-0.25052204728126526,0.11917867511510849,0.09581722319126129,-0.18162861466407776,-0.10859255492687225,-0.8961098194122314,-0.09434756636619568,-0.1565292626619339,-0.1269630342721939,0.21334752440452576,0.4466296136379242,0.421699196100235,0.006103542633354664,-0.03526511415839195,-0.1446315348148346,-4.521592200035229e-05,-0.3413578271865845,0.3395455777645111,-0.04275531321763992,0.21286167204380035,-0.13613450527191162,-0.002857720945030451,-0.18363526463508606,0.6611993908882141,-0.0784570574760437,0.052689652889966965,0.02799452655017376,0.2383006364107132,0.42842936515808105,0.4530543386936188,0.09539025276899338,0.11631790548563004,-0.013612176291644573,0.28027501702308655,0.1680375039577484,-0.48534536361694336,0.20030279457569122,-0.05507421866059303,-0.11950351297855377,0.2110602706670761,-0.0742277055978775,-0.7812868356704712,0.19752724468708038,0.07967960089445114,0.13257141411304474,0.14306415617465973,0.07706248760223389,0.3411850333213806,-0.19084584712982178,-0.3362013101577759,0.07007552683353424,-1.0735094547271729,0.43689361214637756,-0.6682253479957581,-0.14743547141551971,-0.1602681428194046,0.30711403489112854,0.4715820252895355,-0.30652880668640137,0.15366096794605255,-0.09919373691082001,-0.4685584306716919,-0.18616949021816254,0.48930516839027405,-0.645652174949646,0.42807507514953613,-0.08303757011890411,-0.04824095964431763,0.061339426785707474,-0.12341603636741638,0.24373546242713928,0.2956834137439728,-0.20081213116645813,-0.11092530936002731,-0.2475244253873825,-0.11964640766382217,0.0797879546880722,-0.47547420859336853,0.17864759266376495,0.18707981705665588,0.1411924511194229,0.054093584418296814,-0.024919042363762856,0.18521422147750854,0.15166792273521423,0.12238381803035736,0.17744648456573486,0.03281079977750778,-0.09772272408008575,-0.3681500554084778,-0.10431049764156342,-0.056697044521570206,-0.054431091994047165,-0.010825444012880325,-0.008884155191481113,0.5064452290534973,0.21024633944034576,0.2552684545516968,0.08878571540117264,0.07578223943710327,0.012459725141525269,0.487214595079422,-0.10840119421482086,0.02735184133052826,-0.10188477486371994,-0.10331642627716064,-0.20291244983673096,0.24474264681339264,0.23088783025741577,0.07223118841648102,0.144590824842453,0.11322350800037384,0.08173969388008118,-0.0679117739200592,-0.06680794060230255,0.13559919595718384,0.25241947174072266,0.07006864249706268,-0.05717891827225685,0.5259594321250916,-0.3684469759464264,0.3853919804096222,-0.6090853810310364,-0.6748237609863281,0.9550573229789734,-0.2128852754831314,-0.12206123769283295,0.4710215628147125,-0.6364309787750244,0.4641420841217041,-0.547153115272522,0.08847090601921082,0.09878113865852356,-0.46868768334388733,-0.04913681000471115,0.20575620234012604,-1.000147819519043,0.47712162137031555,0.06951867789030075,0.08392215520143509,0.053499169647693634,0.12123143672943115,-0.0737558901309967,-0.29564303159713745,-0.015028245747089386,0.00013567555288318545,0.2017219513654709,0.04480043426156044,0.35144829750061035,0.18809618055820465,0.2858664393424988,0.30615267157554626,0.45062825083732605,0.16738183796405792,0.008598231710493565,0.35259389877319336,0.07638835906982422,-0.03712467849254608,-0.165056511759758,-0.25866809487342834,0.07353273034095764,0.22110827267169952,0.05702843517065048,0.25062096118927,0.32363465428352356,0.3229982852935791,0.027064897119998932,-0.519399106502533,0.09693334251642227,0.07902117073535919,0.22177208960056305,0.05530468747019768,0.0015710769221186638,0.20059216022491455,-0.10159367322921753,-0.05236198380589485,-0.15946608781814575,-0.01817675121128559,0.09311626106500626,0.2225281298160553,0.08432099223136902,-0.006167114712297916,-0.10099968314170837,-0.08394216001033783,-0.07576872408390045,-0.026736551895737648,-0.07532260566949844,0.06559448689222336,0.10572531819343567,0.010526392608880997,-0.09014967083930969,0.8850910663604736,0.03357500955462456,-0.5230944752693176,-0.0577763207256794,0.6174450516700745,-0.1853325515985489,-1.517419695854187,0.1506587713956833,-0.11648358404636383,0.19605128467082977,-0.48687291145324707,-0.15939857065677643,0.5207982063293457,-0.353791207075119,-0.3779842257499695,-0.23759779334068298,0.2528732717037201,-0.5272296071052551,0.3455894887447357,-0.1062469482421875,-0.07878350466489792,-0.009783605113625526,0.12446550279855728,0.2601657509803772,-0.13543017208576202,0.15558692812919617,0.10696567595005035,0.014102492481470108,-0.09207701683044434,-0.1267324984073639,-0.3571193814277649,-0.19769299030303955,-0.13271135091781616,0.022781455889344215,0.10131543129682541,0.002628989750519395,0.5206409692764282,-0.10454761981964111,-0.10075441747903824,-0.0041135018691420555,0.10558097809553146,0.2240774780511856,-0.06310874968767166,0.12887729704380035,0.08084636926651001,-0.0281110517680645,-0.0696323961019516,-0.14131572842597961,-0.3752378821372986,-0.2022167593240738,-0.14639724791049957,0.00956046860665083,0.18807461857795715,0.3217380940914154,-0.13919973373413086,0.06638306379318237,0.07306591421365738,0.09097923338413239,-0.11241546273231506,-0.27017873525619507,0.25085002183914185,-0.09196335077285767,-0.09118164330720901,-0.09571627527475357,-0.06881171464920044,-0.04763982072472572,0.2851945757865906,0.15070068836212158,0.20366576313972473,0.29997527599334717,0.3846544921398163,0.4256739318370819,0.25091442465782166,0.12461087852716446,0.12677352130413055,0.0022273908834904432,-0.5119553208351135,-0.08929063379764557,-1.1501295566558838,0.15152093768119812,-0.3680121600627899,0.3525744378566742,-0.2411103993654251,-0.5744701623916626,0.7641258835792542,-0.41518011689186096,-0.06486894935369492,0.13296784460544586,0.6934042572975159,-0.06457329541444778,0.5548815727233887,-0.007837985642254353,-0.058572180569171906,-0.025878628715872765,-0.005932453088462353,-0.05181889608502388,0.12185878306627274,0.0038052101153880358,0.05557244271039963,0.03365389630198479,0.004930255468934774,0.09541146457195282,-0.41506022214889526,-0.005241130478680134,-0.0854087844491005,-0.028304757550358772,-0.048753153532743454,-0.1266954094171524,0.4953916668891907,-0.02841513231396675,-0.08844949305057526,-0.06829850375652313,0.09177549183368683,0.1965838372707367,-0.14488370716571808,0.02662382461130619,0.08400794863700867,0.06357776373624802,-0.11096227169036865,-0.19239278137683868,0.23750144243240356,-0.027068866416811943,-0.14223547279834747,-0.020714879035949707,0.2901995778083801,0.09803954511880875,0.03935275971889496,0.024466197937726974,-0.021608145907521248,-0.027624009177088737,-0.018356861546635628,0.008336236700415611,-0.04089741408824921,-0.030497044324874878,0.032894317060709,0.02592109516263008,0.006274859886616468,-0.003406980074942112,0.22671984136104584,0.058978285640478134,-0.0702153816819191,-0.05182868242263794,0.07654282450675964,-0.009131447412073612,0.4198625683784485,0.11648088693618774,0.1802176684141159,-0.32978636026382446,-1.3711313009262085,-0.351531982421875,-0.3174118995666504,-0.26199010014533997,0.2602902948856354,0.14635276794433594,-0.6428700685501099,-0.1294470578432083,-0.5311344265937805,-0.35786670446395874,-0.1732291728258133,-0.19402912259101868,0.524401068687439,-0.29846900701522827,0.5182411074638367,0.03742088004946709,0.04084081947803497,-0.02709263004362583,0.017220377922058105,-0.023974409326910973,-0.055325716733932495,-0.06273593753576279,-0.05385677516460419,-0.03069928288459778,-0.02467290125787258,0.013734295032918453,0.11895209550857544,0.20313887298107147,0.13406267762184143,0.12348035722970963,0.24833127856254578,0.051233258098363876,-0.41477540135383606,0.004025223199278116,-0.0008378687198273838,0.011570301838219166,0.045588333159685135,0.10189429670572281,-0.007041471544653177,-0.012522352859377861,-0.010076744481921196,-0.04351664334535599,-0.08802682161331177,-0.2407618761062622,0.02597777172923088,0.038053739815950394,0.04319968447089195,0.12320117652416229,0.24519236385822296,0.5393162369728088,-0.07121781259775162,-0.008358865045011044,-0.0026533743366599083,0.004765330348163843,0.08918403834104538,0.2161785513162613,0.14919503033161163,0.01449521817266941,0.0002566638868302107,-0.01155745517462492,-0.13290904462337494,-0.2617742121219635,-0.27710554003715515,-0.0010457821190357208,0.04497719183564186,0.08894693851470947,0.32195204496383667,0.3926152288913727,0.7234645485877991,-0.47246459126472473,-0.17786745727062225,0.20300546288490295,-0.3345964252948761,-0.24073903262615204,-0.2056305706501007,0.30405619740486145,-0.44693735241889954,-0.48105281591415405,-0.10068897157907486,0.28989341855049133,0.15645991265773773,-0.054067812860012054,0.3773826062679291,0.09702900052070618,0.6622314453125,-0.21924619376659393,1.0237269401550293,-0.001146419788710773,-0.00025645995629020035,-0.003114522434771061,-0.004585178103297949,0.0003338911337777972,-0.18335823714733124,0.0032871048897504807,0.0010905854869633913,0.005367323290556669,0.009079682640731335,-0.0022786157205700874,0.7535290718078613,-0.013423955999314785,-0.007789298892021179,-0.0070795053616166115,-0.021402748301625252,0.005255463067442179,-1.3922051191329956,0.00933066662400961,0.012746543623507023,0.01528505701571703,0.018097054213285446,0.048761337995529175,-0.07135480642318726,-0.016100000590085983,-0.018541013821959496,-0.023999499157071114,-0.04461091011762619,-0.10802485793828964,0.20050685107707977,0.04779806733131409,0.05312298238277435,0.0689721629023552,0.12409480661153793,0.3000190854072571,-0.3655751049518585,-0.0025980875361710787,-0.0008484470308758318,0.004125984851270914,-0.009513611905276775,0.05218452960252762,-0.07828091830015182,0.005263596773147583,-0.0006310613825917244,-0.008357090875506401,0.010172749869525433,-0.11048916727304459,0.33950141072273254,-0.02127154916524887,-0.0002451816981192678,0.024551862850785255,-0.020916203036904335,0.27884116768836975,0.0672847330570221,-2.9491446018218994,0.33464714884757996,-0.38354653120040894,0.44472554326057434,0.6382455229759216,0.24093735218048096,-1.7139954566955566,0.18487262725830078,-0.44639554619789124,-0.9462046027183533,0.18387018144130707,0.19425976276397705,0.48705050349235535,0.43031251430511475,-0.043741945177316666,-0.06492028385400772,-0.6404526829719543,0.8081463575363159,-0.09748505055904388,-0.05534130707383156,0.052017953246831894,-0.06493624299764633,-0.017656903713941574,0.026278087869286537,0.056835439056158066,0.07533306628465652,-0.08611419051885605,0.17091014981269836,-0.14207372069358826,-0.08327014744281769,-0.16768166422843933,-0.19777783751487732,0.7178875803947449,0.07972532510757446,-0.015879467129707336,-0.0781179815530777,0.09020295739173889,-0.11515919119119644,0.036424316465854645,0.08475486189126968,-0.062294330447912216,-0.09706127643585205,-0.2629627585411072,-0.2470046877861023,-0.24886563420295715,-0.3848031759262085,-0.11808249354362488,0.4699532985687256,0.1555226594209671,-0.12918776273727417,-0.0172666497528553,-0.048952218145132065,-0.10786185413599014,0.014144049026072025,-0.03855428472161293,0.023171348497271538,0.06659811735153198,0.19118471443653107,0.2834107577800751,0.2306605726480484,0.13940851390361786,0.11896025389432907,-0.05888058990240097,-0.13635489344596863,-0.2729523181915283,-0.16700933873653412,-0.006430653389543295,0.26417818665504456,-0.13321222364902496,0.19706042110919952,0.3286443054676056,-0.016774557530879974,0.03701229393482208,0.09679348766803741,0.10503138601779938,0.069808229804039,0.09997345507144928,-0.46516576409339905,0.03454909473657608,0.08152817189693451,0.21640191972255707,0.16080321371555328,0.016187554225325584,-0.11682657897472382,0.0924135223031044,0.18938110768795013,0.07939690351486206,-0.06560862809419632,-0.03540500998497009,-0.16857920587062836,-0.138956680893898,0.03356507048010826,0.18861207365989685,-0.04317273572087288,-0.018904954195022583,-0.12363922595977783,-0.11473830789327621,0.015744494274258614,-0.07729356735944748,-0.1289408653974533,-0.0065086460672318935,-0.0612671859562397,0.049495480954647064,0.05221020430326462,0.14822635054588318,-0.03398624062538147,0.1036614403128624,0.25482189655303955,-0.13732825219631195,-0.041914548724889755,-0.11841191351413727,-0.06854803115129471,-0.06005335599184036,0.04987948760390282,-0.07243363559246063,-0.1351279616355896,-0.10770201683044434,-0.13932868838310242,-0.09661313146352768,0.03330959007143974,0.1551269292831421,0.1368110626935959,-0.11731847375631332,0.14854691922664642,-0.010838317684829235,-0.01532220933586359,0.02101202867925167,-0.009977717883884907,0.0695820227265358,0.16707056760787964,0.07000395655632019,0.13068035244941711,0.2639355957508087,0.27499788999557495,0.44352251291275024,0.5221574902534485,0.40125295519828796,0.12894761562347412,0.2846432030200958,0.05180228874087334,0.09658750146627426,0.0446193590760231,-0.029741225764155388,0.09918524324893951,0.01730503886938095,-0.05830417945981026,-0.12249772250652313,-0.13626287877559662,-0.025383662432432175,-0.06461627781391144,-0.02253352850675583,0.08283534646034241,0.2705385386943817,0.48841536045074463,0.5920792818069458,0.11232516169548035,-0.22152076661586761,0.23786073923110962,0.7300025224685669,-0.4467059373855591,0.5956916213035583,0.38407325744628906,-0.6700529456138611,-0.2064289003610611,0.8474235534667969,-0.12559998035430908,-0.1857369989156723,0.058929719030857086,0.36991867423057556,-0.7008640766143799,0.8876920342445374,0.009486121125519276,0.008525065146386623,-0.0034136190079152584,0.022550413385033607,0.005244121886789799,-0.004633541684597731,-0.017847171053290367,-0.005561777390539646,-0.051657237112522125,-0.04331272840499878,-0.06386832147836685,-0.0644865334033966,-0.046528659760951996,-0.08252736181020737,0.29226693511009216,-0.0027180095203220844,0.0006115942960605025,0.0024152800906449556,-0.002662105718627572,0.004876728169620037,0.019141625612974167,0.043467361479997635,0.021483343094587326,0.05968766286969185,0.044400978833436966,0.03858397528529167,0.09144067764282227,0.02572699822485447,0.09337875247001648,-0.3944726586341858,0.0020977817475795746,0.017251651734113693,0.05301922187209129,0.03769993782043457,0.06645646691322327,0.010353939607739449,-0.1135607436299324,-0.05807806923985481,-0.1238267570734024,-0.03786134347319603,-0.028908833861351013,-0.19574564695358276,0.2861470878124237,0.41138553619384766,-0.5126743316650391,-0.02282300405204296,0.047790780663490295,0.01402867492288351,0.026926981285214424,0.03466378524899483,-0.028859926387667656,-0.008289645425975323,0.02357472851872444,-0.06170577183365822,-0.05731372907757759,0.04657470062375069,0.05768316984176636,-0.010582800023257732,-0.015176667831838131,0.08485468477010727,-0.015953876078128815,-0.05787527188658714,-0.03441006317734718,-0.03585691750049591,-0.02614363469183445,0.003787569934502244,-0.03160275146365166,-0.019987568259239197,0.0005499356193467975,-0.04295804724097252,-0.11804414540529251,-0.01451320294290781,0.06976550817489624,0.07404428720474243,-0.16129867732524872,0.04692364111542702,0.04674134403467178,0.03429889678955078,0.026664722710847855,-0.04780583828687668,-0.01677568443119526,-0.08140842616558075,-0.1138003021478653,-0.05120513215661049,0.057568568736314774,-0.011826114729046822,-0.43250396847724915,-0.39972391724586487,0.3257063627243042,0.6683245897293091,0.00929640606045723,-0.01627742499113083,0.044770870357751846,0.04250745475292206,0.016390042379498482,0.06514836102724075,0.03605404123663902,0.021381553262472153,0.007871543988585472,-0.04680463299155235,-0.13058046996593475,-0.25051766633987427,-0.4187241196632385,-0.4051360785961151,0.48353540897369385,-0.03217795491218567,-0.011825617402791977,-0.05798926204442978,-0.05909590423107147,-0.04692191258072853,-0.05935617908835411,-0.023884262889623642,-0.05410633236169815,-0.03940995782613754,-0.014023377560079098,0.015045936219394207,0.04291341081261635,0.08205173909664154,0.12604938447475433,1.1788026094436646,0.13898144662380219,0.06510577350854874,0.16365279257297516,0.15470224618911743,0.1732407659292221,0.08170481771230698,0.0497661717236042,0.2076348513364792,0.14616191387176514,0.11884341388940811,0.1809840351343155,0.1791120320558548,0.11639080941677094,-0.21012723445892334,-0.2937425374984741,1.1253937482833862,-0.30245763063430786,-0.3645293116569519,0.2418033927679062,0.016363415867090225,-0.26866409182548523,-0.4431250989437103,0.17917649447917938,-0.36292630434036255,0.2400962859392166,-0.23903518915176392,0.3357490003108978,0.2705841064453125,-0.14106696844100952,-1.8364462852478027,1.0246957540512085,-2.362393379211426,1.7475223541259766,-0.08586690574884415,0.06317717581987381,0.17750893533229828,0.2952687740325928,-0.004546129144728184,-0.07241315394639969,0.0796712338924408,-0.004201963078230619,0.05650155991315842,-0.7723574638366699,-0.47808247804641724,0.050211045891046524,0.016962267458438873,-0.23171141743659973,0.8942341208457947,1.9402333498001099,1.0252615213394165,-0.23827268183231354,0.18374857306480408,-0.011188949458301067,-0.7744023203849792,-0.11518895626068115,0.15839628875255585,0.2675487995147705,0.13621270656585693,0.04883796349167824,-0.007380330935120583,-0.25397059321403503,0.2820819616317749,0.600680410861969,0.06934348493814468,0.2686823606491089,-0.5262566804885864,0.31463533639907837,-0.01088397204875946,-0.2754926085472107,-0.12457918375730515,-0.20194454491138458,0.1048540398478508,0.03749452158808708,-0.3920254707336426,0.30431193113327026,0.23214086890220642,-0.11355030536651611,0.12437155097723007,0.2322235107421875,-0.15308994054794312,0.09563522040843964,-0.09583931416273117,0.4203016459941864,0.17732885479927063,-0.3384895622730255,-0.0010195195209234953,0.11143452674150467,1.9353208541870117,-0.5025530457496643,-0.46039244532585144,0.2377888560295105,0.29423844814300537,0.010604092851281166,0.5458633303642273,0.30265751481056213,-0.5089436173439026,0.09448438882827759,-0.6859705448150635,-0.7583672404289246,1.7447298765182495,1.078810453414917,0.0713798925280571,0.3988891839981079,-0.5556482076644897,0.8075457215309143,-0.05539523437619209,0.012133415788412094,0.005588289815932512,-0.1462080180644989,0.08014698326587677,0.08166254311800003,-0.07250524312257767,0.07449481636285782,0.014485628344118595,-0.04171815887093544,0.24226537346839905,-0.10144298523664474,0.010587216354906559,-0.026682112365961075,-0.0181967131793499,-0.0001719872234389186,-0.058598440140485764,-0.06284017860889435,-0.02764122560620308,0.06725966930389404,-0.0139236431568861,-0.06041834130883217,-0.014813059009611607,-0.3141033351421356,-0.0012816304806619883,0.034040387719869614,0.050185732543468475,0.012952076271176338,0.4342026710510254,0.41134461760520935,0.021810805425047874,-0.021337144076824188,0.007712002377957106,0.012310296297073364,-0.06535772234201431,-0.5020487308502197,-0.02825820818543434,0.01779218763113022,-0.04451752454042435,0.05968058481812477,0.20249821245670319,0.05241500958800316,-0.05066043138504028,-0.027542682364583015,-0.07942580431699753,-0.07430312782526016,-0.2987361550331116,-0.5738953351974487,0.006040592212229967,-0.034387316554784775,0.005825517699122429,-0.023499442264437675,0.029878946021199226,-0.3489260971546173,2.8025004863739014,-1.3014247417449951,1.2135999202728271,0.4527106285095215,-0.1735210418701172,-0.31805962324142456,-0.20028433203697205,0.4685099720954895,-0.01242236141115427,-0.9634644389152527,-0.14546942710876465,0.285326212644577,-0.9231491684913635,1.3051693439483643,0.9441264867782593,-0.4527151584625244,0.15549537539482117,0.9499039053916931,-0.05037222057580948,0.05000194162130356,-0.018123585730791092,0.08700016140937805,-0.014292019419372082,-0.010861271061003208,0.051777370274066925,-0.047355759888887405,-0.04568665474653244,-0.08564279228448868,-0.011418987065553665,0.08628042787313461,0.07336325198411942,0.06606490164995193,0.08110283315181732,0.09577000141143799,0.296205073595047,0.05450700595974922,-0.04513894394040108,0.022698568180203438,0.020533019676804543,0.0034235562197864056,-0.008995570242404938,-0.21827362477779388,0.04847068712115288,-0.05338151007890701,0.01551142893731594,-0.047623101621866226,0.038220588117837906,0.8988149762153625,0.05755568668246269,0.08486176282167435,0.07300316542387009,0.054933931678533554,-0.014065775088965893,0.5785967111587524,0.036010514944791794,-0.01877213455736637,-0.020795125514268875,-0.01756557635962963,0.022835971787571907,0.16026762127876282,-0.06153050437569618,0.02799178659915924,-0.014700779691338539,0.040828052908182144,-0.07908473908901215,-0.6466783881187439,-0.0684959813952446,-0.0740896612405777,-0.08019104599952698,-0.03252547234296799,-0.0224129818379879,-0.4537687599658966,-0.00702773779630661,-0.04586397483944893,1.5009865760803223,0.149592325091362,0.09739762544631958,0.24051900207996368,0.4840099811553955,0.7812576293945312,-0.27945712208747864,-0.2925153970718384,-0.6229374408721924,1.2477318048477173,-0.28679782152175903,-0.021911589428782463,-0.2588135898113251,0.11354928463697433,0.5293681025505066,1.320225715637207,-0.007160343695431948,-0.07593841105699539,-0.07964172959327698,-0.14695949852466583,-0.18737858533859253,0.3597593307495117,-0.14065036177635193,-0.044072311371564865,-0.11923427879810333,-0.27494746446609497,-0.36125466227531433,0.7327563166618347,-0.03131774067878723,0.033492930233478546,0.0019886470399796963,0.00549505976960063,-0.02262681908905506,0.15310271084308624,0.034275226294994354,0.03230685740709305,0.06702245026826859,0.09378271549940109,0.14576487243175507,-0.6975486874580383,-0.07791362702846527,-0.06719287484884262,-0.14887087047100067,-0.22997412085533142,-0.41638463735580444,-0.1826924979686737,-0.038337934762239456,-0.04356757923960686,-0.07930824905633926,-0.10936900973320007,-0.1996803879737854,-0.4960637092590332,-0.02472648210823536,-0.028356822207570076,-0.043519679456949234,-0.07406924664974213,-0.10255569964647293,0.5801813006401062,0.05629473552107811,0.07646619528532028,0.11011646687984467,0.22992703318595886,0.30954495072364807,0.18126289546489716,0.025527870282530785,0.04453517496585846,0.04738232120871544,0.09999219328165054,0.1434398889541626,0.4205050468444824,1.0853608846664429,-0.6736521124839783,0.7635983228683472,0.12576836347579956,-0.11198274791240692,0.11635449528694153,-0.2864745855331421,1.3726598024368286,-1.4496660232543945,-0.8401318788528442,0.29394814372062683,-0.0025218604132533073,0.1544683575630188,-0.22106719017028809,0.2265825718641281,-0.00842881016433239,-0.06158614903688431,0.7217361927032471,0.23456601798534393,0.17491643130779266,0.25692471861839294,0.24893762171268463,0.2391415536403656,-0.26291707158088684,-0.0034311164636164904,-0.0686037614941597,-0.10941343754529953,-0.1578560769557953,-0.11733215302228928,-0.17887498438358307,0.10867342352867126,0.05165867879986763,0.0667777955532074,0.05242421478033066,0.02894466370344162,-0.8762876391410828,0.001176888938061893,-0.00689138937741518,0.0012764685088768601,-0.040104031562805176,0.008040460757911205,-0.08230603486299515,-0.007886822335422039,-0.015588173642754555,-0.004783187992870808,0.007545276079326868,-0.0013533069286495447,-0.1789274364709854,-0.0007720477879047394,-0.008832791820168495,-0.004260363522917032,-0.013513412326574326,0.020760780200362206,0.7587529420852661,0.2083214819431305,0.3804219961166382,0.5935853123664856,0.6816160678863525,0.5690417289733887,-0.42548292875289917,-0.055801838636398315,-0.1061091348528862,-0.147134467959404,-0.20204079151153564,-0.13641595840454102,0.25000622868537903,0.06911309063434601,0.12910301983356476,0.19694183766841888,0.22952908277511597,0.192891925573349,0.6856184005737305,-0.18462888896465302,1.1346020698547363,-0.12469810247421265,0.08406241238117218,0.08199287950992584,-0.20236939191818237,0.36708420515060425,0.30406880378723145,0.677738606929779,0.2967756390571594,0.09761550277471542,-0.5215909481048584,0.5604502558708191,0.6980085372924805,-0.5393589735031128,-0.20193716883659363,-0.2597801387310028,-0.17192700505256653,-0.19081537425518036,-0.1372586339712143,-0.167782261967659,-0.1178567036986351,-0.2093750238418579,-0.21947230398654938,0.13193345069885254,0.026292966678738594,0.097475066781044,-0.006209386512637138,0.15789513289928436,0.15361163020133972,-0.03730078041553497,0.034734372049570084,-0.05240648239850998,-0.0002452125190757215,-0.09258248656988144,-0.004991636611521244,0.04800400882959366,0.24629008769989014,0.10651173442602158,0.07649709284305573,-0.2557246685028076,0.08743952214717865,-0.027065861970186234,-0.058300554752349854,-0.09795302152633667,-0.0492791123688221,0.023313965648412704,-0.30775290727615356,-0.02689169906079769,-0.10090227425098419,-0.12179847806692123,-0.049390602856874466,0.057729024440050125,0.9696944952011108,-0.03554803878068924,-0.12416927516460419,-0.15340560674667358,0.10952187329530716,0.4310280382633209,0.17138591408729553,0.01539552491158247,0.12133201211690903,0.01899576745927334,-0.005753754638135433,-0.218563511967659,-0.37388211488723755,0.03542317450046539,0.14603877067565918,0.050936538726091385,0.008170196786522865,-0.2795949876308441,0.1812044233083725,0.001225374755449593,0.032231613993644714,0.3258850574493408,0.0009407701436430216,0.08560652285814285,-0.10856013745069504,0.037336692214012146,-0.509596049785614,0.1168777123093605,-0.16742992401123047,0.5476033687591553,-0.5405341982841492,-0.1454586386680603,0.2999192178249359,-0.42849889397621155,-0.22153833508491516,-0.06949785351753235,-0.04833342134952545,0.11240904778242111,0.13826943933963776,0.12940332293510437,0.20225204527378082,0.18768152594566345,-0.004273817874491215,0.03888276219367981,0.036975350230932236,0.03373229503631592,0.05026526004076004,0.0710541158914566,0.5152698755264282,0.07892363518476486,0.09291461110115051,0.08059542626142502,0.12940698862075806,0.14406393468379974,-0.8518579006195068,0.029131334275007248,0.021167483180761337,-0.022127287462353706,0.026113856583833694,0.31020158529281616,0.1293196976184845,0.004786363802850246,-0.011006321758031845,-0.017899949103593826,0.06897222250699997,-0.06877449154853821,-0.1918504685163498,0.020793838426470757,0.012852060608565807,-0.004620264284312725,0.06597187370061874,0.0820600613951683,0.694210946559906,0.0602005235850811,0.09573599696159363,0.13221938908100128,0.12424806505441666,-0.07036591321229935,0.07887721806764603,0.0015096815768629313,-0.013981745578348637,-0.026687048375606537,-0.014816530048847198,0.28376322984695435,-0.2782643437385559,0.03535475581884384,0.05310267582535744,0.08848359435796738,0.05367167666554451,0.1346619576215744,0.016035230830311775,-0.21461156010627747,-0.10736006498336792,0.31810230016708374,0.10710421949625015,0.057374730706214905,-0.09455811232328415,-5.8574584094439505e-39,-1.3515405979341857e-38,8.879046058202874e-39,1.2564591340134325e-38,1.0101550048867559e-38,6.578879088743046e-39,-1.6316310139446587e-38,1.227004540942557e-38,5.384408073857179e-39,1.560038114882918e-38,1.752900223826407e-38,1.70857294950442e-38,0.009104817174375057,0.005426768679171801,-0.005296844523400068,0.007523358799517155,-0.0005260806647129357,0.002792650368064642,0.019256126135587692,-0.007093928288668394,0.02906636893749237,0.0035313924308866262,-0.1218441054224968,-0.011614919640123844,0.03666089102625847,-0.024512283504009247,0.023768937215209007,-0.00807941798120737,0.00222026277333498,0.003213432151824236,-0.008515325374901295,0.003077880945056677,-0.0024033549707382917,-0.007325662299990654,0.005770576652139425,-0.00527733750641346,-0.02286894991993904,0.002819090150296688,0.10081448405981064,0.07477489858865738,0.0025956942699849606,0.009746475145220757,-0.01048817578703165,0.005805443041026592,-0.005263195373117924,-0.013314076699316502,0.010870908387005329,0.014119504950940609,-0.004556871950626373,0.0033228048123419285,-0.01842714287340641,-0.001660488429479301,0.004103547893464565,-0.04064488038420677,-0.003021870506927371,-0.015546005219221115,-0.038041017949581146,0.0038218675181269646,-0.001769889728166163,0.0017317724414169788,-0.08557897806167603,0.009471787139773369],"sample_rate":48000.0}},{"max_value":1.0,"model":{"version":"0.7.0","metadata":{"date":{"year":2026,"month":5,"day":7,"hour":15,"minute":15,"second":36},"loudness":-18.411157608032227,"gain":0.8182327723002798},"architecture":"WaveNet","config":{"layers":[{"input_size":1,"condition_size":1,"head":{"out_channels":1,"kernel_size":16,"bias":true},"channels":8,"kernel_sizes":[6,6,6,6,6,6,6,6,6,6,6,6,6,6,15,15,6,6,6,6,6,6,6],"dilations":[1,3,7,17,41,101,239,1,3,7,17,41,101,239,1,13,1,3,7,17,41,101,239],"activation":[{"type":"LeakyReLU","negative_slope":0.01},{"type":"LeakyReLU","negative_slope":0.01},{"type":"LeakyReLU","negative_slope":0.01},{"type":"LeakyReLU","negative_slope":0.01},{"type":"LeakyReLU","negative_slope":0.01},{"type":"LeakyReLU","negative_slope":0.01},{"type":"LeakyReLU","negative_slope":0.01},{"type":"LeakyReLU","negative_slope":0.01},{"type":"LeakyReLU","negative_slope":0.01},{"type":"LeakyReLU","negative_slope":0.01},{"type":"LeakyReLU","negative_slope":0.01},{"type":"LeakyReLU","negative_slope":0.01},{"type":"LeakyReLU","negative_slope":0.01},{"type":"LeakyReLU","negative_slope":0.01},{"type":"LeakyReLU","negative_slope":0.01},{"type":"LeakyReLU","negative_slope":0.01},{"type":"LeakyReLU","negative_slope":0.01},{"type":"LeakyReLU","negative_slope":0.01},{"type":"LeakyReLU","negative_slope":0.01},{"type":"LeakyReLU","negative_slope":0.01},{"type":"LeakyReLU","negative_slope":0.01},{"type":"LeakyReLU","negative_slope":0.01},{"type":"LeakyReLU","negative_slope":0.01}],"bottleneck":8,"head1x1":{"active":false,"out_channels":1,"groups":1},"layer1x1":{"active":true,"groups":1},"groups_input":1,"groups_input_mixin":1,"conv_pre_film":{"active":false,"shift":true,"groups":1},"conv_post_film":{"active":false,"shift":true,"groups":1},"input_mixin_pre_film":{"active":false,"shift":true,"groups":1},"input_mixin_post_film":{"active":false,"shift":true,"groups":1},"activation_pre_film":{"active":false,"shift":true,"groups":1},"activation_post_film":{"active":false,"shift":true,"groups":1},"layer1x1_post_film":{"active":false,"shift":true,"groups":1},"head1x1_post_film":{"active":false,"shift":true,"groups":1},"gating_mode":["none","none","none","none","none","none","none","none","none","none","none","none","none","none","none","none","none","none","none","none","none","none","none"],"secondary_activation":[null,null,null,null,null,null,null,null,null,null,null,null,null,null,null,null,null,null,null,null,null,null,null],"slimmable":null}],"head":null,"head_scale":0.009471787102773724},"weights":[-3.2110743522644043,-3.1514995098114014,2.744529962539673,-2.974022626876831,2.560041904449463,-2.54811954498291,-2.5479187965393066,3.0837998390197754,0.1170492097735405,0.12521526217460632,0.05178358033299446,0.04509757459163666,-0.0418185219168663,-0.23794496059417725,0.09979952871799469,0.11116252094507217,0.04817759990692139,0.043149400502443314,-0.0427359864115715,-0.2288626879453659,-0.0855313166975975,-0.09506440907716751,-0.036425329744815826,-0.03299949690699577,0.03497214615345001,0.18514646589756012,0.10188914090394974,0.10433067381381989,0.04389750957489014,0.03868504986166954,-0.03931330889463425,-0.21027573943138123,-0.07581827044487,-0.08444834500551224,-0.030898772180080414,-0.028716465458273888,0.03161115571856499,0.16599123179912567,0.07598410546779633,0.08430451899766922,0.0307898111641407,0.028644755482673645,-0.031527306884527206,-0.16555970907211304,0.07915336638689041,0.08647140115499496,0.03146686777472496,0.029030054807662964,-0.031859200447797775,-0.16651958227157593,-0.11460869014263153,-0.10890733450651169,-0.04502309486269951,-0.04309452325105667,0.04019606113433838,0.22252345085144043,-0.3388536870479584,-0.4147544503211975,-0.6782274842262268,-0.909024178981781,-1.0250706672668457,-1.1197835206985474,-0.38828375935554504,-0.38094815611839294,-0.6720635294914246,-0.8175588846206665,-0.9765852689743042,-1.1164357662200928,0.3843861520290375,0.36082327365875244,0.6490355134010315,0.8234295845031738,0.9016837477684021,1.0246764421463013,-0.3788701891899109,-0.35820579528808594,-0.6416125893592834,-0.8573420643806458,-0.9555776119232178,-1.049855351448059,0.28967148065567017,0.32749438285827637,0.5488031506538391,0.7364094853401184,0.8317575454711914,0.9225701093673706,-0.3536786437034607,-0.3496459722518921,-0.583498477935791,-0.7407829165458679,-0.8557606339454651,-0.9134035706520081,-0.28873249888420105,-0.32776764035224915,-0.5630509853363037,-0.7362290620803833,-0.86982661485672,-0.9230409860610962,0.39947450160980225,0.37017732858657837,0.7097567915916443,0.8181562423706055,1.0366817712783813,1.0884660482406616,0.1604863554239273,0.2459811419248581,0.14345835149288177,-0.04381802678108215,-0.066670261323452,-0.4279548227787018,0.05358506739139557,0.16205455362796783,-0.0006471291417255998,-0.06423798948526382,-0.05886790528893471,-0.36362916231155396,-0.15625600516796112,-0.2366645485162735,-0.13453444838523865,0.025973713025450706,0.1294056922197342,0.3273017406463623,0.03482919931411743,0.1333468109369278,0.13587245345115662,-0.10767962783575058,-0.12078754603862762,-0.38768815994262695,-0.025946514680981636,-0.16800419986248016,-0.02204785868525505,0.06509862840175629,0.0903528481721878,0.3393103778362274,0.10507874190807343,0.16265499591827393,0.11403907090425491,-0.022199245169758797,-0.10046913474798203,-0.36448386311531067,0.093699149787426,0.2083417922258377,0.1341192126274109,-0.02790677919983864,-0.12740661203861237,-0.31728795170783997,-0.11822814494371414,-0.26503708958625793,-0.14228005707263947,0.10817580670118332,0.07247085869312286,0.3971273601055145,0.3219451904296875,0.4081088900566101,0.5997077822685242,0.8755117058753967,0.9483188390731812,1.0549899339675903,0.3987150490283966,0.4345371425151825,0.576036274433136,0.8485050797462463,1.0014050006866455,1.0705878734588623,-0.3207063674926758,-0.39741799235343933,-0.5357831120491028,-0.7204931378364563,-0.9082639217376709,-0.9822162389755249,0.35479506850242615,0.44761377573013306,0.5970546007156372,0.7732671499252319,0.9723979830741882,0.9994092583656311,-0.3188025951385498,-0.32291486859321594,-0.49561241269111633,-0.65901780128479,-0.7889642119407654,-0.8634644150733948,0.30462342500686646,0.3348645865917206,0.48673030734062195,0.6683077812194824,0.8229800462722778,0.9112033247947693,0.3024138808250427,0.32846999168395996,0.500922679901123,0.7095247507095337,0.8206304907798767,0.9172079563140869,-0.36897924542427063,-0.43246597051620483,-0.6095424294471741,-0.7979916334152222,-0.9720897674560547,-1.017676830291748,-0.2668207883834839,-0.414312481880188,-0.4936324954032898,-0.6862593293190002,-0.7545839548110962,-0.7585635185241699,-0.2901005446910858,-0.4057137370109558,-0.45207637548446655,-0.6370677351951599,-0.8128398060798645,-0.859988272190094,0.25100523233413696,0.35787758231163025,0.4746945798397064,0.6364980340003967,0.7434537410736084,0.7383407950401306,-0.2611272633075714,-0.3804677426815033,-0.48799920082092285,-0.6318708658218384,-0.7424198985099792,-0.7951759099960327,0.2137196809053421,0.27842140197753906,0.4370962977409363,0.5848254561424255,0.6857225894927979,0.7335914969444275,-0.23825907707214355,-0.31432947516441345,-0.4549914300441742,-0.5831044316291809,-0.6565593481063843,-0.7014946937561035,-0.2712010443210602,-0.26508089900016785,-0.4605191648006439,-0.6434202790260315,-0.6858046650886536,-0.7558488249778748,0.26238831877708435,0.34727734327316284,0.4981888234615326,0.6698554754257202,0.7622526288032532,0.7839619517326355,-0.04628004506230354,-0.034213609993457794,0.07947728037834167,0.00044790704851038754,0.10231605172157288,0.2141869217157364,-0.061125148087739944,-0.028658730909228325,0.06925742328166962,0.0012962566688656807,0.08309068530797958,0.21406704187393188,0.051626287400722504,0.029047891497612,-0.057559896260499954,-0.004207690712064505,-0.07613586634397507,-0.18636378645896912,-0.05010088533163071,-0.021277088671922684,0.06362982094287872,0.018506424501538277,0.09526022523641586,0.1984352022409439,0.03948602080345154,0.03269037976861,-0.050547707825899124,-0.00242785201407969,-0.06745169311761856,-0.16164298355579376,-0.04849078878760338,-0.030235664919018745,0.05120144784450531,0.0008005944546312094,0.061682455241680145,0.1591847687959671,-0.04771805554628372,-0.026554236188530922,0.05549975484609604,0.004116937052458525,0.06525024026632309,0.1645878553390503,0.044503387063741684,0.02192399837076664,-0.05852412432432175,-0.0009722026297822595,-0.09609946608543396,-0.20217539370059967,0.3273492157459259,0.43983060121536255,0.6525989174842834,0.8163707852363586,0.9620152115821838,1.0213382244110107,0.2986025810241699,0.4279535114765167,0.6187247633934021,0.7808735966682434,0.9759475588798523,0.9888685941696167,-0.3206474781036377,-0.36353012919425964,-0.5652609467506409,-0.7118008732795715,-0.8888943791389465,-0.9239583015441895,0.3507857322692871,0.37722453474998474,0.6010319590568542,0.7117757201194763,0.9164669513702393,0.9828724265098572,-0.2652552127838135,-0.3094404637813568,-0.5127418041229248,-0.65493243932724,-0.8044293522834778,-0.8401997685432434,0.31052473187446594,0.32274216413497925,0.533054769039154,0.6463529467582703,0.810117781162262,0.8351715803146362,0.26589033007621765,0.30981332063674927,0.5207575559616089,0.6691759824752808,0.8357316255569458,0.8630474805831909,-0.3717691898345947,-0.35376882553100586,-0.6625175476074219,-0.7983778119087219,-0.9229236841201782,-0.9870619773864746,0.15794119238853455,0.189616397023201,0.0974799320101738,-0.2232028841972351,-0.15190744400024414,-0.308963805437088,0.23449718952178955,0.20939940214157104,0.05504460632801056,-0.19310526549816132,-0.1614709049463272,-0.29554519057273865,-0.1608850508928299,-0.16045157611370087,-0.08062278479337692,0.1288985013961792,0.20734618604183197,0.27818170189857483,0.2438173145055771,0.19230595231056213,0.09663549065589905,-0.2086085081100464,-0.20541968941688538,-0.25726231932640076,-0.19976718723773956,-0.2462153136730194,-0.13117742538452148,0.15466654300689697,0.16606590151786804,0.2308230996131897,0.19841332733631134,0.23276294767856598,0.111724853515625,-0.148427352309227,-0.12717022001743317,-0.2913251519203186,0.12441377341747284,0.21456032991409302,0.12382301688194275,-0.1659853756427765,-0.14280979335308075,-0.23779146373271942,-0.18843494355678558,-0.20953337848186493,-0.06349563598632812,0.19973249733448029,0.20053589344024658,0.2939920127391815,-0.5108102560043335,0.04011719673871994,1.3400133848190308,-0.0352834016084671,-0.366524875164032,0.42623648047447205,0.4408818483352661,1.1235915422439575,0.05667715147137642,0.5813969969749451,0.12238708138465881,-0.5576886534690857,0.47590750455856323,-0.079617939889431,-0.4782267212867737,0.2471136897802353,-0.10582833737134933,-0.5214444398880005,-0.17032237350940704,0.5592628717422485,-0.6826939582824707,0.2262120097875595,0.637464165687561,-0.18132826685905457,0.28559616208076477,-0.7652538418769836,-0.27002260088920593,0.9903886318206787,-0.7347686886787415,0.15697568655014038,0.8048216104507446,-0.30560868978500366,-0.19381849467754364,0.4847928583621979,0.6353336572647095,-0.10137351602315903,0.601076602935791,0.0036493444349616766,-0.3104175329208374,0.5458377599716187,0.21197853982448578,-0.5535087585449219,-0.6856901049613953,0.8590249419212341,-0.7268836498260498,0.49190622568130493,0.7792966365814209,-0.7384315133094788,0.23077493906021118,0.700401246547699,0.00644908519461751,-0.2511710226535797,0.6531786918640137,-0.12565770745277405,-0.04452553018927574,-0.1089164987206459,0.32949936389923096,-0.36711904406547546,-0.7201349139213562,0.132086381316185,-0.01462606992572546,-0.234770730137825,-0.12929664552211761,-0.7171117663383484,0.45397433638572693,0.10681287199258804,-0.8584355711936951,-0.12894536554813385,0.5183422565460205,0.0960640087723732,-0.39199936389923096,-0.548502504825592,0.35226970911026,0.04889597371220589,-0.841293454170227,-0.39919787645339966,0.2527749836444855,-0.3557834327220917,-0.37684351205825806,-0.2745892405509949,-0.06511696428060532,-0.3788163661956787,0.4396623969078064,-0.219669371843338,-0.024628598242998123,-0.6263087391853333,-0.9226311445236206,-1.3276965618133545,0.10846362262964249,0.11544525623321533,0.10720112174749374,0.011502017267048359,0.02954387292265892,-0.22188158333301544,0.2785535156726837,0.16511327028274536,0.2923218011856079,0.23081804811954498,0.007773031946271658,-0.3269225060939789,-0.017244528979063034,-0.030625011771917343,0.11819566786289215,-0.042545586824417114,0.08163358271121979,0.2914637327194214,0.19342155754566193,0.06766819208860397,0.2323312610387802,0.1939896196126938,-0.08171175420284271,-0.3535637855529785,0.06658817082643509,0.1491030901670456,0.1739252209663391,0.0954647958278656,0.036570411175489426,0.3116147220134735,-0.44250839948654175,-0.2856879234313965,-0.20433171093463898,-0.14623135328292847,-0.07799667119979858,-0.3057236969470978,-0.2852869927883148,-0.0798788070678711,-0.06725763529539108,-0.19863852858543396,-0.07587926834821701,-0.03874877095222473,-0.25007569789886475,-0.19246874749660492,-0.41298797726631165,-0.2729048430919647,-0.3391859829425812,-0.26619753241539,-0.2761489152908325,-0.12406183779239655,-0.1813453882932663,-0.18672215938568115,0.021446896716952324,0.17695586383342743,-0.11995748430490494,-0.17203116416931152,-0.02415667474269867,-0.11567296832799911,0.018941199406981468,0.33952298760414124,0.30560916662216187,0.29981255531311035,0.28723037242889404,0.15645870566368103,0.11090290546417236,-0.08581125736236572,0.011164452880620956,-0.10714396089315414,-0.14232376217842102,-0.01638994738459587,-0.001347087905742228,0.27190038561820984,0.2512911856174469,0.2315167933702469,0.37139132618904114,0.1132834330201149,0.08657466620206833,-0.15438303351402283,-0.018813084810972214,-0.2920911908149719,-0.17382316291332245,-0.11156962066888809,-0.123943991959095,0.03758860006928444,-0.14745205640792847,-0.13629452884197235,-0.10840128362178802,-0.13354970514774323,-0.31438061594963074,-0.27149155735969543,-0.12131369113922119,-0.2646096348762512,-0.10494137555360794,-0.17415761947631836,-0.30382609367370605,-0.44215524196624756,0.04300790652632713,-0.09138106554746628,-0.015500687062740326,0.032149266451597214,0.03337707743048668,-0.06564953923225403,0.01618918590247631,0.05079280212521553,0.10965995490550995,0.07734566181898117,-0.11494205892086029,-0.11139970272779465,-0.050936874002218246,0.12401234358549118,0.08186604082584381,0.08977097272872925,0.07614749670028687,0.07639674842357635,0.09130685776472092,-0.053309809416532516,-0.0014152855146676302,-0.0047754026018083096,-0.07706072181463242,-0.06229152902960777,-0.07024651020765305,-0.002038930542767048,-0.10601050406694412,-0.04578394815325737,0.0769444927573204,0.2109101265668869,-0.09723274409770966,-0.0874389186501503,0.05140462517738342,-0.14902111887931824,-0.06490430980920792,-0.18853110074996948,-0.2115555703639984,-0.10462741553783417,-0.16051939129829407,-0.2677996754646301,-0.1175713911652565,-0.15951068699359894,-0.16256023943424225,-0.1417924165725708,-0.12271161377429962,-0.16536279022693634,-0.002878646133467555,-0.21707545220851898,0.11929302662611008,0.0770067498087883,0.00997322890907526,-0.12001162022352219,0.24170389771461487,-0.21324129402637482,0.033715080469846725,0.0348726361989975,0.041516080498695374,0.05877860635519028,0.33354416489601135,-0.25606077909469604,0.011805407702922821,-0.0034729994367808104,-0.11116522550582886,-0.06411487609148026,-0.18025590479373932,0.11200962215662003,0.09981421381235123,-0.03269568830728531,0.07126398384571075,0.11184536665678024,0.35750532150268555,-0.1941346973180771,-0.044583894312381744,0.13042990863323212,0.0030965805053710938,0.19184650480747223,0.09115473181009293,0.32529813051223755,-0.02924175001680851,0.16833719611167908,0.18198978900909424,0.22991660237312317,0.23251564800739288,-0.026927225291728973,-0.08662104606628418,0.2541511058807373,0.08036116510629654,0.24451717734336853,0.2847200930118561,0.37689194083213806,0.015371447429060936,0.06666272133588791,0.180885910987854,0.2594062387943268,0.12548401951789856,0.25800958275794983,-0.012652571313083172,0.0361737422645092,0.11765830963850021,-0.14397013187408447,0.34693604707717896,-0.10250572115182877,-0.05774699151515961,0.07902704179286957,-0.015293456614017487,-0.10597191005945206,0.36646151542663574,0.08827579021453857,0.05294303968548775,0.09523185342550278,-0.004300914239138365,0.14418962597846985,-0.15752819180488586,0.1063532754778862,0.1737108677625656,0.12917304039001465,0.06443749368190765,-0.08918625116348267,0.2894611060619354,-0.044427402317523956,0.10155850648880005,0.048239585012197495,0.06610409915447235,0.17949916422367096,-0.10868847370147705,0.07373017072677612,0.03012925013899803,0.02198554202914238,0.14422927796840668,0.033141475170850754,0.15109489858150482,0.04614458233118057,0.4172792434692383,0.34935957193374634,0.29027536511421204,0.22196651995182037,0.06516196578741074,0.025989247485995293,0.21053969860076904,0.2376703917980194,0.2479442059993744,0.25626641511917114,0.04095273092389107,0.21265704929828644,-0.06454351544380188,-0.09138503670692444,0.09564192593097687,-0.0026119546964764595,-0.04514295235276222,-0.34796619415283203,0.08489588648080826,0.1085110455751419,0.11200955510139465,0.13991613686084747,-0.08592681586742401,-0.3899308145046234,-0.07115188241004944,-0.07669022679328918,-0.12736226618289948,-0.056914787739515305,0.06509494036436081,0.30457890033721924,0.03813296556472778,0.11112228780984879,0.14161819219589233,-0.030634356662631035,-0.12099875509738922,-0.39671289920806885,-0.05721299722790718,0.05967302992939949,0.003550891298800707,0.03951888903975487,-0.1047656461596489,0.21780285239219666,-0.43620169162750244,-0.04388561099767685,-0.10707900673151016,-0.04238282889127731,0.06841331720352173,-0.19207033514976501,-0.30195924639701843,-0.014900628477334976,-0.1771612912416458,-0.16102774441242218,-0.2303605079650879,-0.2494567334651947,-0.2599012553691864,-0.17320354282855988,-0.12657353281974792,-0.07871417701244354,-0.21291303634643555,-0.24415503442287445,-0.1356838196516037,0.009250861592590809,-0.12177979201078415,-0.16318626701831818,0.047827452421188354,0.07036438584327698,0.09039365500211716,-0.004899059887975454,-0.16942742466926575,-0.0297554861754179,0.03851226344704628,0.13689453899860382,0.022879276424646378,0.11276683211326599,0.00635337783023715,0.11054641008377075,-0.05098376423120499,-0.09196913987398148,-0.04095485061407089,-0.13773874938488007,-0.1832328885793686,-0.23537814617156982,0.05711379274725914,-0.0007132873870432377,0.033812522888183594,0.028943438082933426,0.15091334283351898,0.1831524819135666,0.04928785562515259,-0.22215066850185394,-0.09298516064882278,-0.021650293841958046,-0.093671053647995,0.03246139734983444,0.09146663546562195,-0.014134653843939304,-0.41436806321144104,-0.2121434509754181,-0.166343092918396,-0.23644129931926727,-0.24608758091926575,-0.3426162004470825,-0.2229623645544052,-0.018373580649495125,0.0035362166818231344,-0.09859202057123184,-0.13629020750522614,-0.15989479422569275,0.13779279589653015,0.11885157972574234,0.07005741447210312,0.21784350275993347,-0.1552148461341858,0.23158088326454163,-0.07851552218198776,-0.034173667430877686,-0.08141236007213593,0.02105903998017311,-0.11093790829181671,0.28615179657936096,0.00015492622333113104,0.049840159714221954,0.0820356085896492,0.09498237818479538,0.2487352043390274,-0.1367967128753662,0.24509073793888092,0.22844238579273224,0.06968992948532104,0.08832024037837982,-0.09713149815797806,0.32652899622917175,0.014671480283141136,0.05504124239087105,0.037501011043787,-0.029750699177384377,0.17228442430496216,-0.06853807717561722,0.13862580060958862,-0.007143544498831034,0.07526245713233948,0.029075533151626587,0.044661782681941986,0.1950032263994217,0.4800199568271637,0.38970398902893066,0.5097663402557373,0.31408098340034485,0.2762649953365326,0.2039269506931305,0.3625236749649048,0.23907940089702606,0.10837899148464203,0.19495733082294464,0.284068763256073,0.10292837768793106,0.29597699642181396,0.3032604455947876,0.2654756009578705,-0.19000141322612762,-0.26404204964637756,0.42449167370796204,0.3255874216556549,-0.2996402084827423,0.16297167539596558,-0.09237978607416153,0.052138958126306534,0.005922096315771341,0.020871585234999657,0.09995248913764954,-0.09389622509479523,0.0006271842285059392,-0.22360645234584808,0.2151765525341034,0.17009204626083374,0.17120976746082306,-0.7078397274017334,0.13806241750717163,0.24510511755943298,-0.7639316916465759,-0.27045807242393494,0.11351865530014038,-0.16187383234500885,0.28130069375038147,0.22389765083789825,-0.30625879764556885,0.11578729003667831,0.3604956269264221,0.16426019370555878,-0.19300159811973572,0.26948320865631104,-0.24303984642028809,0.1350788176059723,0.28197911381721497,-0.0030382266268134117,0.5949855446815491,-0.04104645177721977,0.20762591063976288,-0.06708090752363205,0.6399657130241394,-0.44650396704673767,-0.11726132780313492,-0.034986138343811035,-0.6480721235275269,0.014269855804741383,-0.08293135464191437,-0.06914979964494705,0.32265064120292664,-0.16979539394378662,0.075789675116539,-0.42113998532295227,0.13614003360271454,0.30174925923347473,-0.2349730134010315,-0.22327415645122528,0.5522581934928894,0.34559565782546997,0.18647080659866333,-0.16499945521354675,-0.014307567849755287,-0.025744374841451645,0.1960873305797577,-0.05845662206411362,0.7654258012771606,-0.057638980448246,0.0983976200222969,0.29133519530296326,-0.0941758006811142,0.17935273051261902,-0.05423050746321678,0.15878315269947052,-0.18755346536636353,0.21566462516784668,0.033099640160799026,-0.11771675199270248,0.0889328345656395,0.5498443245887756,-0.6868096590042114,0.21749894320964813,0.3718106746673584,-0.7696974873542786,0.03036186285316944,-0.16558022797107697,-0.5509074926376343,-0.0022388079669326544,0.006537329405546188,-0.15881946682929993,0.028842369094491005,-0.10296095162630081,-0.04721380025148392,0.06417589634656906,0.15764936804771423,-0.00799468345940113,0.14747880399227142,0.1405676305294037,0.07014624029397964,0.08590590953826904,-0.11075051128864288,0.003004923928529024,-0.09776797890663147,-0.0965854823589325,-0.14263640344142914,0.01445311214774847,0.12057369947433472,0.00472650770097971,0.06686878204345703,-0.08277349919080734,-0.03805306553840637,0.044298600405454636,0.20787997543811798,0.20817524194717407,0.19762194156646729,0.1885131448507309,0.26481419801712036,0.2320985496044159,0.16966716945171356,0.1413855403661728,0.09318646043539047,-0.03041219525039196,-0.09130892902612686,-0.033943288028240204,0.020251065492630005,0.41003021597862244,0.11093128472566605,-0.020998649299144745,0.032004520297050476,0.062324874103069305,0.15116040408611298,0.1422439068555832,0.06642618775367737,0.05801963433623314,0.021560760214924812,0.01031730230897665,-0.08402758091688156,-0.0335879810154438,0.0014653010293841362,0.1646159291267395,0.09064999222755432,0.012776670046150684,0.007887070998549461,-0.14239583909511566,-0.13220110535621643,-0.06205076724290848,-0.24986405670642853,0.2301412969827652,0.15861906111240387,0.09921696037054062,0.1958945095539093,-0.05463002622127533,0.12568259239196777,0.19712978601455688,-0.040059108287096024,0.07550778239965439,0.00012342759873718023,0.1648968756198883,0.43601828813552856,-0.057495489716529846,0.05370347574353218,0.12936244904994965,0.05755540356040001,-0.006211625877767801,0.18208913505077362,-0.17108942568302155,-0.32096317410469055,-0.22022747993469238,-0.2147349715232849,-0.03263648599386215,0.14986871182918549,0.16733098030090332,0.15396828949451447,-0.005623843986541033,0.14146222174167633,0.22316600382328033,0.1299036145210266,0.06507349014282227,0.00331805064342916,-0.03893626481294632,-0.09641417860984802,0.08866080641746521,-0.25110265612602234,-0.009016611613333225,-0.10666566342115402,-0.04686570167541504,0.11696352809667587,0.17184722423553467,-0.026566600427031517,0.08105318993330002,0.07255643606185913,0.0006393653457053006,-0.07003995031118393,0.11485566198825836,0.13706597685813904,0.04963323846459389,-0.03201202675700188,-0.04397102817893028,0.1015530452132225,-0.2525695860385895,-0.13134486973285675,0.02538105845451355,0.014466984197497368,0.018117602914571762,0.09053139388561249,0.13290588557720184,-0.01665985770523548,0.08094533532857895,0.31750330328941345,0.12231941521167755,0.3145363926887512,0.1591687798500061,0.01662609539926052,0.09045407921075821,-0.10760778933763504,-0.011521735228598118,0.04149555042386055,-0.04111446067690849,0.11585789918899536,-0.006523066200315952,-0.02452126145362854,0.04266786202788353,0.19235548377037048,0.02204725332558155,0.06759423017501831,0.2237200140953064,-0.009272831492125988,0.10945765674114227,0.1714024841785431,0.12560611963272095,0.16001495718955994,-0.008809717372059822,0.151102215051651,-0.031856752932071686,0.036890909075737,0.09396686404943466,0.11204138398170471,-0.02253592200577259,-0.08194267004728317,-0.01769334077835083,-0.09992995858192444,-0.046599388122558594,-0.09597279876470566,0.16940933465957642,0.1341036856174469,0.12362197786569595,0.07699042558670044,-0.0066081867553293705,-0.1025661826133728,0.11062537133693695,0.2197362184524536,0.20745143294334412,0.15695177018642426,0.010618663392961025,-0.3840928375720978,-0.10920629650354385,0.036080002784729004,-0.09042428433895111,-0.2411593794822693,-0.14084811508655548,0.06336706131696701,-0.03162098675966263,0.018417635932564735,-0.024497291073203087,0.13975849747657776,0.09775987267494202,-0.14921703934669495,0.026286769658327103,-0.004504268988966942,-0.10643381625413895,-0.13918188214302063,-0.040788400918245316,0.17488929629325867,-0.03144077584147453,-0.047275856137275696,-0.11474630981683731,0.0015169089892879128,-0.07356646656990051,-0.06933096796274185,0.15731100738048553,0.16321784257888794,0.189130961894989,0.2229621261358261,0.1748083233833313,-0.02093179151415825,-0.04392633214592934,0.059309933334589005,0.039021629840135574,6.914124242030084e-05,-0.009387652389705181,-0.3541337847709656,0.12035536020994186,0.2668783366680145,0.09025368094444275,0.23455502092838287,0.10370592027902603,0.08884028345346451,0.24584761261940002,0.3511206805706024,0.3734132647514343,0.32942870259284973,0.08512821793556213,-0.2732261121273041,0.014597642235457897,-0.08297935873270035,-0.030794896185398102,-0.11751259863376617,-0.13978832960128784,0.04290657117962837,0.006790179759263992,0.0326119028031826,0.11982812732458115,0.18114006519317627,0.03731750324368477,-0.24444207549095154,0.09842527657747269,0.03372573480010033,-0.09051284193992615,0.04994675889611244,0.07778067886829376,0.31079789996147156,-0.23854954540729523,-0.1338833123445511,-0.41507628560066223,-0.1471806764602661,-0.1928865611553192,0.12306119501590729,-0.03377458080649376,-0.08688085526227951,-0.09453617036342621,-0.17449836432933807,-0.08351615071296692,-0.12352222204208374,0.0579240508377552,0.10870423913002014,0.11770933866500854,0.09546273946762085,0.5268585681915283,0.01948840357363224,-0.1123887225985527,0.01034198421984911,0.051003627479076385,0.08798673003911972,0.06680793315172195,-0.04881054535508156,-0.13041886687278748,-0.006327543407678604,0.07126996666193008,-0.1477309763431549,0.148719921708107,-0.1039457842707634,0.1179949939250946,0.2698737382888794,0.15699928998947144,0.22234109044075012,-0.011003314517438412,-0.08030486106872559,-0.023259155452251434,-0.06799295544624329,0.08128200471401215,-0.14402902126312256,0.2937527596950531,-0.17533016204833984,0.139135479927063,0.09427974373102188,0.05300397053360939,0.023647699505090714,-0.17523346841335297,0.0638279840350151,0.09293614327907562,0.038019053637981415,0.053577255457639694,-0.06483650207519531,0.03285092115402222,0.08695418387651443,0.04003952816128731,-0.044023577123880386,-0.16169092059135437,-0.13756495714187622,-0.10787110030651093,0.21323047578334808,-0.04226680472493172,-0.05232418328523636,-0.05734298378229141,0.04776919633150101,-0.032246287912130356,-0.03442737087607384,0.279289186000824,0.20070375502109528,0.3653450608253479,0.09432988613843918,-0.005053236149251461,-0.017133403569459915,0.029897870495915413,0.01198643259704113,0.0386921726167202,-0.03893693909049034,0.019887540489435196,0.28125327825546265,0.004702771082520485,0.21299904584884644,0.15522950887680054,0.08546573668718338,0.0565541572868824,-0.08322881907224655,-0.0016484461957588792,-0.09619087725877762,-0.14141272008419037,-0.19874854385852814,-0.16089148819446564,0.10321742296218872,0.017855927348136902,-0.057557739317417145,0.06841141730546951,-0.08450216799974442,0.10407453775405884,-0.3310285210609436,-0.0018108660588040948,0.09014745056629181,0.07890111953020096,0.0581667460501194,-0.05636309087276459,-0.18709124624729156,-0.05209263786673546,0.022354351356625557,0.06149252504110336,0.12391583621501923,0.10725011676549911,-0.16456829011440277,0.13983462750911713,0.08945421874523163,0.12912212312221527,0.0560477115213871,0.21479424834251404,-0.11372586339712143,-0.047336459159851074,-0.12506091594696045,-0.06752928346395493,-0.04489081725478172,-0.13468287885189056,-0.13631458580493927,-0.10821560770273209,0.010223202407360077,0.1067580133676529,-0.03702691197395325,0.05010802298784256,-0.18769192695617676,-0.02569802850484848,0.12523648142814636,0.15848030149936676,-0.023625321686267853,0.008291942998766899,-0.0032386283855885267,0.1908734291791916,0.1323091685771942,0.19774523377418518,0.10010598599910736,0.04157098010182381,0.0946931391954422,0.03377556428313255,0.17222444713115692,0.1480395644903183,0.2278464138507843,0.14712944626808167,0.1725311428308487,0.02546238712966442,0.0925879180431366,0.04586772620677948,0.07297217845916748,0.06471128761768341,0.16525156795978546,-0.039366208016872406,0.05572811886668205,-0.06970017403364182,0.2550433278083801,0.09086234122514725,-0.028233539313077927,0.03832653909921646,-0.050400521606206894,0.0028271039482206106,-0.11033715307712555,0.0007004652288742363,0.09345743805170059,0.251843124628067,0.0040872483514249325,-0.14613798260688782,-0.0010903625516220927,-0.44583725929260254,0.0322197787463665,-0.13309738039970398,-0.08157388120889664,-0.08269616216421127,-0.25856947898864746,0.31027138233184814,-0.09479274600744247,-0.08995335549116135,0.14889086782932281,0.006367100402712822,-0.24615204334259033,-0.10056208074092865,-0.4922392964363098,0.1472312957048416,0.0646577849984169,0.20215630531311035,-0.2521892189979553,-0.05791694298386574,0.3910818099975586,0.08414269238710403,0.07704056054353714,-0.15624581277370453,0.31792280077934265,0.06586509197950363,0.09975754469633102,0.12943090498447418,-0.07311873883008957,-0.10518041998147964,-0.14778146147727966,0.007441763766109943,0.10102231800556183,0.07642368972301483,-0.09115909785032272,0.08515401929616928,-0.0483400896191597,0.20084141194820404,-0.39843979477882385,-0.19378408789634705,0.4703361690044403,-0.29555827379226685,0.19932158291339874,0.2442461997270584,0.12669293582439423,-0.2608782649040222,0.06836576014757156,0.2328774482011795,0.2508089244365692,-0.3584335744380951,-0.2354232370853424,-0.10722475498914719,0.16846655309200287,-0.20871134102344513,0.4318515658378601,0.29712992906570435,-0.15664179623126984,0.06021064147353172,-0.2720628082752228,-0.013521280139684677,-0.11055164039134979,0.16693496704101562,0.43582114577293396,0.05333007127046585,0.08954934030771255,0.5748391151428223,-0.34756699204444885,0.1916038542985916,-0.07646185904741287,-0.4018368721008301,-0.22507737576961517,-0.20822429656982422,-0.35326772928237915,0.18126533925533295,0.08220665901899338,0.0586998425424099,0.10405111312866211,-0.06018483266234398,0.14469821751117706,-0.08462660759687424,-0.06974399089813232,-0.030116725713014603,-0.20508068799972534,-0.10968796163797379,-0.13842470943927765,0.2227175086736679,0.24898463487625122,0.26696503162384033,0.11007750034332275,0.05198412016034126,0.13007676601409912,0.07099122554063797,0.23549868166446686,0.10383415967226028,-0.15452416241168976,-0.3038475513458252,0.219331756234169,-0.084084153175354,-0.07316330820322037,-0.15977728366851807,-0.1441550850868225,-0.01857929117977619,-0.3128631114959717,-0.0512024462223053,-0.02360253408551216,-0.09132229536771774,-0.3073458969593048,-0.4395681917667389,-0.1325574368238449,-0.08771954476833344,-0.14398950338363647,0.010574033483862877,-0.058587756007909775,0.3252527713775635,-0.165613055229187,-0.12741173803806305,0.046641357243061066,0.14444012939929962,-0.14673106372356415,-0.27734851837158203,-0.126175194978714,-0.07238902151584625,0.20184801518917084,0.22049076855182648,0.0948578491806984,0.2404344379901886,0.28308767080307007,-0.09670273959636688,-0.17584112286567688,-0.11918261647224426,-0.1111917495727539,-0.02933087944984436,-0.29102808237075806,-0.015550084412097931,0.08372382819652557,0.07743430137634277,-0.09413741528987885,-0.014860245399177074,0.1622719019651413,0.051342494785785675,-0.03477101773023605,-0.054532747715711594,0.04020128771662712,0.1857934147119522,0.10010839253664017,0.019931960850954056,0.0026764285285025835,0.04703238606452942,0.13393160700798035,0.027851467952132225,0.04403524473309517,-0.030847515910863876,-0.028449177742004395,-0.00881103239953518,-0.10513080656528473,0.009620165452361107,0.17655260860919952,0.14442859590053558,0.11329922080039978,0.1521626114845276,0.09554887562990189,-0.016715534031391144,-0.02772281877696514,-0.12609650194644928,-0.0952504575252533,-0.09603295475244522,-0.15010790526866913,-0.22511155903339386,-0.07800805568695068,-0.11357834935188293,-0.22787892818450928,-0.25498315691947937,-0.28738802671432495,-0.24607433378696442,-0.5962487459182739,0.06738558411598206,0.18697825074195862,0.22942331433296204,0.23232978582382202,0.1911407858133316,-0.04683404415845871,-0.03596584498882294,-0.09949889779090881,-0.13351663947105408,-0.23482218384742737,-0.13409823179244995,-0.006607175804674625,0.10713899880647659,0.12659519910812378,0.048817746341228485,0.033901747316122055,0.1166461706161499,-0.027515744790434837,0.09171631932258606,0.14337505400180817,0.09141220897436142,0.07323867827653885,0.25187620520591736,0.705077588558197,0.00852228607982397,0.0957062765955925,0.2478962391614914,0.32494866847991943,0.237013578414917,0.39010414481163025,-0.003214329481124878,0.006845873314887285,-0.007067802827805281,0.017780104652047157,0.00048815886839292943,0.4351065158843994,0.03188757598400116,0.1383584588766098,0.13753020763397217,0.2047913670539856,0.13946321606636047,0.2619777321815491,-0.029359599575400352,-0.02796478383243084,-0.04013429582118988,-0.0032658835407346487,-0.1288696825504303,-0.22814612090587616,0.033038266003131866,0.06508829444646835,0.013972721062600613,-0.004346574191004038,-0.0014591962099075317,0.05309106782078743,0.012583596631884575,-0.03870446979999542,-0.08684420585632324,-0.07037746161222458,-0.006376123521476984,-0.10649377107620239,-0.007110627368092537,0.05095628276467323,0.0018781742546707392,0.0041623408906161785,-0.03358229622244835,-0.06443421542644501,-0.16374808549880981,-0.03536785766482353,0.012356615625321865,0.14387816190719604,0.14916042983531952,0.12209761142730713,0.01782863400876522,0.1068979948759079,0.08416081964969635,-0.07569791376590729,-0.16744472086429596,0.2756371796131134,-0.09795603156089783,-0.05834376439452171,-0.01644323766231537,0.08877700567245483,-0.07631798833608627,-0.05426318570971489,0.15158241987228394,0.11784190684556961,0.04762943089008331,0.01054261066019535,-0.11092576384544373,0.17848215997219086,-0.04598396643996239,-0.10894552618265152,-0.10286933928728104,-0.04214983433485031,0.04736414551734924,-0.13086116313934326,0.022924697026610374,0.03197102248668671,0.013160941191017628,0.033266909420490265,-0.10504414141178131,0.06167716160416603,-0.008757024072110653,-0.000859710737131536,-0.013322579674422741,-0.0017890133894979954,-0.2640943229198456,-0.12926499545574188,-0.02722417376935482,-0.009480861946940422,0.017970474436879158,0.10321138799190521,0.020355625078082085,-0.03781517967581749,-0.0463174544274807,-0.1064886525273323,-0.1040242537856102,0.22597795724868774,-0.16185960173606873,0.05018170177936554,0.011223582550883293,0.01632445864379406,0.027086522430181503,0.21247686445713043,-0.24619252979755402,-0.1163698360323906,-0.058118753135204315,-0.06390033662319183,-0.06623196601867676,0.04995974525809288,-0.0038813643623143435,-0.2322128713130951,0.0034202963579446077,-0.09401524811983109,-0.02905786968767643,0.056211668998003006,-0.04042845219373703,-0.0479874424636364,0.08417025953531265,0.012425623834133148,0.008342268876731396,0.09582187235355377,0.21066921949386597,-0.04184313490986824,-0.14601768553256989,-0.1425897777080536,-0.08778266608715057,-0.1157321110367775,0.10217159241437912,-0.19223719835281372,-0.04371853545308113,-0.016294211149215698,0.03697824478149414,0.0961015596985817,0.05069541558623314,0.17305544018745422,-0.09238870441913605,-0.09250985831022263,-0.07772398740053177,0.1665155291557312,0.494055837392807,-0.3952745795249939,-0.0006517507717944682,-0.023311957716941833,-0.09847182780504227,-0.21412603557109833,-0.0960950031876564,0.08029117435216904,-0.014954025857150555,-0.10115964710712433,-0.11997056752443314,0.05143999680876732,0.2698761522769928,-0.07616779953241348,0.09838095307350159,0.1699632704257965,0.19560936093330383,-0.0972406342625618,-0.49300143122673035,0.08190695196390152,-0.18020153045654297,-0.1444772630929947,-0.0840284451842308,-0.00034729711478576064,0.2019646167755127,0.03564560413360596,0.030456172302365303,0.10961730778217316,0.10258492827415466,0.00012847126345150173,0.17093348503112793,-0.012257864698767662,-0.11044606566429138,-0.030549855902791023,-0.006201035343110561,0.08797626942396164,-0.03375708684325218,-0.03417041897773743,-0.015946421772241592,0.03931621462106705,0.060946058481931686,0.18696372210979462,0.18130771815776825,-0.013300292193889618,0.10658485442399979,0.12982456386089325,0.14241674542427063,0.2579609453678131,0.26279139518737793,0.06582126021385193,0.02204849384725094,0.11513498425483704,0.14058153331279755,0.11391306668519974,0.07972028106451035,0.23359568417072296,-0.033409155905246735,0.04896702989935875,0.09476190060377121,0.0765843391418457,-0.05666549876332283,0.18098582327365875,-0.10083068162202835,-0.09145870804786682,-0.033105723559856415,-0.09420693665742874,-0.036317989230155945,-0.12841565907001495,-0.12839390337467194,-0.08924245089292526,-0.14737568795681,-0.044098325073719025,-0.20906482636928558,-0.4239260256290436,0.03507595881819725,-0.03494805097579956,-0.10642967373132706,-0.08285325020551682,0.010600992478430271,-0.022802427411079407,0.01612577773630619,0.1426256000995636,0.033718373626470566,0.030100293457508087,0.0979524701833725,0.3770134747028351,0.08596934378147125,0.03856479749083519,-0.035291023552417755,-0.030519800260663033,-0.12092328816652298,-0.1388137936592102,0.05693638324737549,0.08135233074426651,0.09164167940616608,0.08451124280691147,-0.18762952089309692,-0.05015134438872337,-0.017614109441637993,0.14247553050518036,0.09024917334318161,0.1088978499174118,0.060341011732816696,-0.15166303515434265,-0.02187393233180046,-0.0419042631983757,-0.01950233429670334,-0.0587051697075367,0.11723875999450684,-0.1012001484632492,-0.0012266074772924185,0.0315769724547863,0.02846788801252842,0.06953547894954681,0.1477549523115158,-0.06853770464658737,0.026093855500221252,0.1248457208275795,-0.007393646519631147,0.1414618343114853,-0.07819432765245438,0.16178031265735626,0.007777688559144735,0.10723204165697098,-0.10401563346385956,-0.011130962520837784,0.00015757218352518976,0.23768126964569092,0.018867727369070053,-0.02370181865990162,-0.08421847969293594,-0.10299906134605408,-0.005456805694848299,-0.004168418701738119,0.0004217715177219361,0.17543572187423706,0.047647468745708466,0.006020004861056805,0.24160625040531158,-0.2927092909812927,0.1550753265619278,-0.11389781534671783,-0.23252634704113007,-0.29412850737571716,-0.04784780368208885,-0.19989240169525146,-0.002979882061481476,0.2869645953178406,0.7287708520889282,0.40574565529823303,0.26626962423324585,-0.07274505496025085,-0.09662113338708878,-0.032087959349155426,-0.022491035982966423,0.06695407629013062,-0.3876640498638153,-0.04876091331243515,0.06004216894507408,0.13204370439052582,-0.20813268423080444,0.3280860185623169,0.26734408736228943,0.0351807065308094,0.20161332190036774,0.17785926163196564,0.06463079154491425,-0.09875660389661789,-0.37395283579826355,-0.09633325040340424,0.18416926264762878,-0.1458902508020401,-0.2877427041530609,-0.008607765659689903,-0.018622124567627907,0.2165760099887848,-0.10930849611759186,0.05390153080224991,0.11080467700958252,-0.2548806369304657,0.15361349284648895,-0.4555727243423462,-0.14180074632167816,0.2484205663204193,-0.20827163755893707,-0.0031034827698022127,-0.004100424703210592,-0.3292170464992523,-0.05206809565424919,-0.13262654840946198,-0.36105796694755554,-0.31188204884529114,0.28252682089805603,0.17118290066719055,-0.058134935796260834,0.08582670241594315,-0.42358601093292236,-0.12301589548587799,-0.07486196607351303,-0.07330172508955002,0.0836632177233696,0.09544630348682404,0.33598318696022034,-0.011658844538033009,-0.1607886105775833,0.16718707978725433,-0.18989047408103943,0.11017336696386337,-0.3246150016784668,-0.40232792496681213,-0.005654432810842991,0.07725127786397934,-0.004601897206157446,0.1812676191329956,0.23840513825416565,-0.08943584561347961,0.038923926651477814,-0.030015768483281136,0.10564617812633514,-0.02478875406086445,-0.13707339763641357,0.06049049273133278,0.038705773651599884,-0.012145991437137127,0.14624373614788055,0.034134503453969955,0.00929160788655281,0.0043567162938416,-0.004813250619918108,-0.038157008588314056,0.01552665140479803,-0.13820615410804749,-0.12577606737613678,-0.09371737390756607,-0.027768786996603012,0.021991701796650887,-0.03517983481287956,0.04360028728842735,-0.0659150630235672,-0.3801363706588745,-0.04564402252435684,0.0015747355064377189,0.02440294437110424,-0.016863735392689705,0.011243869550526142,0.12880337238311768,0.00932511780411005,-0.07749602198600769,0.03028864413499832,-0.01032258477061987,0.11887767910957336,-0.03826506435871124,-0.014283365570008755,-0.05097717046737671,-0.07612038403749466,-0.002055544639006257,0.06686718761920929,0.24007022380828857,0.14295169711112976,0.01680505834519863,0.1304687112569809,0.034367885440588,0.13606944680213928,0.09539923071861267,0.026862287893891335,-0.00589781254529953,-0.03143753856420517,-0.08916578441858292,-0.06510486453771591,-0.15896545350551605,0.09931214153766632,0.021341804414987564,0.040671609342098236,-0.11850856244564056,-0.06346268206834793,0.18150894343852997,-0.04114171862602234,-0.004676576238125563,-0.10666774213314056,-0.08974601328372955,-0.05540413409471512,0.36389124393463135,0.03790544345974922,-0.007858075201511383,-0.059918392449617386,0.060174185782670975,0.0039803809486329556,-0.0559641532599926,-0.014081661589443684,0.022079799324274063,-0.014204184524714947,0.047088149935007095,-0.06904580444097519,0.060709256678819656,-0.04284188151359558,0.010106939822435379,-0.01490173302590847,0.007384053431451321,0.10898512601852417,0.004687192849814892,0.023565180599689484,-0.02844916842877865,0.08894503116607666,0.00648260023444891,0.14411048591136932,0.047171518206596375,-0.012355174869298935,-0.009241699241101742,-0.07368039339780807,0.010197263211011887,-0.0770701989531517,-0.03121991641819477,-0.019698845222592354,0.01619577594101429,0.06406363844871521,-0.008618571795523167,0.06132880598306656,-0.062040776014328,0.00519293500110507,-0.009743220172822475,0.020493343472480774,0.07729087769985199,0.10125882923603058,-0.043878164142370224,0.021760735660791397,-0.007001976016908884,0.050221800804138184,0.10687258094549179,-0.04179159551858902,0.03707883507013321,0.01234730426222086,0.020108290016651154,0.05422215163707733,-0.04019736126065254,0.04371010884642601,0.12409894168376923,-0.011620601639151573,0.022616790607571602,-0.0061990609392523766,-0.05199161916971207,-0.04774774983525276,0.30217117071151733,0.03206711262464523,0.017542529851198196,0.06792838871479034,-0.007351859472692013,0.07457230985164642,-0.006458770018070936,-0.01837879791855812,-0.029742717742919922,0.020341547206044197,0.08833827078342438,-0.05752820894122124,0.013806850649416447,-0.049244336783885956,-0.046562861651182175,-0.004489472135901451,-0.048237428069114685,-0.10789804905653,0.20034661889076233,-0.046354740858078,0.019650528207421303,-0.005291777662932873,0.02368616871535778,0.03320287540555,-0.152010977268219,-0.032068703323602676,-0.0035188375040888786,-0.09319749474525452,0.009831353090703487,-0.15667662024497986,0.05979129672050476,0.05665527656674385,0.056319430470466614,-0.03446135297417641,0.05321916937828064,0.010546551086008549,0.13574913144111633,-0.01412870455533266,0.04649438336491585,0.043633654713630676,0.06661489605903625,-0.0018788223387673497,-0.12233427166938782,-0.0267531368881464,-0.014720889739692211,-0.020799869671463966,0.045704785734415054,0.12697862088680267,-0.23957611620426178,-0.016860192641615868,0.048392508178949356,-0.0307163093239069,0.09531039744615555,-0.004743343219161034,0.14386790990829468,-0.019815055653452873,0.06629598885774612,0.010404953733086586,0.038573406636714935,-0.02525915578007698,0.11913853138685226,-0.015573270618915558,0.016624335199594498,0.0166526697576046,0.010749094188213348,0.12854629755020142,0.27461522817611694,-0.009325080551207066,0.032433509826660156,0.01790578104555607,-0.03888557478785515,-0.14992839097976685,-0.1887660175561905,-0.0024601281620562077,-0.027659112587571144,-0.02193448506295681,-0.024095891043543816,0.11588551104068756,0.018043100833892822,0.02108340710401535,0.0024926599580794573,0.017761526629328728,-0.05997800454497337,0.011792408302426338,0.18376819789409637,0.011549859307706356,0.06840876489877701,0.06796574592590332,-0.04697377234697342,0.175259530544281,-0.1673644781112671,0.010270771570503712,-0.02360549569129944,0.000617487879935652,0.059032779186964035,-0.11522367596626282,-0.08087509870529175,0.01450078934431076,-0.035547737032175064,-0.027642428874969482,-0.04121429845690727,0.06555788218975067,0.10051102936267853,-0.006293721031397581,0.03662034869194031,0.026271913200616837,-0.1191101148724556,0.023592881858348846,-0.2474668174982071,-0.14017708599567413,-0.1018480584025383,-0.14986038208007812,-0.16064482927322388,-0.2821110188961029,0.0776306539773941,0.09799478948116302,0.128700852394104,0.14771415293216705,0.15768323838710785,0.2089851349592209,0.6377874612808228,-0.0838143453001976,-0.09313546866178513,-0.0645657330751419,-0.1818142533302307,-0.23959402740001678,0.09454689174890518,0.0618017315864563,0.009728753939270973,0.03648284822702408,-0.031218474730849266,-0.11491343379020691,0.06586118787527084,0.14510416984558105,0.17696917057037354,0.15205249190330505,0.22974306344985962,0.37950125336647034,-0.19232520461082458,-0.025830576196312904,-0.016591206192970276,0.004284309688955545,-0.009942270815372467,-0.04475345090031624,0.057467956095933914,0.11366179585456848,0.10195847600698471,0.16556239128112793,0.17803166806697845,0.37358787655830383,0.3681105077266693,0.15975917875766754,0.17826420068740845,0.20611274242401123,0.27036771178245544,0.14587880671024323,0.12961894273757935,-0.0321820005774498,0.014133123680949211,-0.10832343250513077,-0.09160766005516052,-0.002630081959068775,0.07980313897132874,0.014834411442279816,-0.020776519551873207,0.036513619124889374,0.12211370468139648,0.09540058672428131,-0.08852876722812653,-0.004895932972431183,-0.03452053293585777,-0.10853192210197449,-0.024418894201517105,0.15338797867298126,-0.020415769889950752,0.01638263650238514,0.008494803681969643,0.03637159243226051,0.04915465787053108,0.1016719713807106,-0.16421540081501007,-0.005286847706884146,0.07162264734506607,0.06721539050340652,-0.02941930666565895,-0.11861707270145416,0.1993233859539032,-0.08012823015451431,-0.06942642480134964,-0.10980549454689026,-0.10493602603673935,-0.17301218211650848,-0.5154068470001221,-0.021626047790050507,-0.0843149945139885,-0.08812037855386734,-0.1565486043691635,-0.249997079372406,0.05424747243523598,-0.02840540185570717,-0.09380035102367401,-0.10502207279205322,-0.0026544686406850815,-0.05744313448667526,-0.1991041600704193,-0.06576520949602127,-0.08854559063911438,-0.10023046284914017,-0.12171530723571777,-0.03678717464208603,0.38389912247657776,0.006738653872162104,0.08428370207548141,0.1422123908996582,0.21757455170154572,0.019473392516374588,0.2051403522491455,-0.06460865586996078,-0.08642460405826569,-0.08908294141292572,-0.09721563756465912,0.06501084566116333,-0.6159852147102356,0.029368573799729347,3.6743182135978714e-05,6.0808648413512856e-05,-0.06001850962638855,0.02632782608270645,-0.06388845294713974,0.051101960241794586,0.08631080389022827,0.16093401610851288,0.14025960862636566,0.08140521496534348,0.34169790148735046,0.0012596434680745006,-0.0095710763707757,-0.036779411137104034,-0.03829903155565262,-0.06180104613304138,0.4904399514198303,0.037101298570632935,0.06939713656902313,0.07455684244632721,0.07204274088144302,0.13536715507507324,0.693287193775177,0.028665365651249886,0.10794196277856827,0.12287639081478119,0.14249683916568756,0.2401081919670105,-0.001035720226354897,0.040648866444826126,0.027292508631944656,0.015279976651072502,-0.016076993197202682,0.06268537789583206,-0.12297363579273224,0.08448012173175812,-0.36612391471862793,-0.00012262356176506728,-0.030273808166384697,0.00035210850182920694,-0.0006757471128366888,-0.057057060301303864,0.01938413828611374,0.10208702832460403,0.01872474141418934,-0.07098954916000366,-0.19658717513084412,-0.046935003250837326,-0.4361450970172882,-0.10006968677043915,-0.24097579717636108,-0.00365812168456614,-0.48258164525032043,-0.13169170916080475,0.04237283766269684,0.025257296860218048,0.01845511607825756,0.08543138951063156,-0.701954185962677,-0.1643984615802765,-0.10697680711746216,-0.07232269644737244,-0.12452545017004013,-0.02542576938867569,-0.09707506000995636,-0.21991537511348724,0.21959564089775085,-0.04109479486942291,0.4169105887413025,0.11596539616584778,-0.022832736372947693,-0.07301926612854004,0.2444373369216919,0.2625194191932678,-0.4960208833217621,-0.055176518857479095,-0.024101683869957924,0.24381273984909058,-0.0991743803024292,-0.04535171389579773,0.26633554697036743,-0.11853975057601929,0.2943493127822876,-0.2060854434967041,0.1812107414007187,-0.27580341696739197,-0.18181072175502777,-0.09636660665273666,0.08419438451528549,0.22677820920944214,-0.20866258442401886,0.2983253002166748,0.39733436703681946,0.035197898745536804,-0.020689411088824272,0.16591963171958923,-0.05600779876112938,0.03238165006041527,0.21489566564559937,0.15359961986541748,-0.363821417093277,-0.1827252209186554,-0.07122573256492615,-0.10337819159030914,-0.09324914962053299,0.1139400526881218,0.16646328568458557,0.14675569534301758,0.13923977315425873,0.14026261866092682,-0.049567077308893204,-0.14661911129951477,0.09461766481399536,-0.2528975009918213,-0.021163633093237877,0.26280882954597473,-0.29909414052963257,-0.012201379984617233,-0.014181592501699924,-0.03341066092252731,-0.06294889748096466,-0.04163850471377373,0.21145036816596985,-0.015908675268292427,-0.04853217676281929,0.028392136096954346,0.0570705384016037,0.017817791551351547,-0.017416873946785927,-0.01925068534910679,-0.06209332123398781,-0.012746243737637997,-0.06028112769126892,0.0778164193034172,0.11148808896541595,-0.0023312587291002274,0.037719350308179855,0.00648872833698988,-0.07859625667333603,0.07489760965108871,0.10331887751817703,-0.006780074443668127,0.038813937455415726,0.05854520946741104,-0.043449535965919495,0.0029868604615330696,0.06881590932607651,0.013305606320500374,-0.014999653212726116,-0.029776452109217644,-0.03387635573744774,0.02695155143737793,-0.08663269877433777,-0.004395117983222008,-0.016627946868538857,0.017876235768198967,0.00018573529087007046,0.01113762054592371,0.015279467217624187,-0.054349206387996674,-0.022399304434657097,-0.04378535971045494,0.03078485280275345,-0.12802787125110626,-0.14962224662303925,0.10025287419557571,0.06302590668201447,-0.0024575842544436455,0.018448958173394203,-0.011451082304120064,-0.057543329894542694,-0.01695382222533226,0.007495255675166845,-0.05410843715071678,-0.08383239060640335,0.004893094766885042,-0.12938173115253448,-0.04119081795215607,0.033264730125665665,-0.023966573178768158,-0.012641566805541515,-0.058131203055381775,-0.15068182349205017,-0.009501777589321136,-0.04013237729668617,0.010552993044257164,0.016596170142292976,-0.058421894907951355,0.2039111852645874,0.07657261192798615,-0.02779955230653286,0.01566985994577408,-0.02374221384525299,0.012578723020851612,0.11757203936576843,-0.013646380975842476,0.03984935209155083,-0.018402032554149628,-0.006730544846504927,-0.0951036885380745,-0.0007701138383708894,-0.06535941362380981,-0.041795436292886734,0.005468025803565979,-0.01813531294465065,-0.01703508198261261,-0.04800308123230934,0.08015664666891098,-0.04936585575342178,-0.0680692121386528,-0.15517857670783997,-0.07646314054727554,0.059060800820589066,0.031488753855228424,0.05327018350362778,0.09954944998025894,0.0682097002863884,0.04309563711285591,-0.05408703163266182,0.0025427881628274918,-0.016585472971200943,0.030854806303977966,0.018716810271143913,0.023884791880846024,-0.06964465230703354,0.018025323748588562,0.04728272184729576,0.10224617272615433,-0.007201245985925198,-0.009854028932750225,0.03558443859219551,0.0007013659342192113,-0.00020834046881645918,-0.048939451575279236,-0.04072025045752525,-0.04803566262125969,0.05334331840276718,-0.007710710167884827,-0.07428780943155289,-0.03255671262741089,0.0516526959836483,0.06630903482437134,0.09912369400262833,-0.017813898622989655,-0.027952222153544426,0.005705102812498808,-0.00983760692179203,-0.02630549669265747,0.12662948668003082,-0.007991977035999298,-0.03236192837357521,0.0040550497360527515,-0.01652856357395649,0.03408490866422653,-0.011129220016300678,0.06861947476863861,0.027195200324058533,-0.02852971851825714,0.04755043983459473,-0.020839350298047066,-0.10224731266498566,-0.021841727197170258,-0.026314184069633484,-0.017590299248695374,-0.005143336486071348,-0.02084112912416458,-0.38389915227890015,0.10665068030357361,0.06966269016265869,0.11240235716104507,0.11390313506126404,0.08292976021766663,0.2566644847393036,-0.04689915105700493,-0.03260263800621033,-0.024841178208589554,-0.014209276996552944,-0.057068753987550735,0.29131150245666504,-0.033395424485206604,-0.019043531268835068,-0.02676820009946823,-0.029850130900740623,-0.03257042542099953,-0.22454117238521576,0.11211515963077545,0.058417122811079025,0.10138345509767532,0.08865986764431,0.10499438643455505,0.029695691540837288,-0.008165855892002583,-0.026808850467205048,-0.001450916170142591,-0.02090923674404621,-0.007392353378236294,-0.20101450383663177,0.04794183745980263,0.03227085992693901,0.04378868266940117,0.055129390209913254,0.06549861282110214,-0.3645724654197693,0.12811565399169922,0.09856249392032623,0.1552937924861908,0.1729101538658142,0.16493847966194153,0.0416279137134552,-0.035436343401670456,-0.052604641765356064,0.049794744700193405,0.11307282745838165,0.07161030918359756,-0.034387845546007156,0.042119529098272324,0.05644756928086281,0.1070546880364418,0.10702746361494064,0.15770947933197021,0.1930457502603531,-0.02272348664700985,-0.007656544912606478,0.008259203284978867,0.14067871868610382,0.06849892437458038,0.08879809081554413,-0.03831719234585762,0.006102022714912891,-0.03713745251297951,-0.0137625178322196,-0.07097594439983368,0.13903242349624634,-0.0021407234016805887,0.04881606996059418,0.04918583855032921,0.005025038029998541,0.11664480715990067,-0.02030554972589016,0.000679071235936135,-0.012827805243432522,-0.012311230413615704,-0.01727290078997612,0.04715409129858017,-0.18686865270137787,0.01962558552622795,0.04414140433073044,0.011697031557559967,0.013465980999171734,0.12676937878131866,0.06565199792385101,0.03713982179760933,0.11638429015874863,0.20086787641048431,0.16178512573242188,0.26043614745140076,0.13318434357643127,-0.038055356591939926,0.014461805112659931,-0.03742697462439537,-0.05015832558274269,-0.020674722269177437,0.03259360417723656,-0.030172761529684067,-0.025318019092082977,-0.03934354707598686,0.0007268697954714298,-0.059182826429605484,-0.11192530393600464,-0.07481437176465988,0.023538779467344284,-0.03292981907725334,0.03893663361668587,-0.11038295924663544,0.018649715930223465,0.04863918945193291,0.04203534871339798,0.02157960645854473,0.062149371951818466,-0.05740384757518768,0.06182513013482094,0.04051527380943298,0.04320373013615608,0.0012719989754259586,-0.0320785790681839,0.018914194777607918,0.3088569641113281,-0.014544885605573654,0.012304006144404411,-0.0012540764873847365,0.00449073500931263,-0.0010596649954095483,-0.23987428843975067,-0.010926191695034504,-0.002617941005155444,0.005917603615671396,0.03652407228946686,-0.018123595044016838,0.08243347704410553,0.04339410737156868,-0.052433278411626816,-0.017764490097761154,-0.04438364505767822,-0.18529899418354034,-0.19980093836784363,-0.004731704480946064,-0.04859388247132301,-0.05980793386697769,-0.019731195643544197,0.12485221773386002,0.07477249950170517,0.018698643893003464,-0.010631971061229706,-0.013112431392073631,0.00039792698225937784,0.00045342411613091826,0.024916961789131165,0.04022732004523277,-0.017341332510113716,-0.02260526269674301,-0.014213575050234795,0.0011798792984336615,0.008874705992639065,-0.04282199218869209,0.01334469486027956,0.060728128999471664,0.046664729714393616,0.007781599648296833,-0.024548595771193504,-0.05532073602080345,-0.00045598382712341845,0.03738894313573837,0.06010866537690163,0.0032256380654871464,-0.03185513615608215,0.00105741445440799,0.022354625165462494,0.01531159970909357,-0.02003699168562889,0.04853421449661255,-0.03598403185606003,-0.0021313533652573824,0.01781339943408966,0.06100980192422867,0.02364744059741497,0.06141060218214989,-0.056892119348049164,-0.025866124778985977,0.03432932868599892,0.013953253626823425,-0.039814986288547516,-0.011391794309020042,0.062466107308864594,-0.030434520915150642,-0.005165081471204758,-0.013703471049666405,-0.024997806176543236,-0.0936121940612793,-0.312107115983963,0.04590792581439018,0.08056779950857162,0.05924325808882713,0.10861313343048096,0.08881867676973343,0.40236973762512207,0.003878786461427808,-0.0716044008731842,0.0003655122418422252,-0.0513235479593277,-0.17584842443466187,0.17688944935798645,0.013593374751508236,-0.020076602697372437,-0.0025538464542478323,-0.11661069840192795,-0.04088185355067253,0.08442360162734985,0.02539946883916855,0.1208033487200737,0.04428931698203087,0.007319599390029907,0.1791909635066986,-0.19639669358730316,0.0077611240558326244,-0.016734670847654343,-0.0029590900521725416,-0.0017968348693102598,-0.00888510700315237,0.06826863437891006,0.04720364138484001,0.021615950390696526,0.033332496881484985,0.03485916927456856,0.05032353103160858,0.06741806119680405,0.09218296408653259,0.15758444368839264,0.11539804935455322,0.08020217716693878,0.13191424310207367,-0.05497846379876137,-0.05047428607940674,0.006252904888242483,-0.058184824883937836,-0.10479523241519928,-0.0218459814786911,0.09510760009288788,0.003951463382691145,-0.01528164092451334,-0.010367223061621189,0.00020250628585927188,0.016628077253699303,-0.00885782390832901,0.0028054306749254465,0.006794900633394718,-0.0005715021397918463,