{"version":"0.7.0","architecture":"SlimmableContainer","config":{"submodels":[{"max_value":0.5,"model":{"version":"0.7.0","metadata":{"date":{"year":2026,"month":5,"day":7,"hour":20,"minute":52,"second":12},"loudness":-17.087724685668945,"gain":0.8021833284144437},"architecture":"WaveNet","config":{"layers":[{"input_size":1,"condition_size":1,"head":{"out_channels":1,"kernel_size":16,"bias":true},"channels":3,"kernel_sizes":[6,6,6,6,6,6,6,6,6,6,6,6,6,6,15,15,6,6,6,6,6,6,6],"dilations":[1,3,7,17,41,101,239,1,3,7,17,41,101,239,1,13,1,3,7,17,41,101,239],"activation":[{"type":"LeakyReLU","negative_slope":0.01},{"type":"LeakyReLU","negative_slope":0.01},{"type":"LeakyReLU","negative_slope":0.01},{"type":"LeakyReLU","negative_slope":0.01},{"type":"LeakyReLU","negative_slope":0.01},{"type":"LeakyReLU","negative_slope":0.01},{"type":"LeakyReLU","negative_slope":0.01},{"type":"LeakyReLU","negative_slope":0.01},{"type":"LeakyReLU","negative_slope":0.01},{"type":"LeakyReLU","negative_slope":0.01},{"type":"LeakyReLU","negative_slope":0.01},{"type":"LeakyReLU","negative_slope":0.01},{"type":"LeakyReLU","negative_slope":0.01},{"type":"LeakyReLU","negative_slope":0.01},{"type":"LeakyReLU","negative_slope":0.01},{"type":"LeakyReLU","negative_slope":0.01},{"type":"LeakyReLU","negative_slope":0.01},{"type":"LeakyReLU","negative_slope":0.01},{"type":"LeakyReLU","negative_slope":0.01},{"type":"LeakyReLU","negative_slope":0.01},{"type":"LeakyReLU","negative_slope":0.01},{"type":"LeakyReLU","negative_slope":0.01},{"type":"LeakyReLU","negative_slope":0.01}],"bottleneck":3,"head1x1":{"active":false,"out_channels":1,"groups":1},"layer1x1":{"active":true,"groups":1},"groups_input":1,"groups_input_mixin":1,"conv_pre_film":{"active":false,"shift":true,"groups":1},"conv_post_film":{"active":false,"shift":true,"groups":1},"input_mixin_pre_film":{"active":false,"shift":true,"groups":1},"input_mixin_post_film":{"active":false,"shift":true,"groups":1},"activation_pre_film":{"active":false,"shift":true,"groups":1},"activation_post_film":{"active":false,"shift":true,"groups":1},"layer1x1_post_film":{"active":false,"shift":true,"groups":1},"head1x1_post_film":{"active":false,"shift":true,"groups":1},"gating_mode":["none","none","none","none","none","none","none","none","none","none","none","none","none","none","none","none","none","none","none","none","none","none","none"],"secondary_activation":[null,null,null,null,null,null,null,null,null,null,null,null,null,null,null,null,null,null,null,null,null,null,null],"slimmable":null}],"head":null,"head_scale":0.010635301285719866},"weights":[2.8741395473480225,-2.5444726943969727,-4.176700592041016,0.4311521351337433,0.24643604457378387,0.4549344778060913,-0.018312601372599602,-1.0691601037979126,-0.6071385145187378,-0.3313502073287964,-0.20444422960281372,-0.371684193611145,0.22345373034477234,1.252321481704712,0.791692852973938,-0.06351851671934128,-0.27264541387557983,-0.35797420144081116,0.19394931197166443,1.220968246459961,0.6950371265411377,0.19475692510604858,0.2820785641670227,0.3720056414604187,0.079720638692379,-1.2545448541641235,-0.6248093247413635,-0.33293864130973816,-0.40623489022254944,-0.2860003709793091,-0.038006726652383804,1.2330925464630127,0.6653273105621338,-0.08936712145805359,-0.15369056165218353,-0.4521784782409668,0.011400582268834114,1.109281301498413,0.7122403979301453,-0.6439570188522339,-0.6210008263587952,-0.5525869727134705,0.07936831563711166,1.699526071548462,0.8137017488479614,0.5154278874397278,0.6079875230789185,0.5904216170310974,-0.3174787759780884,-1.7349225282669067,-0.9502084851264954,0.6828243136405945,0.44988352060317993,0.5686270594596863,-0.24422067403793335,-1.6778948307037354,-0.849149763584137,0.995762825012207,1.4149547815322876,1.774617314338684,-1.0607773065567017,-1.0232166051864624,0.6077607274055481,-0.10740809142589569,-0.13405250012874603,0.4142986238002777,0.6076999306678772,-0.18072165548801422,0.8127071857452393,0.9993698596954346,0.6985716223716736,-0.7059845924377441,-0.5792117714881897,0.6766114234924316,-0.4610852003097534,0.024616198614239693,-0.19759942591190338,-0.10119710862636566,-0.3575265109539032,-0.33097851276397705,-0.7515528798103333,-0.12460001558065414,-0.03485171124339104,-0.0286458358168602,0.09283163398504257,0.1793123334646225,0.562225878238678,-0.18514122068881989,-0.41166791319847107,-0.24914665520191193,-0.2053355574607849,0.02135542593896389,0.6120572090148926,-0.17830170691013336,-0.17748548090457916,-0.24859261512756348,-0.4285135865211487,-0.11870431154966354,-0.128147155046463,-0.01625429093837738,0.08420293778181076,0.18634116649627686,0.2644595205783844,0.19134081900119781,0.12388975918292999,-0.03350907936692238,0.012516672722995281,0.3077715337276459,0.14234086871147156,0.005705369170755148,-0.02526017278432846,-0.060574475675821304,-0.17628102004528046,-0.3126745820045471,-0.34782007336616516,-0.2085556983947754,-0.23831792175769806,-0.2974163889884949,0.09033164381980896,0.14696110785007477,0.13673681020736694,0.1312265396118164,-0.4420563876628876,-0.17848756909370422,-0.0909799188375473,-0.282360702753067,-0.10155648738145828,-0.2918795347213745,0.46902573108673096,0.6075359582901001,0.07425355911254883,-0.011950308457016945,-2.9112868309020996,-0.5723066329956055,0.18942074477672577,-0.4065592586994171,0.4028395116329193,0.1044025868177414,-0.3202515244483948,-0.2935265302658081,-0.19019879400730133,0.18061184883117676,0.1621284931898117,-0.44433462619781494,0.09702187776565552,0.06519945710897446,0.4810503125190735,-0.17141951620578766,0.09985433518886566,0.23609042167663574,0.17436464130878448,0.7341496348381042,0.12021935731172562,-0.045289065688848495,-0.10223469883203506,-0.2593086063861847,-0.3492441773414612,-0.02149435132741928,-0.042821139097213745,-0.18897557258605957,-0.08483733981847763,0.041990842670202255,-0.0869060531258583,-0.2436879426240921,-0.06448949873447418,-0.13588571548461914,-0.02632848173379898,0.09542936086654663,-0.18563798069953918,0.09653536975383759,-0.3792802095413208,0.20428107678890228,0.4871717691421509,0.2057548314332962,0.2527732849121094,-0.08829527348279953,-0.0988791212439537,-0.09197524189949036,-0.07395279407501221,-0.07239194214344025,-0.1235547885298729,-0.18219831585884094,0.6597709655761719,-0.003781520528718829,-0.2232075333595276,-0.26581984758377075,-0.3022093176841736,-0.15367859601974487,0.21344693005084991,0.03191513195633888,0.2680486738681793,0.15817056596279144,-0.13619567453861237,-0.08866199851036072,0.5565055012702942,0.12466083467006683,0.28139999508857727,0.3619437515735626,0.11067433655261993,0.026409000158309937,-0.5671833157539368,-0.1272534430027008,0.2778816819190979,0.13837820291519165,0.04963826388120651,-0.9875813126564026,1.2064059972763062,-0.585939884185791,-0.5841690301895142,0.6867386102676392,0.269391804933548,-0.26105764508247375,-0.3553736209869385,-0.4075723886489868,-0.040446799248456955,0.0942675992846489,0.26713356375694275,-0.10057073086500168,-0.30076509714126587,0.0013064179802313447,0.012282777577638626,-0.010983450338244438,-0.07858453691005707,-0.04028301313519478,-0.6154506206512451,0.20652753114700317,0.16145773231983185,0.1366153508424759,0.08179083466529846,0.10906060039997101,0.4279933273792267,0.06788370758295059,0.09340216964483261,0.1348452866077423,-0.05834146961569786,0.0496603325009346,0.06698154658079147,-0.053313639014959335,-0.0003664391115307808,-0.0030389088205993176,0.028154034167528152,0.017386993393301964,-0.029819557443261147,0.1216353103518486,0.1551826000213623,0.2791471779346466,0.040322013199329376,-0.3920600712299347,0.12172013521194458,-0.0512743704020977,0.038075875490903854,0.12053201347589493,0.16497184336185455,0.2725556194782257,-0.43214693665504456,0.010158847086131573,-0.004250562749803066,0.028493860736489296,0.016816772520542145,0.15190526843070984,0.24775555729866028,-0.022027689963579178,-0.01359351072460413,-0.12095683813095093,-0.08531030267477036,-0.10624045133590698,0.5893774032592773,0.0008145031752064824,-0.020185403525829315,-0.010282614268362522,0.08384159952402115,0.4755716621875763,-0.36809882521629333,-0.34169095754623413,0.11787590384483337,0.04646153002977371,0.1507737934589386,0.44110551476478577,1.0317350625991821,0.7144750356674194,0.5178524851799011,0.41831159591674805,0.3584951162338257,0.0008988510235212743,-0.32033294439315796,0.31524813175201416,0.2815225124359131,-0.3013156056404114,-0.011205578222870827,0.3462334871292114,0.18479523062705994,0.022096816450357437,0.05783061683177948,0.05996731296181679,0.14435072243213654,0.20085859298706055,0.31357473134994507,-0.03138861432671547,-0.0706498995423317,-0.06537164002656937,0.012690299190580845,-0.16752609610557556,0.2813563048839569,-0.03853435069322586,-0.03170880302786827,-0.005729245021939278,0.09316588193178177,0.12216781079769135,-0.03512509539723396,-0.0014201438752934337,0.008387827314436436,0.01606055349111557,0.056131888180971146,0.03618688881397247,-0.717081606388092,-0.07558152824640274,0.024195676669478416,-0.022619174793362617,0.018114708364009857,0.32954850792884827,0.38206976652145386,0.007257246877998114,0.023967768996953964,0.03851187229156494,0.14512470364570618,-0.08263012766838074,0.1061621904373169,-0.008968818932771683,0.00995000172406435,-0.01661193184554577,0.032500702887773514,0.09448572993278503,-0.06824643164873123,-0.05437272787094116,0.0701000764966011,0.0399991050362587,0.1670800894498825,0.23767006397247314,0.45888766646385193,-0.01553499698638916,0.027914736419916153,-0.029802439734339714,0.05985737964510918,0.24796609580516815,-0.12369906157255173,0.3159177303314209,0.3320605158805847,0.322345107793808,0.06102368235588074,-0.17620894312858582,0.12896135449409485,-0.46110770106315613,-0.5206421613693237,0.08515074104070663,-0.463095486164093,-0.15093523263931274,-0.28115519881248474,-0.18115507066249847,-0.10555317997932434,0.1442638486623764,0.40514323115348816,0.38755491375923157,0.04724474251270294,-0.00046309008030220866,0.0003562965430319309,0.0009626149549148977,0.0014952471246942878,0.00046606489922851324,0.09874071180820465,-0.0007934515015222132,-0.0013037638273090124,0.0007430746336467564,-0.0007794543053023517,0.04116268455982208,0.2662886679172516,-0.0016741371946409345,0.0014499183744192123,0.0023658210411667824,0.009762988425791264,0.003133344231173396,-0.46320459246635437,-0.0016683987341821194,-0.003268056083470583,-0.0055319578386843204,-0.01715969666838646,0.00435734074562788,0.2630806863307953,-0.005367593374103308,-0.020577549934387207,-0.04335068166255951,-0.10967589169740677,-0.29325252771377563,0.483965665102005,-0.00430236104875803,-0.0033114475663751364,-0.005862358026206493,-0.03489307686686516,-0.04059422016143799,0.131282240152359,0.0019531561993062496,0.0011762183858081698,-0.001874312642030418,0.0019020731560885906,-0.163556307554245,0.0221850648522377,-0.00843420997262001,0.010457554832100868,0.0067896246910095215,-0.01755468174815178,-0.316413015127182,0.15107592940330505,0.008151399902999401,0.003733193501830101,-0.006564441602677107,-0.025869987905025482,-0.05886702239513397,0.02387375198304653,-1.0663152933120728,0.4142891764640808,0.057229962199926376,0.6679801940917969,1.1929410696029663,0.23018570244312286,-0.6200096607208252,-0.6774470806121826,-0.26522281765937805,-0.8841142058372498,-0.567951500415802,-0.253595769405365,-1.1656851768493652,-0.2325471192598343,-0.034367211163043976,-0.09878688305616379,-0.21574661135673523,0.4199411869049072,0.0006454579415731132,0.000254860264249146,0.0015411607455462217,0.00020780082559213042,0.007601152174174786,0.4792744815349579,0.0010159187950193882,-0.0009757842635735869,0.0021703855600208044,-0.0003404552990105003,0.009387180209159851,0.31551113724708557,0.0014915314968675375,0.0005561526631936431,0.002021902473643422,8.218945731641725e-05,-0.00031501727062277496,0.09235700964927673,-0.04257483780384064,-0.040254145860672,-0.026548227295279503,-0.022776475176215172,0.2024766206741333,0.06598405539989471,-0.15098336338996887,-0.08321751654148102,-0.09774748980998993,-0.14609909057617188,0.45358824729919434,0.23019592463970184,-0.00828429963439703,-0.02421635575592518,0.0018879916751757264,0.014962305314838886,0.06292528659105301,-0.10534447431564331,-0.006743262987583876,0.002358828904107213,0.0034500728361308575,0.015419978648424149,-0.009722883813083172,0.07741215080022812,-0.009744985029101372,0.010939018800854683,0.008424882777035236,0.042060304433107376,0.016049830242991447,0.24653945863246918,0.0016030191909521818,-0.0006141981575638056,0.004070580471307039,0.005766451824456453,-0.010758312419056892,0.23698724806308746,0.1425614058971405,-0.3243938684463501,-1.0032129287719727,0.7241453528404236,-0.02652178518474102,-0.2654828429222107,0.35504409670829773,-0.11897630989551544,-0.4768432676792145,-0.2855176627635956,-0.1495523303747177,-0.5412402749061584,0.006296391598880291,-0.0002904303546529263,0.8721492290496826,-0.11264589428901672,-0.3816837966442108,0.6719164252281189,0.04403359070420265,-0.0025276122614741325,0.0011773877777159214,-0.05833131819963455,-0.0035442737862467766,0.36260560154914856,0.21287187933921814,-0.11104343086481094,0.009888430126011372,-0.07626350969076157,-0.09015586227178574,-0.03344115614891052,-0.1052950918674469,0.09094453603029251,-0.047899678349494934,-0.11757797747850418,0.04124154895544052,-0.030566468834877014,-0.10840281844139099,0.18030215799808502,-0.09702133387327194,0.04320720210671425,0.200190007686615,-0.14116698503494263,-0.19199532270431519,0.2095758467912674,-0.01922149397432804,-0.15940767526626587,-0.2535097002983093,0.05048876255750656,0.1411624550819397,0.05789745971560478,0.0711861401796341,0.19226206839084625,0.10429147630929947,0.4142236113548279,0.12912911176681519,0.05599258095026016,-0.0765177384018898,0.20969106256961823,0.04569518193602562,0.004877544939517975,-0.3167114555835724,-0.13207776844501495,-0.20287974178791046,-0.3095483183860779,-0.13123288750648499,-0.0720992386341095,0.09185122698545456,-0.18176349997520447,0.023038772866129875,-0.10090387612581253,-0.024508070200681686,-0.015714608132839203,-1.5003442764282227,0.28202882409095764,0.6458640098571777,-0.4847744405269623,1.042404294013977,1.5649775266647339,-1.3393532037734985,0.05054730921983719,-0.12653516232967377,-0.00022090905986260623,0.25123167037963867,0.014320055022835732,1.0855820178985596,-0.8097051978111267,-0.6190685033798218,0.11520647257566452,0.00691950274631381,-0.1598237156867981,-0.04711928963661194,0.07085215300321579,-0.11427552998065948,0.09107568860054016,0.08673638850450516,0.6617233753204346,-0.06663946807384491,-0.18004761636257172,0.010808972641825676,0.024437684565782547,-0.022119540721178055,0.3637586534023285,-0.04876035079360008,0.06838712096214294,-0.05167989060282707,-0.16309820115566254,-0.2113638073205948,0.14994850754737854,0.2448362410068512,0.019861970096826553,0.05002686753869057,-0.0481552854180336,0.1114647164940834,0.07420701533555984,0.08922211080789566,-0.10036871582269669,-0.17171455919742584,0.14456747472286224,0.10144412517547607,0.43550905585289,0.30443620681762695,-0.06344401836395264,-0.23419277369976044,-0.2505042850971222,-0.07485465705394745,0.10680925846099854,-0.17218108475208282,-0.04425463452935219,-0.14108718931674957,-0.03969281166791916,-0.38314089179039,-0.18572664260864258,0.03408224135637283,0.03973653167486191,0.03608014062047005,-0.16902674734592438,0.10433488339185715,0.13226741552352905,-0.1514001041650772,-0.16718539595603943,-0.15441450476646423,-0.06620810925960541,-0.0401078499853611,0.32443973422050476,-0.058629728853702545,-0.3480541706085205,0.41008222103118896,0.08679408580064774,-0.8089314699172974,-1.4313031435012817,-0.26124107837677,-0.2532602846622467,-0.2763843834400177,-0.21836596727371216,-0.24384234845638275,0.170437291264534,-0.4558015465736389,0.09921698272228241,0.6029016971588135,0.29220646619796753,0.7743455171585083,0.19335608184337616,0.12284395843744278,0.1311531662940979,0.2301880568265915,0.158338263630867,0.17397750914096832,0.34052419662475586,0.1787223070859909,0.05397304892539978,0.18198876082897186,0.3176153302192688,0.3568083345890045,0.2768198251724243,0.004650667775422335,0.07324501127004623,0.06957362592220306,-0.020723124966025352,-0.05436662957072258,-0.6393712759017944,-0.04454286769032478,-0.04282772168517113,0.05300017073750496,0.027667207643389702,-0.2189798802137375,0.2128841131925583,0.2681421637535095,-0.0167922992259264,0.10407669842243195,-0.23772861063480377,-0.10062304139137268,0.17307499051094055,-0.09714093804359436,-0.04111282899975777,-0.0068473536521196365,0.19572299718856812,0.09767819941043854,0.15698282420635223,-0.1266660988330841,-0.18414536118507385,-0.3433380126953125,-0.06372542679309845,-0.3016931116580963,0.32194581627845764,0.048522189259529114,-0.11459384113550186,-0.0024274042807519436,0.027898285537958145,0.02627345360815525,0.4228464961051941,-0.06717173010110855,-0.09888046234846115,-0.25531625747680664,-0.07446735352277756,-0.33511826395988464,0.6463285684585571,0.01810360513627529,-0.7798218727111816,-0.00917235016822815,0.18860435485839844,-0.10665583610534668,-0.0706205666065216,0.3363095819950104,-0.5241691470146179,-0.6067982316017151,0.07897244393825531,-0.7922906875610352,-0.12670454382896423,-0.545479416847229,0.1834724396467209,0.3545933663845062,-0.245297372341156,0.3885590434074402,0.5009200572967529,-0.09356319159269333,-0.15315882861614227,-0.11860667914152145,0.005988229997456074,-0.09103205054998398,-0.07717854529619217,-0.0021888904739171267,-0.0338631235063076,-0.12682101130485535,0.21124862134456635,0.23773925006389618,-0.06647199392318726,-0.05784435570240021,-0.1407632827758789,-0.106223464012146,-0.007125692442059517,-0.11808304488658905,0.336119681596756,-0.03064161166548729,-0.06456352770328522,-0.10458742827177048,-0.09191771596670151,-0.11937971413135529,-0.27093741297721863,-0.1280708909034729,-0.2420073002576828,-0.27203571796417236,-0.1590459793806076,-0.08220159262418747,0.20721875131130219,-0.010038566775619984,-0.022337505593895912,-0.058881375938653946,-0.07919090986251831,-0.09518344700336456,0.476751446723938,-0.07025326788425446,-0.1317204087972641,-0.17407724261283875,-0.12330210208892822,-0.14980795979499817,-0.014979911968111992,-0.13947352766990662,-0.25898995995521545,-0.36967676877975464,-0.1921733021736145,0.043533388525247574,0.756702721118927,-0.03874284401535988,-0.09427708387374878,-0.12610870599746704,-0.11014463752508163,-0.1714695543050766,0.38627246022224426,-0.005185871850699186,-0.7156174182891846,0.43931522965431213,-0.2651166617870331,-0.3704126179218292,-0.8577878475189209,0.10800471901893616,1.0321712493896484,-0.9769163131713867,0.1798306107521057,-0.2860246002674103,-0.12976931035518646,-0.389279842376709,-0.7599492073059082,0.572460949420929,-0.2905912399291992,0.0728379487991333,-0.13909494876861572,-0.03846706822514534,-0.009173067286610603,-0.0005675489665009081,0.019698159769177437,0.11800515651702881,0.7329728603363037,0.024141008034348488,0.19960296154022217,0.21506647765636444,0.2297983169555664,0.16151821613311768,0.15884076058864594,-0.04148591309785843,-0.04102106764912605,-0.03319909796118736,-0.02454458922147751,0.08962997794151306,-0.5819010734558105,0.004524769727140665,-0.0002698557509575039,-0.008404075168073177,-0.010664933361113071,-0.01634630188345909,-0.6576337814331055,0.0030297774355858564,-0.014244623482227325,0.002043110551312566,-0.0024963910691440105,-0.0033228376414626837,0.020707229152321815,-0.0027667037211358547,-0.008493293076753616,-0.017000572755932808,-0.0298900343477726,-0.051390424370765686,0.7323868870735168,0.0028212410397827625,0.0027596422005444765,-0.0038085859268903732,-0.007122872397303581,-0.016413286328315735,0.0830075591802597,-0.0012334821512922645,-0.0179535374045372,0.004378237761557102,0.006218594498932362,-0.010178378783166409,-0.34734395146369934,-0.00841422751545906,-0.006288605742156506,-0.016522696241736412,-0.03137364238500595,-0.05728944391012192,-0.023713676258921623,-0.0013058023760095239,-0.6388201713562012,1.0751489400863647,0.3125242590904236,0.10223398357629776,0.41076532006263733,0.8402439951896667,0.4169807732105255,-0.5095404982566833,-0.6172862648963928,-0.48171547055244446,1.3933064937591553,-0.3170434236526489,-0.7219937443733215,0.01750718615949154,-0.44333362579345703,0.5866600275039673,0.6249864101409912,0.13212496042251587,0.06548359990119934,0.03602547198534012,-0.018835987895727158,0.17669744789600372,-0.08744920045137405,0.04404526576399803,0.19337035715579987,0.17125056684017181,0.24037377536296844,0.14361552894115448,0.2076408565044403,0.14795689284801483,-0.0008306571398861706,0.04992549121379852,0.07510409504175186,0.22167451679706573,0.8693627715110779,0.0022810676600784063,0.009747227653861046,-0.0010521217482164502,-0.011146267876029015,-0.02253156341612339,0.3095107972621918,-0.0009445397881790996,-0.01063908077776432,-0.0013878532918170094,0.009004184044897556,0.025111744180321693,0.2693100571632385,0.003480748739093542,0.009607025422155857,-0.006808699574321508,-0.008518065325915813,-0.01773662492632866,-0.36986929178237915,0.005279430653899908,0.005447510164231062,0.007023147772997618,0.0030288549605757,-0.009104442782700062,-0.9738413095474243,0.0006472309469245374,-0.0017337027238681912,-0.008315096609294415,-0.002310509094968438,0.0048668538220226765,0.5599046945571899,0.005325131118297577,0.005693132057785988,0.008414381183683872,0.007069535553455353,-0.017892908304929733,1.0434695482254028,0.08778877556324005,-1.330232858657837,0.36128881573677063,-0.10892368108034134,0.4809153974056244,-0.16219624876976013,0.016203567385673523,-0.9055118560791016,-1.4112298488616943,0.34120792150497437,-0.7481728196144104,-0.9118563532829285,0.018689529970288277,0.6876713037490845,0.4038248360157013,-0.4246578812599182,0.7639995217323303,-0.376207560300827,-0.005010313354432583,-0.008926253765821457,-0.01560195256024599,-0.005808905698359013,-0.036182552576065063,0.4377618134021759,0.0004856560844928026,0.005998790729790926,0.007473987061530352,0.0023865748662501574,0.029698088765144348,0.8800279498100281,-0.010875381529331207,-0.017614053562283516,-0.020802386105060577,-0.01622568815946579,-0.034549254924058914,-0.5119401216506958,0.034156206995248795,0.09433954954147339,0.10556381940841675,-0.020494431257247925,0.12524187564849854,0.16221025586128235,0.06708759814500809,0.06367003172636032,0.05163309723138809,0.19934462010860443,0.20436248183250427,0.3161066174507141,0.12217902392148972,0.2629265785217285,0.26366549730300903,0.07224681973457336,0.35604995489120483,-0.5034204721450806,0.03766376152634621,-0.0253108199685812,0.04389139637351036,-0.02407168224453926,0.1353960484266281,-0.10449086874723434,0.04769566282629967,0.1622866541147232,0.10769972205162048,0.07886053621768951,0.17174018919467926,0.05702449753880501,0.11293452978134155,0.018312925472855568,0.12155019491910934,0.013981117866933346,0.17075803875923157,-0.26865866780281067,0.8384138345718384,-0.587547779083252,0.15793859958648682,-0.2964623272418976,-0.08218539506196976,0.11318115144968033,0.518176257610321,-0.7640154957771301,0.30717846751213074,-0.10968700796365738,-0.13015614449977875,0.43941792845726013,-0.8274738788604736,0.30952852964401245,0.008821430616080761,-1.222738265991211,0.47681334614753723,0.9468837976455688,-0.004566053859889507,0.059884924441576004,0.08506566286087036,-0.16159741580486298,-0.015194145031273365,0.08927546441555023,-0.11579027771949768,-0.07369054853916168,0.033584292978048325,-0.12666639685630798,0.10766316950321198,0.20048348605632782,0.2773668169975281,0.09397318214178085,-0.41689419746398926,0.0875236913561821,-0.019709838554263115,0.05772334709763527,-0.013391796499490738,-0.030780069530010223,0.1431468427181244,0.09809885174036026,-0.1336815506219864,-0.025364138185977936,0.11284773796796799,-0.24114911258220673,0.19201786816120148,0.6463382244110107,0.25470349192619324,-0.06596799939870834,-0.06930653005838394,0.13892532885074615,-0.07225041091442108,-0.0055307429283857346,0.0741322785615921,-0.17525501549243927,-0.026338759809732437,0.03127049282193184,-0.39149439334869385,-0.11457937210798264,0.24589787423610687,-0.08803734183311462,0.5840274095535278,-0.22155362367630005,0.04611220583319664,0.10755402594804764,0.01898105815052986,-0.05140618979930878,-0.003939636517316103,-0.07712973654270172,0.05380294844508171,-0.07021085917949677,0.05163339897990227,0.1125207245349884,-0.22602826356887817,0.21228794753551483,-0.17176948487758636,-0.006945767439901829,0.6239535808563232,0.26677852869033813,-0.04091937839984894,0.12207359820604324,-0.08878122270107269,0.02546469122171402,-0.059458136558532715,0.07520106434822083,-0.08338211476802826,-0.11670287698507309,0.10477736592292786,-0.05832192674279213,-0.024462876841425896,-0.2201949805021286,0.37639838457107544,-0.34032589197158813,-0.7009104490280151,0.196669802069664,-0.05674045532941818,0.15576647222042084,-0.03812044486403465,-0.029299093410372734,-0.011481532827019691,-0.0920661985874176,-0.014151833020150661,0.004594375379383564,0.19268617033958435,-0.1158519834280014,0.193323016166687,-0.024746816605329514,-0.2916809916496277,-0.6149827837944031,-0.04883522912859917,0.0024716046173125505,-0.012341304682195187,0.07020407915115356,-0.06130203604698181,-0.03103702887892723,0.00793246179819107,-0.013820038177073002,0.06757257878780365,-0.09748756140470505,-0.057155173271894455,0.025924399495124817,0.09037613123655319,0.4826726019382477,-0.37980490922927856,-0.10375571995973587,-0.013834591954946518,0.009716709144413471,0.0071449801325798035,-0.06163335219025612,-0.011401274241507053,0.00936422310769558,0.01545741967856884,0.032611873000860214,-0.18115249276161194,0.0077400607988238335,-0.12977604568004608,0.23554858565330505,0.7853905558586121,-0.6220933198928833,-0.0628124549984932,-0.017632942646741867,-0.03116224706172943,0.048611871898174286,0.006285378243774176,-0.011964626610279083,-0.06353332847356796,0.020980283617973328,-0.14260265231132507,0.1859261393547058,0.1066531166434288,0.02830817550420761,-0.22406594455242157,-0.19553278386592865,0.3991937041282654,0.06016277149319649,-0.952208399772644,-0.1320676952600479,-0.20123142004013062,0.5680291056632996,0.09878409653902054,0.23397450149059296,-0.408898264169693,-0.9889956116676331,0.5641450881958008,0.4009670317173004,-0.5068726539611816,0.3711622357368469,0.20984479784965515,-0.47062987089157104,-0.6818627119064331,-0.12056147307157516,0.10464686900377274,-0.07459773868322372,-0.026314664632081985,-0.01022147573530674,-0.045971304178237915,-0.019839640706777573,0.011472605168819427,-0.022496335208415985,-0.07839082926511765,0.03076314739882946,0.004805099219083786,0.018330344930291176,0.08192243427038193,0.03308769315481186,-0.014879773370921612,0.28116095066070557,0.059609901160001755,0.00872320868074894,0.04237747937440872,0.07100790739059448,0.020743543282151222,0.01795404590666294,-0.04286467283964157,0.041126322001218796,-0.007406760472804308,0.05167819932103157,0.07426876574754715,-0.14279808104038239,-0.06220105662941933,0.20903714001178741,0.729854941368103,-0.017353173345327377,-0.019809933379292488,0.09684959053993225,0.033512674272060394,-0.030817775055766106,0.009250777773559093,-0.018368380144238472,-0.11516369134187698,0.015388372354209423,-0.050798285752534866,-0.1140572652220726,0.057982951402664185,0.019090130925178528,0.27728554606437683,-0.5746686458587646,-0.04435229301452637,-0.03803471475839615,-0.03331959620118141,-0.04839662089943886,-0.05394427850842476,-0.024819303303956985,-0.05880868807435036,-0.1130007728934288,-0.07565005868673325,-0.07634530961513519,-0.09170561283826828,-0.20610274374485016,-0.17818240821361542,-0.17679797112941742,-0.38216632604599,-0.01937214471399784,-0.03091726265847683,-0.040304575115442276,0.025058742612600327,0.012369525618851185,0.011361288838088512,-0.007105902768671513,0.04367845132946968,0.016658790409564972,-0.009751860983669758,0.017522254958748817,0.040529586374759674,0.03736630827188492,-0.018940167501568794,0.42898714542388916,0.02346336841583252,0.027575217187404633,0.06589920073747635,0.07656092196702957,0.03667112812399864,0.057647641748189926,0.08503547310829163,0.04774322360754013,0.0713193342089653,0.1402493417263031,0.07112138718366623,0.009161999449133873,0.18325664103031158,-0.03915463015437126,-0.49702364206314087,0.06723111122846603,-0.03533525392413139,-0.0044054011814296246,0.018907934427261353,0.0010680051054805517,-0.0070886919274926186,0.07702457159757614,-0.03389262035489082,0.058219484984874725,0.04139431565999985,0.028362153097987175,0.05541415140032768,0.054060909897089005,0.03574597090482712,-0.048305001109838486,0.14300400018692017,0.0516720674932003,0.07808380573987961,0.08966809511184692,0.13796359300613403,0.05816199257969856,0.11501143127679825,0.08440332114696503,0.042114268988370895,0.06586868315935135,-0.08418583869934082,0.02984653227031231,-0.09673542529344559,-0.050080545246601105,-0.06744498759508133,0.08621830493211746,-0.07504905015230179,-0.04828661307692528,-0.06432686746120453,-0.06594481319189072,-0.07349760830402374,-0.013191561214625835,-0.1302861124277115,-0.02046932838857174,-0.0140058109536767,-0.0047693257220089436,0.02011631615459919,-0.04411766678094864,-0.053105730563402176,0.14802253246307373,0.4521881937980652,-0.04793480783700943,0.4192453622817993,-0.5854178071022034,-0.30725762248039246,0.12462028115987778,-0.11570624262094498,0.40862900018692017,-0.1592397391796112,-0.16075631976127625,-0.540330171585083,0.32484763860702515,-0.09871141612529755,0.6379031538963318,-0.3230755627155304,-1.0925029516220093,-0.23232099413871765,1.1007763147354126,0.1999199241399765,-0.32192209362983704,-0.21850557625293732,-0.368600070476532,-1.1140445470809937,1.0420777797698975,-0.22252821922302246,-0.3806215524673462,-0.1385660618543625,0.11471258848905563,-0.3648983836174011,-0.16453301906585693,-0.15331518650054932,-0.01527579315006733,-0.12275084853172302,0.3874322175979614,0.7663610577583313,-0.4573107063770294,-0.16323021054267883,-0.08227519690990448,0.001339402631856501,-0.09706267714500427,-0.8974413871765137,-0.9208749532699585,-0.005506894085556269,-0.1474933922290802,0.11007394641637802,0.3780907690525055,0.16251812875270844,0.5781282186508179,-0.2610856592655182,0.060484547168016434,-0.13937099277973175,0.4752441346645355,0.4928922653198242,0.5954726338386536,0.23676802217960358,0.22251355648040771,-0.16517390310764313,-0.19339509308338165,0.1796388328075409,0.7759872674942017,0.29595792293548584,0.22394782304763794,0.3591506779193878,0.6713079214096069,0.5313010811805725,0.5033997893333435,-0.3604770302772522,-0.33588290214538574,0.5118808150291443,0.5205287337303162,0.1523960530757904,-0.348100870847702,-0.836819589138031,0.2574634552001953,-1.0538259744644165,-0.38639727234840393,0.2665356397628784,0.045732807368040085,0.4096583425998688,-0.03393152728676796,-0.24255713820457458,0.7871562838554382,0.7636938095092773,0.15899963676929474,0.2543008625507355,1.2120459079742432,0.7572221159934998,-1.2403136491775513,-0.19319473206996918,0.8965064883232117,-0.05890496447682381,0.006349933799356222,0.04121924564242363,-0.07879559695720673,-0.0009125718497671187,-0.10926373302936554,-0.03210853785276413,-0.06631817668676376,0.008724885992705822,-0.2330402284860611,-0.2183496356010437,-0.23279331624507904,0.038492970168590546,0.10378102213144302,0.03397349640727043,0.2599712312221527,0.38757088780403137,-0.22737868130207062,-0.016576040536165237,-0.18532216548919678,-0.3409727215766907,-0.12732908129692078,-0.1093757376074791,-0.0637839213013649,0.03398245945572853,0.09824544191360474,0.2320803999900818,0.061674077063798904,-0.03404450789093971,0.4454045593738556,-0.05364396423101425,-0.09947715699672699,-0.26869839429855347,-0.01410963386297226,0.024989962577819824,0.8809024095535278,0.123477041721344,-0.033026207238435745,-0.19303631782531738,0.11276251822710037,1.2548335790634155,0.2276686280965805,-0.055579282343387604,-0.025999894365668297,0.05284781754016876,0.35945606231689453,-0.9860741496086121,1.2134366035461426,0.09657247364521027,0.014251735992729664,-0.06407275795936584,-0.2751246988773346,-1.8349076509475708,0.7726274132728577,0.7727122902870178,0.3949868083000183,-0.029242131859064102,-0.11080151051282883,0.0874977558851242,-0.01362651027739048,0.1135021299123764,0.03624456003308296,0.2799554765224457,0.8065648078918457,-0.11529476940631866,0.07068188488483429,0.7137706875801086,-0.3485095500946045,-0.15395690500736237,-1.1290528774261475,0.7922601103782654,-0.36397942900657654,-0.16013750433921814,-0.16248175501823425,-0.03193847835063934,-0.20715492963790894,0.2527795732021332,2.465712070465088,0.13265939056873322,0.1297912299633026,0.0969250425696373,0.06781107187271118,-0.26631709933280945,1.5075982809066772,-0.1425887793302536,-0.27843618392944336,-0.1166604608297348,-0.26421454548835754,-0.23369072377681732,-0.33958956599235535,-0.010289800353348255,0.0696348026394844,0.08223748952150345,-0.09877539426088333,-0.012962662614881992,0.20461837947368622,0.017908986657857895,-0.04675639793276787,-0.05988968163728714,0.1704709380865097,0.019759349524974823,0.13717111945152283,0.02019249089062214,0.04360298067331314,0.15935562551021576,-0.018498282879590988,0.189973846077919,-0.4198155999183655,0.0030209056567400694,0.025047358125448227,0.030110929161310196,-0.04185306653380394,-0.083046555519104,0.010186693631112576,0.10853984951972961,0.054611291736364365,0.06703557074069977,0.10344841331243515,0.0017876292113214731,0.021557383239269257,0.11079408973455429,0.4096549153327942,0.17455582320690155,0.32035911083221436,0.13348150253295898,-0.04967724531888962,-0.1716245412826538,0.05451815575361252,0.4302156865596771,-0.06853225082159042,0.1622154712677002,0.2597239315509796,1.2779368162155151,-0.8642064332962036,-0.23078912496566772,1.036285638809204,-0.13238906860351562,0.2781250476837158,-0.08116690069437027,0.4827723801136017,0.5408772826194763,-1.123164415359497,0.8016035556793213,-0.9278191924095154,0.1232948824763298,0.0758303701877594,0.10789124667644501,0.14429035782814026,3.237692726543173e-05,-0.13814926147460938,-0.13671141862869263,-0.07847817242145538,-0.11477024108171463,-0.15610186755657196,-0.010013456456363201,0.1302856057882309,0.13411593437194824,0.10401580482721329,0.12939046323299408,0.18514348566532135,-0.04885388910770416,-0.21881282329559326,-0.0636490136384964,-0.023926852270960808,-0.09832026064395905,-0.055886127054691315,-0.06603361666202545,-0.5012258291244507,0.07873016595840454,0.04020304977893829,0.1189017966389656,0.06960297375917435,0.07288666814565659,0.7080169320106506,-0.09642107039690018,-0.07210341840982437,-0.13457700610160828,-0.17321933805942535,-0.23006866872310638,0.5029199719429016,-0.22519603371620178,-0.12899884581565857,-0.16265052556991577,-0.24766534566879272,-0.1750704050064087,0.18678510189056396,0.2476179450750351,0.12004896998405457,0.17218276858329773,0.25900623202323914,0.20503529906272888,-0.18579503893852234,-0.26866593956947327,-0.19656822085380554,-0.1759863942861557,-0.3020115792751312,-0.09270921349525452,0.33605462312698364,-0.06214866787195206,0.437131404876709,0.551154375076294,-0.3935711085796356,0.45902687311172485,-0.032770875841379166,0.6538799405097961,0.18123014271259308,-0.070527084171772,-0.07130393385887146,-0.04492548108100891,0.6126582622528076,1.0359344482421875,-0.6982482671737671,-0.47892192006111145,-0.2826501727104187,0.693504273891449,-0.19154079258441925,-0.12187057733535767,-0.12582793831825256,-0.14903268218040466,-0.09004709869623184,0.09858345985412598,0.16029898822307587,0.14415794610977173,0.17174814641475677,0.217779278755188,0.14750593900680542,-0.11351673305034637,0.1360858827829361,0.03736141324043274,0.2360856682062149,0.33473601937294006,0.3341723382472992,0.0777091234922409,-0.161406472325325,-0.12287518382072449,-0.11156757175922394,-0.1668970286846161,-0.142647847533226,-0.04746842011809349,0.520638108253479,0.12551043927669525,0.11554113775491714,0.17323172092437744,0.1374272257089615,0.01693720370531082,0.5380963087081909,-0.10541993379592896,-0.08046559989452362,-0.20240533351898193,-0.230308398604393,-0.22071553766727448,0.03325819596648216,0.02874520793557167,-0.034745827317237854,0.0272387582808733,0.05037350580096245,-0.03814896196126938,2.3129661083221436,-0.005014333873987198,0.01015334203839302,-0.04613470286130905,-0.05257544666528702,0.04893844574689865,0.5540756583213806,0.07626624405384064,-0.07211398333311081,-0.07976452261209488,0.03816772252321243,-0.09825541824102402,0.07236030697822571,0.4081207811832428,0.5921624898910522,-0.02940303087234497,-0.6407987475395203,0.22585681080818176,0.024330684915184975,0.32529348134994507,-0.8585657477378845,-0.5916109681129456,0.41340792179107666,-0.9040046334266663,0.9694654941558838,0.36384767293930054,-0.07388973981142044,-0.05803939700126648,-0.36093252897262573,-0.04141348972916603,0.07407768070697784,0.09265167266130447,-0.06278882175683975,-0.2633277177810669,-0.2627400755882263,-0.04090777412056923,-0.002341217128559947,0.04514075443148613,-0.04862106963992119,-0.15587298572063446,-0.1471036821603775,0.011742847971618176,0.5428885817527771,-0.018655017018318176,-0.21584336459636688,-0.2998795509338379,-0.19387240707874298,0.3765784800052643,0.21083210408687592,0.040395479649305344,0.04043181240558624,-0.07690593600273132,-0.026884611696004868,-0.005572333466261625,0.7478986382484436,-0.015639858320355415,-0.002322201384231448,-0.05814618244767189,-0.03512817621231079,0.004588245414197445,0.25466376543045044,-0.2793382406234741,-0.29136037826538086,-0.29956477880477905,-0.2651946246623993,0.09265467524528503,0.05669470876455307,-0.09270136803388596,0.06879657506942749,0.31158581376075745,0.286931574344635,0.02953716553747654,-0.03186501935124397,-0.05078107491135597,0.049818217754364014,0.1834854930639267,0.16442817449569702,-0.025775203481316566,-0.6621383428573608,-0.013365655206143856,0.21045784652233124,0.3291929066181183,0.29557105898857117,-0.46874067187309265,-0.17081917822360992,0.26087769865989685,-0.04426833242177963,0.01857798360288143,-0.47409385442733765,0.04639067500829697,0.12901751697063446,0.5877048373222351,-0.41362953186035156,-0.5280869603157043,0.29232338070869446,0.39490559697151184,1.2179251909255981,-0.15197955071926117,-0.4762367308139801,-0.03868231922388077,-0.14371086657047272,-0.03373603895306587,0.020614488050341606,-0.014459491707384586,-0.014764451421797276,-0.014847959391772747,-0.0468551404774189,-0.11997221410274506,-0.007254861760884523,0.001368934754282236,0.0038181617856025696,0.0044709667563438416,-0.0044110924936831,-0.030936498194932938,-0.1519719362258911,0.017205430194735527,0.02984805777668953,0.04685645550489426,0.0032844850793480873,-0.01132427528500557,-0.04483884200453758,-0.027631470933556557,-0.05944857746362686,0.007136486936360598,0.0450790598988533,0.1575649082660675,-0.2560863494873047,-0.010880271904170513,-0.01316740456968546,-0.026340026408433914,0.02861560881137848,0.03552993759512901,0.671963632106781,-0.04778340458869934,-0.02942715212702751,-0.19844046235084534,0.14688940346240997,0.07147393375635147,0.24011313915252686,0.036885716021060944,0.05393969267606735,0.022321974858641624,0.07416422665119171,0.22044873237609863,0.3173498809337616,0.002949196845293045,-0.001709610689431429,-0.01158223208039999,0.010881389491260052,0.03535531088709831,0.11059410125017166,-0.02796192839741707,-0.07950039207935333,-0.11490448564291,-0.016580471768975258,0.001840563490986824,0.2345581352710724,0.1720934361219406,0.003737758146598935,-0.17438532412052155,-0.02301023341715336,0.31026729941368103,0.18162749707698822,-2.817295148241937e-39,-1.7783494854967028e-38,1.3414250447097642e-38,4.066219220153002e-39,-8.835887466800134e-41,1.3150013200873768e-38,-1.47775681178454e-38,-2.426198352042738e-39,1.1669687108354889e-38,1.592990909440134e-38,1.223981519765469e-38,1.044011496823615e-38,-0.005522614810615778,-0.008031756617128849,-0.008606231771409512,-6.895505066495389e-05,0.0054662637412548065,-0.0035397151950746775,0.0005790238501504064,0.026334773749113083,-0.05886656418442726,-0.1749809980392456,-0.11645808815956116,0.009358121082186699,0.020211439579725266,-0.03318274766206741,-0.02465757541358471,0.0015119522577151656,-0.0014358232729136944,-0.006230275612324476,-0.013396217487752438,-0.014162242412567139,-0.011689847335219383,-0.009776761755347252,-0.023976096883416176,-0.03877820447087288,-0.0037304647266864777,0.07785236835479736,0.11010970175266266,0.075590118765831,0.03780274838209152,0.00237824278883636,-0.017314450815320015,-0.009054903872311115,0.004279671236872673,0.014946801587939262,0.01672176644206047,0.017757846042513847,0.004335711244493723,0.017347922548651695,0.014745716005563736,0.025229191407561302,0.03929140418767929,0.04260817542672157,0.010054889135062695,-0.0797002911567688,-0.06198735907673836,0.02726399339735508,0.036276545375585556,0.007017684634774923,-0.15655532479286194,0.01063530147075653],"sample_rate":48000.0}},{"max_value":1.0,"model":{"version":"0.7.0","metadata":{"date":{"year":2026,"month":5,"day":7,"hour":15,"minute":15,"second":47},"loudness":-17.048999786376953,"gain":0.8091786595768796},"architecture":"WaveNet","config":{"layers":[{"input_size":1,"condition_size":1,"head":{"out_channels":1,"kernel_size":16,"bias":true},"channels":8,"kernel_sizes":[6,6,6,6,6,6,6,6,6,6,6,6,6,6,15,15,6,6,6,6,6,6,6],"dilations":[1,3,7,17,41,101,239,1,3,7,17,41,101,239,1,13,1,3,7,17,41,101,239],"activation":[{"type":"LeakyReLU","negative_slope":0.01},{"type":"LeakyReLU","negative_slope":0.01},{"type":"LeakyReLU","negative_slope":0.01},{"type":"LeakyReLU","negative_slope":0.01},{"type":"LeakyReLU","negative_slope":0.01},{"type":"LeakyReLU","negative_slope":0.01},{"type":"LeakyReLU","negative_slope":0.01},{"type":"LeakyReLU","negative_slope":0.01},{"type":"LeakyReLU","negative_slope":0.01},{"type":"LeakyReLU","negative_slope":0.01},{"type":"LeakyReLU","negative_slope":0.01},{"type":"LeakyReLU","negative_slope":0.01},{"type":"LeakyReLU","negative_slope":0.01},{"type":"LeakyReLU","negative_slope":0.01},{"type":"LeakyReLU","negative_slope":0.01},{"type":"LeakyReLU","negative_slope":0.01},{"type":"LeakyReLU","negative_slope":0.01},{"type":"LeakyReLU","negative_slope":0.01},{"type":"LeakyReLU","negative_slope":0.01},{"type":"LeakyReLU","negative_slope":0.01},{"type":"LeakyReLU","negative_slope":0.01},{"type":"LeakyReLU","negative_slope":0.01},{"type":"LeakyReLU","negative_slope":0.01}],"bottleneck":8,"head1x1":{"active":false,"out_channels":1,"groups":1},"layer1x1":{"active":true,"groups":1},"groups_input":1,"groups_input_mixin":1,"conv_pre_film":{"active":false,"shift":true,"groups":1},"conv_post_film":{"active":false,"shift":true,"groups":1},"input_mixin_pre_film":{"active":false,"shift":true,"groups":1},"input_mixin_post_film":{"active":false,"shift":true,"groups":1},"activation_pre_film":{"active":false,"shift":true,"groups":1},"activation_post_film":{"active":false,"shift":true,"groups":1},"layer1x1_post_film":{"active":false,"shift":true,"groups":1},"head1x1_post_film":{"active":false,"shift":true,"groups":1},"gating_mode":["none","none","none","none","none","none","none","none","none","none","none","none","none","none","none","none","none","none","none","none","none","none","none"],"secondary_activation":[null,null,null,null,null,null,null,null,null,null,null,null,null,null,null,null,null,null,null,null,null,null,null],"slimmable":null}],"head":null,"head_scale":0.010635301285719866},"weights":[-2.096951484680176,-2.2595009803771973,-2.0497472286224365,2.1591110229492188,-2.179989814758301,-1.354056715965271,2.441570997238159,2.646904230117798,0.1271580457687378,0.0459737703204155,0.07565942406654358,0.2806786894798279,0.6608937382698059,0.6351014971733093,0.15154947340488434,0.1247563436627388,0.050021279603242874,0.2958029806613922,0.734315812587738,0.6900590062141418,0.11258331686258316,0.018734481185674667,0.035152506083250046,0.2439306676387787,0.5837016701698303,0.5764021277427673,-0.1610347330570221,-0.10824853181838989,-0.11718165129423141,-0.26877936720848083,-0.6317779421806335,-0.615400493144989,0.15053066611289978,0.08408523350954056,0.10233209282159805,0.26490843296051025,0.7046425342559814,0.6369868516921997,0.12270502001047134,0.04976583272218704,0.08491948246955872,0.2526947855949402,0.4749419689178467,0.48144975304603577,-0.11676832288503647,-0.07512480020523071,-0.07406054437160492,-0.2838576138019562,-0.7566088438034058,-0.6929084658622742,-0.1926390677690506,-0.011045693419873714,-0.14298011362552643,-0.32050803303718567,-0.7720410823822021,-0.6812593936920166,0.2996327579021454,0.20657020807266235,0.41978320479393005,0.17931893467903137,-0.8266974687576294,-0.3009919822216034,0.3211123049259186,0.2728114128112793,0.4486374855041504,0.23334670066833496,-0.7819007635116577,-0.24287240207195282,0.21914935111999512,0.27935275435447693,0.4163697361946106,0.026507338508963585,-0.8079598546028137,-0.18915390968322754,-0.35923296213150024,-0.2350829541683197,-0.44311171770095825,-0.08610659837722778,0.7171931862831116,0.15727722644805908,0.22343961894512177,0.1610339730978012,0.36965081095695496,0.07186320424079895,-0.6648496389389038,-0.26878833770751953,0.24215319752693176,0.2681472897529602,0.2002916783094406,0.02475694753229618,-0.7314360737800598,-0.13092133402824402,-0.24287547171115875,-0.24527607858181,-0.3842843770980835,-0.052588120102882385,0.7391542196273804,0.25817546248435974,-0.367931067943573,-0.2811708152294159,-0.3341951370239258,0.0016326815821230412,0.888878583908081,0.2628234624862671,-0.16255207359790802,-0.1043422520160675,-0.24534431099891663,-0.07616506516933441,0.4730437099933624,0.24053166806697845,-0.09844531863927841,-0.13762344419956207,-0.2752033770084381,-0.18213661015033722,0.5728108882904053,0.2395414412021637,-0.10506388545036316,-0.16959570348262787,-0.2790337800979614,-0.034135475754737854,0.5707010626792908,0.2845260500907898,0.05189036950469017,0.10971873998641968,0.3220243752002716,0.08920621871948242,-0.5622326731681824,-0.23561681807041168,-0.19329507648944855,-0.13316459953784943,-0.2714068293571472,-0.09337878972291946,0.4854305386543274,0.2482387274503708,-0.13674528896808624,-0.1603914499282837,-0.19583044946193695,-0.012692110612988472,0.3896505832672119,0.1640157550573349,0.060357388108968735,0.23083673417568207,0.35847821831703186,0.01605352759361267,-0.49968624114990234,-0.2526230812072754,0.20888651907444,0.1058061495423317,0.3149394392967224,0.05098138377070427,-0.6352328658103943,-0.26124024391174316,-0.03836116939783096,0.19558897614479065,-0.14789777994155884,-0.18884055316448212,0.20838995277881622,-0.029139509424567223,-0.04003540053963661,0.22382934391498566,-0.16973794996738434,-0.21726791560649872,0.23132313787937164,-0.03459838405251503,-0.04148640111088753,0.2052469253540039,-0.15344952046871185,-0.1939375251531601,0.20997439324855804,-0.030262060463428497,0.0392523892223835,-0.20098984241485596,0.15459375083446503,0.19470474123954773,-0.21202287077903748,0.030419157817959785,-0.03433528542518616,0.22351635992527008,-0.16220338642597198,-0.2159148007631302,0.23589473962783813,-0.03814726322889328,-0.03020862117409706,0.1446267068386078,-0.10895374417304993,-0.13594549894332886,0.16119959950447083,-0.02257169969379902,0.047409992665052414,-0.23874175548553467,0.18224169313907623,0.23515933752059937,-0.2518245577812195,0.03355276212096214,0.05884053185582161,-0.3278025686740875,0.2104496955871582,0.3055413067340851,-0.31295979022979736,0.03577275946736336,-0.46122613549232483,-0.18179379403591156,-0.25663816928863525,0.03625928610563278,0.5412273406982422,0.28531786799430847,-0.2746313810348511,-0.3130831718444824,-0.37739643454551697,0.006650756113231182,0.6587262749671936,0.2807723581790924,-0.45275750756263733,-0.22110004723072052,-0.2645217478275299,0.015075256116688251,0.602246105670929,0.32544776797294617,0.26735350489616394,0.22604753077030182,0.33518117666244507,0.05979497730731964,-0.6109816431999207,-0.3128647804260254,-0.3709467053413391,-0.28361812233924866,-0.2042422890663147,0.028219085186719894,0.6416661143302917,0.41265925765037537,-0.3302057087421417,-0.2991598844528198,-0.2101573348045349,0.04213293641805649,0.5767143368721008,0.35660988092422485,0.4170127511024475,0.26198825240135193,0.2873670756816864,0.08604902029037476,-0.6659034490585327,-0.25892335176467896,0.3970799446105957,0.27301517128944397,0.2391323447227478,0.0574992336332798,-0.5216517448425293,-0.4419674277305603,-0.21066251397132874,-0.07409787178039551,-0.1708327978849411,-0.4301333725452423,-0.8331508636474609,-0.7960956692695618,-0.21192286908626556,-0.08717554807662964,-0.16493725776672363,-0.40039369463920593,-0.9367971420288086,-0.8748860359191895,-0.16665861010551453,-0.1511654257774353,-0.09601931273937225,-0.4501206874847412,-0.8947151899337769,-0.8006292581558228,0.20412229001522064,0.13830766081809998,0.08997856080532074,0.4035320580005646,0.9058912992477417,0.8485360741615295,-0.2547869086265564,-0.10814818739891052,-0.13702164590358734,-0.47307494282722473,-0.8463917970657349,-0.8388257026672363,-0.18716701865196228,-0.06129505857825279,-0.10626007616519928,-0.31930604577064514,-0.6778811812400818,-0.6855753660202026,0.2376658022403717,0.14532895386219025,0.16649124026298523,0.4074546694755554,0.9407126903533936,0.9427593350410461,0.19676701724529266,0.07707451283931732,0.08312395960092545,0.4716545641422272,1.0083725452423096,0.9332848787307739,0.021985536441206932,-0.0647955983877182,-0.1381089985370636,0.0030078545678406954,0.28444376587867737,0.1590977907180786,0.017615754157304764,-0.09047806262969971,-0.16569648683071136,-0.024420298635959625,0.32994577288627625,0.20227128267288208,-0.0239973496645689,-0.08628930151462555,-0.12599509954452515,-0.03045772947371006,0.296125203371048,0.20459721982479095,0.006960386410355568,0.04991161450743675,0.17248015105724335,0.023078178986907005,-0.28317558765411377,-0.1576310694217682,0.02693525329232216,-0.12432914972305298,-0.14773499965667725,-0.04978017881512642,0.33528298139572144,0.16012851893901825,0.042004477232694626,-0.07495591044425964,-0.10436578840017319,-0.005049426108598709,0.21126890182495117,0.15669766068458557,0.002686610445380211,0.037535469979047775,0.1299016773700714,0.06024675443768501,-0.32485631108283997,-0.2132130265235901,-0.008706459775567055,0.10868005454540253,0.16712819039821625,0.029207106679677963,-0.4063819646835327,-0.1977316290140152,0.15300458669662476,0.1427849531173706,0.12541012465953827,0.2819698452949524,0.5950827598571777,0.511299729347229,0.171644389629364,0.09153387695550919,0.047301240265369415,0.3017064034938812,0.5818247199058533,0.5739309787750244,0.14804868400096893,0.09264551848173141,0.07573060691356659,0.25772011280059814,0.6256391406059265,0.6021011471748352,-0.19977281987667084,-0.15603011846542358,-0.061633624136447906,-0.30168986320495605,-0.5668962597846985,-0.5570136308670044,0.13743498921394348,0.1256180852651596,0.047294896095991135,0.2916114330291748,0.6561471819877625,0.627859354019165,0.14437370002269745,0.06826132535934448,0.09917694330215454,0.25235578417778015,0.4776645004749298,0.43471553921699524,-0.2074146419763565,-0.16947267949581146,-0.12736555933952332,-0.30052557587623596,-0.6114310026168823,-0.57810378074646,-0.14700548350811005,-0.15372028946876526,-0.04822016507387161,-0.32960188388824463,-0.7272693514823914,-0.710986316204071,0.18224768340587616,0.46886828541755676,0.6903386116027832,-0.0019678452517837286,0.32448333501815796,-0.25154000520706177,0.33366337418556213,0.18118023872375488,-0.5824453830718994,0.11761927604675293,0.26026633381843567,0.04629584029316902,0.034995757043361664,0.5168042778968811,-0.20475782454013824,-0.3627632260322571,-0.08658989518880844,-0.1928001195192337,0.1615314781665802,-0.285566121339798,-0.011750456877052784,-0.10073164105415344,0.08860134333372116,0.19025318324565887,0.16081421077251434,-0.4746610224246979,0.6642528772354126,0.3808267414569855,0.6214742064476013,0.03766597807407379,-0.0636226162314415,-0.21197348833084106,0.04956001043319702,0.15784215927124023,-0.046287961304187775,-0.2027357816696167,0.11625727266073227,-0.09007900953292847,0.07960329204797745,0.10357311367988586,0.021103328093886375,0.23511828482151031,0.09014773368835449,-0.5058934092521667,-0.24289768934249878,0.19568805396556854,0.22712469100952148,0.14312592148780823,0.4996480643749237,-0.3347889482975006,0.35024136304855347,0.005580365192145109,0.1304645836353302,-0.7539926767349243,0.08378911763429642,0.5506871938705444,-0.058786485344171524,1.1113463640213013,-0.536648154258728,-0.6063013672828674,-0.9797802567481995,0.09116823226213455,-0.1886870414018631,-0.16844618320465088,-0.37228262424468994,0.27991002798080444,-0.13751208782196045,0.3287063539028168,-0.6025185585021973,0.38928502798080444,-0.13897378742694855,-0.24568043649196625,-0.7855059504508972,0.854758620262146,-0.26167014241218567,0.005749210249632597,-0.8740270137786865,1.01633882522583,-0.4638131856918335,-0.6543892025947571,0.21349363029003143,0.6266096830368042,0.3874322474002838,0.42793357372283936,0.21331922709941864,0.29914015531539917,-0.22651830315589905,-0.13573412597179413,-0.04107687249779701,-0.07082707434892654,-0.06636594235897064,-0.07825937867164612,-0.11467400193214417,0.0064657265320420265,-0.05335024744272232,0.10067225247621536,0.10818864405155182,0.10802846401929855,0.06829969584941864,0.06035030260682106,0.03220711275935173,0.033709682524204254,-0.011904818005859852,-0.041645586490631104,-0.06512200087308884,0.05849399045109749,-0.05544675514101982,-0.17524096369743347,-0.08643906563520432,-0.03125905245542526,-0.09636199474334717,-0.11916034668684006,0.04553931951522827,-0.019110172986984253,-0.09798046201467514,-0.006787265185266733,-0.21659795939922333,0.007512141019105911,0.00575209129601717,-0.09946176409721375,-0.180100679397583,-0.22894719243049622,-0.10047456622123718,-0.04143870621919632,-0.08977369964122772,-0.028121482580900192,-0.04542097449302673,0.008920866996049881,0.0775061771273613,-0.09551046043634415,-0.0984247699379921,-0.0005186075577512383,0.013951913453638554,-0.0604187548160553,0.20408974587917328,-0.10198774933815002,-0.14703424274921417,-0.06678927689790726,-0.1264164000749588,-0.1240866556763649,0.07362537086009979,0.17627817392349243,0.09585173428058624,-0.11885738372802734,-0.057302817702293396,-0.08728770166635513,0.029482530429959297,0.06816449761390686,-0.16949112713336945,-0.13343849778175354,-0.12870389223098755,-0.08100545406341553,0.030561337247490883,0.21705615520477295,0.06337611377239227,-0.033954646438360214,-0.04629503935575485,-0.05592203885316849,-0.024328434839844704,-0.1476573348045349,-0.2027014046907425,-0.11184704303741455,-0.16930557787418365,-0.16008663177490234,-0.02158518135547638,0.24293555319309235,-0.3246985673904419,-0.058705445379018784,-0.08557826280593872,-0.15995247662067413,0.022558126598596573,0.012012680061161518,0.2177157700061798,0.02800268679857254,0.17803190648555756,0.007901354692876339,-0.02938474901020527,-0.23311780393123627,0.07634469121694565,0.13109000027179718,0.1825476884841919,0.18745584785938263,-0.07131774723529816,-0.2326929271221161,-0.06354324519634247,-0.07311346381902695,-0.059662915766239166,-0.009357748553156853,-0.042905040085315704,-0.13628286123275757,-0.43635907769203186,-0.2213820517063141,-0.33914420008659363,-0.2807249128818512,-0.30266043543815613,-0.39781177043914795,-0.025008145719766617,-0.06006164848804474,-0.08765934407711029,-0.07587318867444992,-0.1252070516347885,-0.16260837018489838,-0.0678010955452919,-0.1309460550546646,-0.06401227414608002,-0.023648198693990707,-0.06813573092222214,0.02978488989174366,0.03695635497570038,0.09919419139623642,0.002157205482944846,0.03983353078365326,-0.049316614866256714,-0.27487021684646606,0.23174065351486206,-0.14634624123573303,-0.15001779794692993,-0.1834370195865631,-0.20985089242458344,-0.02032141201198101,-0.057341862469911575,0.004939711187034845,-0.028055820614099503,-0.06935128569602966,0.00819347519427538,0.22430016100406647,-0.19068676233291626,-0.03789174184203148,-0.14830328524112701,-0.038887012749910355,0.0220777690410614,0.1818981021642685,-0.01980694755911827,0.001631296705454588,-0.04962685704231262,-0.05090196430683136,-0.05620790272951126,0.014014160260558128,-0.11130864918231964,-0.15468688309192657,-0.1300528645515442,-0.12293988466262817,-0.07136448472738266,-0.04825083538889885,-0.11068752408027649,-0.10091446340084076,-0.08883479237556458,-0.07776530832052231,-0.05934777855873108,0.013383841142058372,-0.09039893001317978,0.003683686489239335,0.03210810199379921,-0.14407169818878174,-0.023207567632198334,0.10299669206142426,-0.048324473202228546,0.041239578276872635,-0.11158307641744614,-0.11617550998926163,0.02019994705915451,0.226803719997406,-0.1392032653093338,-0.15891040861606598,-0.1041877344250679,-0.12039108574390411,-0.17859172821044922,-0.059988949447870255,0.16954952478408813,0.09092851728200912,0.1587103307247162,0.06633098423480988,0.07654649764299393,-0.10818363726139069,0.04980364814400673,-0.05859455093741417,0.04413948580622673,0.10652551054954529,-0.06268002837896347,-0.21044059097766876,0.10999651253223419,0.03927496448159218,0.06388961523771286,0.029455576092004776,0.0984262228012085,-0.2995592951774597,-0.18441490828990936,0.17789852619171143,-0.012343326583504677,0.009855617769062519,0.04140429571270943,0.1325504034757614,-0.047048330307006836,0.08088324964046478,0.13880108296871185,0.06472303718328476,0.02716285176575184,-0.25175321102142334,0.04090464487671852,-0.08962235599756241,0.0649077296257019,0.14970983564853668,0.09485545754432678,0.1608617603778839,0.13532200455665588,0.09446907043457031,0.039834585040807724,-0.022753285244107246,0.0889119952917099,-0.20641188323497772,0.284241646528244,0.14821836352348328,0.12943679094314575,0.06720031797885895,-0.006068732589483261,0.4775373041629791,-0.04656749963760376,-0.0802338495850563,-0.07542054355144501,-0.108883336186409,0.01615503989160061,0.14968529343605042,-0.0896369069814682,-0.16982348263263702,-0.18487583100795746,-0.07541617006063461,0.11028305441141129,0.37900498509407043,0.11031588166952133,0.17387768626213074,0.23180508613586426,0.07186958193778992,-0.03337683901190758,-0.10248609632253647,-0.01549859344959259,-0.08732171356678009,-0.015384117141366005,0.015050267800688744,0.006772295571863651,0.0831010490655899,0.17897985875606537,0.07601137459278107,0.10929638147354126,-0.03880322352051735,-0.0024624387733638287,-0.19837601482868195,-0.033139538019895554,-0.0034425859339535236,0.03133575618267059,0.06247236207127571,0.03550488129258156,0.1332956999540329,0.048293597996234894,0.16999505460262299,0.09955526888370514,0.18076543509960175,0.06815572082996368,0.02062629535794258,0.36234980821609497,0.17138487100601196,0.22404389083385468,0.41874489188194275,0.37054261565208435,0.43823984265327454,-0.09058772027492523,-0.018483856692910194,-0.1072324886918068,-0.17062340676784515,-0.11875550448894501,0.18594390153884888,-0.10367590934038162,-0.15666231513023376,-0.20244799554347992,-0.14975105226039886,0.0897444635629654,0.24987077713012695,0.017728291451931,0.030901692807674408,0.03049677051603794,0.07119955867528915,-0.08067607134580612,-0.12425971776247025,-0.06801076978445053,-0.07438401132822037,-0.153494730591774,-0.13179084658622742,-0.05593029782176018,0.0015886015025898814,-0.11307355016469955,-0.029990192502737045,-0.04383864626288414,0.03501461073756218,0.011500963009893894,-0.05469430610537529,0.03778061643242836,-0.025450551882386208,0.02748343162238598,-0.10619770735502243,-0.026743637397885323,0.147679403424263,-0.07196284085512161,-0.03412822261452675,-0.010242343880236149,0.19918759167194366,-0.023171517997980118,-0.24868640303611755,-0.17911165952682495,0.008864747360348701,0.0788821205496788,0.09085953235626221,0.028418399393558502,-0.07264694571495056,0.0806017816066742,0.04493514075875282,-0.008569473400712013,-0.15490218997001648,-0.02668897435069084,0.10225094854831696,-0.003042749594897032,0.009145875461399555,-0.061184387654066086,-0.2568458020687103,-0.009643986821174622,0.13197192549705505,0.12245272845029831,0.026578806340694427,0.128889262676239,-0.04347854480147362,-0.13963474333286285,-0.30279844999313354,0.0025565633550286293,0.010762863792479038,-0.006994947325438261,-0.11560923606157303,-0.09126292914152145,0.06914986670017242,0.10720085352659225,0.07245975732803345,0.14650848507881165,0.027775932103395462,-0.07078980654478073,-0.05175860598683357,0.2864556908607483,0.06810460239648819,0.09181008487939835,0.09937459975481033,0.1060107946395874,0.20853866636753082,-0.027110565453767776,0.014754805713891983,0.0733734741806984,0.12246781587600708,0.043814271688461304,-0.18662144243717194,0.011937836185097694,0.13264863193035126,0.18168100714683533,0.2674090266227722,0.3075527846813202,0.561537504196167,-0.048978641629219055,0.028207819908857346,-0.12684045732021332,0.046473097056150436,0.01706402748823166,-0.001307307044044137,-0.11330292373895645,0.005425387993454933,0.021025029942393303,-0.1204153373837471,-0.10317312180995941,-0.02138347737491131,-0.11024778336286545,-0.04988894984126091,-0.3603511452674866,-0.18117664754390717,-0.01356554962694645,-0.009906229563057423,-0.16463881731033325,0.23233731091022491,-0.022504784166812897,-0.30201268196105957,-0.00922814104706049,-0.009254176169633865,0.8354504108428955,0.39818739891052246,0.013105765916407108,0.24410711228847504,-0.2521081566810608,0.375776082277298,0.07322636246681213,0.19949312508106232,-0.1605912297964096,-0.25779446959495544,-0.2456740289926529,-0.2523423731327057,0.01257681380957365,0.1373208910226822,0.06569378823041916,-0.18751908838748932,-0.3240870535373688,-0.1717885285615921,-0.09815989434719086,0.2280891388654709,-0.22177754342556,-0.17973436415195465,-0.0831541195511818,-0.03960687294602394,0.1821209192276001,0.19480107724666595,-0.15597514808177948,-0.08524774014949799,-0.3784678876399994,0.18908840417861938,-0.17757506668567657,-0.1857074350118637,0.08539438992738724,0.09170971065759659,0.02378089912235737,0.13193032145500183,0.4340744614601135,0.29150164127349854,0.20372600853443146,0.2640506625175476,0.12401340156793594,-0.4160972237586975,-0.1304035633802414,0.04175742715597153,0.022276459261775017,-0.23754598200321198,-0.3470645248889923,0.030916204676032066,0.12700556218624115,0.2597116529941559,-0.0015589320100843906,0.05520201474428177,0.29572615027427673,-0.16470739245414734,-0.16146795451641083,-0.13710139691829681,-0.1265896111726761,0.07240848988294601,0.2610282897949219,0.220916286110878,0.06507185101509094,-0.048244647681713104,-0.3803146481513977,-0.07380714267492294,0.40891942381858826,-0.014311379753053188,0.2686154544353485,0.22280776500701904,0.3474414050579071,0.364521324634552,0.22732019424438477,0.26089468598365784,-0.3277294635772705,-0.2496979683637619,0.08400756865739822,0.029180370271205902,0.08683697879314423,-0.08302679657936096,-0.0766339898109436,-0.19320273399353027,-0.2558339536190033,-0.38506385684013367,0.0715266615152359,0.07699170708656311,-0.02034059539437294,-0.06201743334531784,0.07080842554569244,0.02996862679719925,0.05262067914009094,0.06927726417779922,0.025442562997341156,0.035723645240068436,0.1298845410346985,0.1831190437078476,0.18016135692596436,0.08557896316051483,-0.025802846997976303,0.1985420286655426,0.20221111178398132,0.13113777339458466,0.001020093448460102,-0.00036949897184967995,-0.05499893054366112,-0.044472116976976395,-0.1090138852596283,0.10806386172771454,-0.006533745210617781,0.03367394581437111,0.1356433629989624,0.0016425709472969174,0.19927462935447693,0.18362389504909515,0.0508258230984211,0.016387108713388443,0.08816666901111603,0.05236445367336273,-0.005069495644420385,0.014349049888551235,0.11686834692955017,0.14516891539096832,0.07573933899402618,0.11897455155849457,0.06611839681863785,-0.17256475985050201,-0.1948089748620987,-0.07203690707683563,0.1524338275194168,0.039071906358003616,0.21811529994010925,-0.0631561204791069,0.06915096938610077,0.07923274487257004,-0.03585917875170708,0.04450404644012451,0.12009034305810928,0.14749234914779663,0.1716267466545105,0.07109835743904114,0.20821808278560638,-0.027149386703968048,0.08281147480010986,-0.16460728645324707,0.26595553755760193,0.11917712539434433,0.18803828954696655,0.20554491877555847,0.24109072983264923,0.2759720981121063,0.08287937939167023,0.2683967649936676,0.12780088186264038,0.11007247120141983,-0.06048056483268738,-0.406509131193161,0.014828542247414589,0.0339079312980175,-0.031748220324516296,-0.21231597661972046,-0.13626304268836975,0.04896719753742218,-0.05706676095724106,-0.19413071870803833,-0.0969972237944603,-0.25697261095046997,-0.11764944344758987,0.17139902710914612,-0.18746405839920044,-0.09164216369390488,-0.2560185194015503,-0.056638095527887344,-0.02693869359791279,0.32719266414642334,-0.1253543496131897,-0.0870782732963562,-0.12932494282722473,-0.14820602536201477,-0.02396981604397297,-0.030391957610845566,-0.031678322702646255,0.03996026888489723,0.026922697201371193,0.09773504734039307,-0.03099454753100872,-0.009640316478908062,0.08152317255735397,0.16617758572101593,0.1488191932439804,0.11539699137210846,0.19132445752620697,0.1512729823589325,0.12782436609268188,0.2024773806333542,0.14425994455814362,0.17880193889141083,0.023591816425323486,0.08823934197425842,-0.06175607442855835,0.06276074051856995,0.16202789545059204,-0.057028476148843765,0.1427103728055954,-0.19062161445617676,-0.030880015343427658,-0.05596787482500076,0.1458054482936859,0.07297865301370621,0.24308815598487854,0.37918442487716675,-0.034455712884664536,-0.030353017151355743,-0.07545673847198486,-0.2729493975639343,-0.09478213638067245,-0.029355889186263084,-0.15274500846862793,-0.07952941209077835,-0.20498664677143097,-0.152708038687706,-0.17827174067497253,0.24107131361961365,-0.010280131362378597,-0.012957034632563591,-0.08637791126966476,-0.09682594984769821,0.022752242162823677,0.07026462256908417,-0.06733520328998566,-0.009354816749691963,-0.1327337622642517,-0.021366586908698082,-0.09374639391899109,-0.14109903573989868,0.002499418333172798,-0.053194671869277954,-0.06422581523656845,-0.01791691780090332,-0.09650316089391708,0.0063388654962182045,-0.014254024252295494,-0.04047092795372009,-0.09155475348234177,-0.11335057020187378,-0.06033133715391159,-0.016158336773514748,-0.03431263566017151,0.023701095953583717,0.041101012378931046,-0.03722384572029114,0.13916361331939697,0.18654948472976685,0.002167440252378583,0.05659649148583412,-0.04493235424160957,-0.05167234316468239,0.0010989272268489003,0.08489888161420822,-0.008380135521292686,0.034436166286468506,0.03274229168891907,0.01981990784406662,0.003313561901450157,-0.07410626858472824,-0.037785932421684265,-0.03787807747721672,-0.0012476088013499975,0.07759442180395126,0.07237662374973297,-0.0838862732052803,-0.0692552775144577,-0.02055460214614868,0.06960191577672958,-0.0003704504924826324,-0.013819982297718525,0.058244094252586365,-0.03336877375841141,0.028062853962183,0.14949066936969757,0.03796463459730148,0.1324678510427475,-0.08834492415189743,-0.027946623042225838,0.034430671483278275,-0.021269503980875015,-0.08521983027458191,-0.06576520949602127,-0.20724064111709595,0.02451009303331375,-0.11866779625415802,0.01786046475172043,-0.051197800785303116,-0.013080091215670109,-0.1222379133105278,0.11766797304153442,0.05047570541501045,-0.03589289262890816,0.09376309812068939,0.06098932400345802,0.14865490794181824,0.08767422288656235,-0.08846195042133331,-0.13568010926246643,-0.27281877398490906,-0.18688194453716278,0.11406675726175308,0.10162048041820526,-0.03357521817088127,0.001247749081812799,-0.08775906264781952,-0.12470302730798721,0.14730511605739594,-0.13380247354507446,-0.07353705167770386,-0.02817017212510109,0.0818769782781601,0.2477472573518753,0.11025801301002502,0.282817006111145,0.05581928789615631,0.15365946292877197,-0.005719427950680256,0.029442479833960533,0.26120316982269287,-0.1820226013660431,-0.25362762808799744,-0.034726910293102264,-0.14464102685451508,-0.1800852119922638,-0.14584623277187347,-0.37794598937034607,-0.25574928522109985,-0.35497209429740906,-0.33557000756263733,-0.3684273064136505,-0.2256443202495575,0.07853451371192932,-0.05851996690034866,-0.08543377369642258,-0.12362674623727798,-0.14838825166225433,-0.14151814579963684,-0.08587095141410828,-0.08626886457204819,-0.20511746406555176,-0.0946238785982132,0.045648738741874695,0.6494888067245483,-0.04234002158045769,-0.0956559106707573,-0.02778220735490322,-0.030232464894652367,0.01093593705445528,-0.1485961526632309,0.05957667529582977,0.12911440432071686,0.07658807933330536,0.05175769701600075,-0.021559059619903564,-0.5786340832710266,0.06083451583981514,0.007140737492591143,0.07682417333126068,0.030361343175172806,0.040939927101135254,-0.4907602071762085,0.1271827518939972,0.06283915787935257,0.02408907748758793,0.014369784854352474,0.16854393482208252,-0.01345343142747879,0.13421612977981567,0.18508055806159973,0.2130425125360489,0.3181055188179016,0.21285343170166016,0.32478538155555725,0.0528113916516304,0.20666508376598358,0.12608861923217773,0.06236174330115318,0.09105175733566284,0.3815344274044037,0.26997265219688416,0.2333444207906723,0.1858467161655426,0.2616410553455353,0.3006640672683716,0.24910429120063782,-0.004792902618646622,-0.11105982959270477,-0.2647895812988281,-0.15656554698944092,-0.1812322437763214,0.3065049350261688,-0.1769588142633438,-0.2090466171503067,-0.327343225479126,-0.034726835787296295,-0.01852715201675892,-0.3739177882671356,0.08899581432342529,-0.024098480120301247,0.10992146283388138,-0.004826821386814117,0.1382349729537964,-0.2806958854198456,0.14472205936908722,0.1968381255865097,0.10318896174430847,0.1356082558631897,0.03399877995252609,-0.40266719460487366,0.12572427093982697,0.008217329159379005,-0.042733218520879745,-0.0482647567987442,-0.2093794047832489,0.10670490562915802,0.09976403415203094,-0.011890888214111328,-0.0789533331990242,-0.016973989084362984,0.14635947346687317,0.13259321451187134,-0.055793646723032,-0.0012184570077806711,0.02235640585422516,-0.05633588880300522,0.13295979797840118,0.23271167278289795,0.11439613252878189,-0.07047273963689804,0.06609805673360825,0.10615545511245728,0.15240755677223206,0.04158381372690201,-0.04892769083380699,-0.05065913125872612,-0.22025078535079956,-0.145952969789505,0.00446909898892045,0.2446228414773941,-0.06421022117137909,-0.04334406554698944,-0.21184107661247253,-0.06997369229793549,-0.007459182292222977,-0.06584319472312927,0.12653352320194244,0.12462753057479858,0.03413086757063866,0.08302498608827591,0.09600410610437393,-0.22555020451545715,0.11926095187664032,0.1318444460630417,0.12274754047393799,0.10059698671102524,0.062284205108881,-0.4815128743648529,0.1409168541431427,0.09128472954034805,0.13858358561992645,-0.02166786976158619,-0.02713584154844284,-0.4616694450378418,0.046024199575185776,0.12789791822433472,-0.07001893222332001,0.5608494877815247,0.12088634073734283,-0.0011281095212325454,-0.001351349987089634,-0.07466820627450943,-0.19309000670909882,-0.4343084692955017,0.03880814462900162,0.176370769739151,-0.07343827933073044,0.12471164762973785,-0.06929685175418854,-0.23878566920757294,-0.1596662849187851,0.12160277366638184,-0.33812958002090454,-0.07686365395784378,0.13117961585521698,0.1803220808506012,0.05681553855538368,-0.2391403764486313,0.09248319268226624,0.16537556052207947,-0.16028660535812378,0.33684685826301575,-0.2389475405216217,-0.1371348649263382,-0.19404710829257965,0.25478118658065796,-0.20849430561065674,-0.12715166807174683,-0.0593995675444603,-0.03871917352080345,-0.026298802345991135,-0.13716743886470795,0.061467286199331284,0.14411336183547974,-0.10770701617002487,-0.00017838427447713912,0.34247779846191406,-0.3216744661331177,-0.043393466621637344,-0.3178068995475769,0.2540781497955322,-0.5087786912918091,-0.02160635031759739,0.4350977838039398,0.47342488169670105,-0.06702664494514465,-0.08210355788469315,-0.09744907170534134,-0.06552892178297043,0.37418055534362793,-0.10665073990821838,-0.19099120795726776,-0.11685281991958618,0.4677271842956543,0.1831902414560318,0.15421582758426666,-0.22991421818733215,0.6302801370620728,-0.16692574322223663,-0.25113874673843384,-0.15938688814640045,0.3310336768627167,0.32780030369758606,0.09331848472356796,-0.3496069610118866,0.7205793857574463,-0.4246293008327484,0.017103495076298714,0.37167245149612427,0.31218090653419495,-0.18509478867053986,0.22561058402061462,-0.07511235773563385,0.45231321454048157,-0.11363402754068375,-0.09008429944515228,0.013415287248790264,0.06705549359321594,0.10254514217376709,0.08622202277183533,0.092481330037117,0.2753322720527649,0.0557146780192852,-0.06296084076166153,-0.03964909166097641,-0.04593536630272865,-0.11674521863460541,-0.02332727424800396,0.031143242493271828,-0.01717015914618969,-0.04747384414076805,-0.05478348210453987,-0.1799156665802002,-0.056063953787088394,0.05668757110834122,0.03326205164194107,0.0559876523911953,0.20028819143772125,0.0448383204638958,0.06379958987236023,-0.030780669301748276,-0.04311681538820267,-0.02728612720966339,-0.04047853872179985,0.07095474749803543,-0.03680611029267311,-0.05552542209625244,-0.020061159506440163,0.035901766270399094,-0.004950978327542543,0.06444047391414642,-0.2968699038028717,-0.027559276670217514,0.026027966290712357,0.07397818565368652,-0.004018434789031744,0.02609543316066265,-0.026228968054056168,-0.0008751014829613268,-0.06421690434217453,-0.09892608970403671,-0.06033245846629143,-0.051492467522621155,0.015337959863245487,0.03440752997994423,0.035530488938093185,0.04142330586910248,0.08567734062671661,-0.060155581682920456,-0.34864214062690735,0.034366581588983536,0.001533210277557373,-0.022190995514392853,-0.007036868948489428,-0.014338906854391098,-0.39918947219848633,-0.027102891355752945,0.008388075977563858,-0.01697133108973503,-0.05106201022863388,-0.05600258708000183,-0.04489186778664589,-0.0835355669260025,-0.06700754910707474,-0.06105523556470871,-0.09841343760490417,0.252038836479187,-0.07081316411495209,-0.018355295062065125,0.020332753658294678,-0.005067957565188408,-0.03206813335418701,0.28935813903808594,0.1740400344133377,0.0743507519364357,0.03893135488033295,0.0026753293350338936,0.04574735090136528,-0.2496623992919922,0.0890021100640297,-0.06105126067996025,0.027729419991374016,-0.025363177061080933,0.02349102310836315,0.2182922214269638,-0.3516923487186432,0.03703543171286583,-0.004511896055191755,0.027356859296560287,-0.03020310588181019,-0.13821834325790405,0.12509717047214508,-0.0620938204228878,-0.0722513422369957,-0.14717966318130493,-0.12554696202278137,-0.07696700841188431,0.3503015339374542,-0.1156330555677414,-0.11160577088594437,-0.11918286234140396,-0.13316106796264648,0.003944106865674257,-0.16550962626934052,0.021602757275104523,-0.0355684868991375,0.06414305418729782,0.04308795556426048,-0.015472900122404099,-0.33500221371650696,-0.009790291078388691,-0.0752607211470604,-0.044277582317590714,-0.09845330566167831,-0.30753156542778015,0.07523740828037262,0.04565002769231796,0.030020292848348618,0.11408516019582748,0.10173030942678452,0.07719919830560684,0.1462422013282776,-0.10738195478916168,-0.04019114375114441,-0.08609377592802048,-0.10105767101049423,-0.21526561677455902,-0.22532455623149872,0.002656215103343129,0.0644172951579094,0.118985615670681,0.19456687569618225,0.00857226550579071,-0.20958536863327026,0.004189837723970413,-0.03200088068842888,-0.04938230663537979,-0.08216802030801773,0.16921967267990112,0.13332968950271606,0.07165702432394028,0.0014394177123904228,-0.1216719001531601,0.007306699641048908,-0.170124813914299,0.010816526599228382,0.030884776264429092,-0.005959976464509964,0.048163581639528275,-0.01809784770011902,-0.006063519511371851,-0.03005007468163967,0.031358879059553146,-0.061696674674749374,0.06105761229991913,0.1455439031124115,0.31780144572257996,-0.156301349401474,-0.0666033923625946,-0.021058060228824615,-0.00781662855297327,-0.0676145926117897,-0.11454477906227112,-0.3454201817512512,7.468315016012639e-05,-0.004654239397495985,0.046902135014534,0.14431047439575195,0.1394234299659729,-0.1118447333574295,0.050656795501708984,-0.011598609387874603,-0.03232745826244354,0.06235768646001816,0.10555530339479446,0.16397808492183685,0.026933209970593452,0.014058379456400871,0.06274602562189102,0.14676041901111603,0.052670929580926895,-0.1285245716571808,-0.015676766633987427,0.018846388906240463,-0.016030732542276382,-0.04662025347352028,-0.041257988661527634,0.266801655292511,0.006188260857015848,-0.0031770390924066305,0.0006490916712209582,0.018616490066051483,0.03843531012535095,0.14306862652301788,-0.0966375321149826,-0.08061579614877701,-0.0649174302816391,-0.06758107990026474,-0.14928188920021057,0.24560882151126862,-0.004139653407037258,-0.0027372175827622414,-0.1110074371099472,-0.08627025783061981,-0.15110941231250763,-0.38113799691200256,-0.07484953850507736,-0.10630995780229568,-0.16577842831611633,-0.08223981410264969,0.17476163804531097,0.018274232745170593,0.006036895792931318,0.007462447043508291,0.027904348447918892,0.05110092833638191,-0.047397565096616745,-0.039199333637952805,-0.0676715075969696,-0.09843451529741287,0.012799344956874847,0.022091636434197426,-0.08481403440237045,-0.5152372121810913,0.00949960295110941,0.02050250954926014,0.015128249302506447,-0.14124025404453278,-0.1266534924507141,-0.2494676262140274,-0.007278551813215017,0.0017497360240668058,0.021089237183332443,0.14633338153362274,0.09764310717582703,0.30559349060058594,-0.016470175236463547,0.06703151762485504,-0.15739330649375916,-0.0021129476372152567,0.07621634006500244,0.035105206072330475,-0.08234931528568268,-0.061626702547073364,-0.16354422271251678,-0.09744612872600555,-0.11210811883211136,-0.11179429292678833,-0.003597788279876113,0.10202055424451828,0.03680979460477829,-0.1643168330192566,-0.08783861249685287,-0.11949291080236435,-0.06130227446556091,-0.012869753874838352,-0.016040243208408356,0.03400397673249245,-0.028285834938287735,-0.11037231236696243,0.0591171458363533,-0.006395555101335049,0.04771101102232933,0.056038279086351395,0.017524275928735733,0.02373392879962921,-0.15483085811138153,-0.21820835769176483,-0.17754589021205902,-0.43438687920570374,-0.21874620020389557,-0.10869289934635162,0.07336729764938354,0.10606091469526291,0.053552333265542984,0.17534232139587402,0.09031648933887482,-0.031099673360586166,0.019948964938521385,-0.023279353976249695,-0.002548009855672717,0.042996231466531754,-0.015045789070427418,0.05332541465759277,-0.019147038459777832,0.06595052033662796,0.0744541585445404,0.23870983719825745,0.18194659054279327,0.13315601646900177,0.15923117101192474,-0.021445367485284805,0.048229530453681946,-0.04071279987692833,0.051384758204221725,0.016688957810401917,0.02761760726571083,-0.152055025100708,-0.043087247759103775,-0.021161114796996117,-0.06367616355419159,-0.3485150635242462,0.1195957139134407,0.038334257900714874,0.08949589729309082,0.15092523396015167,0.07450441271066666,0.28539639711380005,0.023821664974093437,-0.06523803621530533,-0.1463904231786728,-0.12682797014713287,0.02787361480295658,0.13968653976917267,-0.027572959661483765,-0.012817855924367905,-0.09108517318964005,-0.19377052783966064,-0.15427261590957642,0.1941164880990982,0.01854376494884491,0.010484818369150162,0.07389993965625763,0.03782622888684273,0.08006307482719421,0.07731690257787704,-0.027926156297326088,-0.05800608545541763,-0.16966821253299713,-0.1645752638578415,-0.13382062315940857,0.07125512510538101,-0.06749290972948074,-0.053721606731414795,-0.01707436516880989,-0.06523628532886505,0.022947577759623528,-0.23568077385425568,-0.15623512864112854,-0.1543877273797989,-0.17116287350654602,-0.0827658548951149,-0.11174985021352768,-0.4458301067352295,-0.08459475636482239,-0.037958819419145584,-0.03762251138687134,-0.007300067692995071,0.15223903954029083,0.22736485302448273,0.07655791938304901,0.020821215584874153,0.09213076531887054,0.13228236138820648,0.028388334438204765,-0.09310336410999298,-0.020686158910393715,0.04683281108736992,0.09700828790664673,-0.03449482098221779,-0.01671547442674637,-0.08718675374984741,-0.09561201184988022,-0.054420869797468185,-0.07590704411268234,-0.17613506317138672,0.008243903517723083,0.10964971780776978,0.028798341751098633,0.004426043014973402,0.05635100230574608,-0.08651281148195267,-0.0354611761868,-0.07184353470802307,-0.04795648530125618,0.0018373237689957023,0.01729743927717209,0.05119329318404198,-0.024753453209996223,0.1237175464630127,0.21578121185302734,-0.06991072744131088,-0.3411253094673157,-0.235328808426857,-0.0787912979722023,-0.10588102787733078,0.029956666752696037,0.22510091960430145,-0.041144318878650665,0.030027104541659355,0.02163439244031906,-0.012209667824208736,0.02796146646142006,0.010636246763169765,0.00896933302283287,-0.01773156225681305,-0.020982420071959496,0.27903151512145996,-0.17211811244487762,0.13359434902668,0.07379826158285141,-0.07590002566576004,-0.25832971930503845,0.10081693530082703,0.1881801187992096,0.1345907300710678,-0.03586310148239136,-0.19181326031684875,-0.17899952828884125,0.032506827265024185,-0.03710288181900978,0.010107764042913914,0.07834909111261368,-0.05620556324720383,0.19521160423755646,-0.03726830333471298,0.21041245758533478,0.30304503440856934,0.2591104209423065,-0.08757828921079636,-0.09398078918457031,0.09456291049718857,-0.25656765699386597,0.034271083772182465,-0.05560906603932381,-0.5304475426673889,-0.40708690881729126,0.08507446944713593,0.16329823434352875,0.07756160199642181,-0.06026078388094902,0.32421359419822693,0.2852574586868286,0.06162622943520546,-0.12460717558860779,0.4594486355781555,0.03722101449966431,-0.0901818573474884,0.09444237500429153,0.11267313361167908,0.13622114062309265,0.07230900973081589,0.056270115077495575,0.24952031672000885,0.032107315957546234,0.24073900282382965,0.18547393381595612,0.021284829825162888,-0.1729818880558014,-0.0229941438883543,-0.14330342411994934,0.052406176924705505,-0.1286114603281021,0.2186916023492813,0.052265919744968414,0.023493828251957893,-0.30200809240341187,0.0886673703789711,0.020292580127716064,-0.2600592374801636,0.042862117290496826,0.5067049860954285,-0.04147368296980858,-0.2908289432525635,0.06008583679795265,0.3340926766395569,0.03022691421210766,0.07409732788801193,0.0030178935267031193,-0.017477795481681824,0.011897392570972443,0.01578555814921856,-0.04904786869883537,-0.052290406078100204,-0.04611141234636307,0.02135881409049034,-0.013624562881886959,-0.03451724722981453,0.14102277159690857,0.08649738132953644,-0.05022629722952843,0.011101152747869492,0.019807223230600357,-0.0446571446955204,-0.032820552587509155,0.12457624822854996,-0.06798123568296432,0.001000437419861555,-0.1235082596540451,0.0036359645891934633,0.019118009135127068,-0.18530765175819397,-0.04198328033089638,0.026972243562340736,-0.018338965252041817,-0.0701153427362442,-0.01967618800699711,-0.07199833542108536,-0.01985297165811062,0.018298322334885597,-0.012563364580273628,-0.038720790296792984,-0.030413908883929253,-0.027870019897818565,0.009200770407915115,-0.02261970564723015,-0.058160848915576935,-0.034275565296411514,0.1342979371547699,0.1310514360666275,-0.014624222181737423,0.02610696107149124,0.037589043378829956,-0.013282498344779015,-0.05923471227288246,0.341823011636734,-0.03320024907588959,-0.055273476988077164,0.0544896274805069,-0.13838878273963928,0.12322636693716049,-0.45570358633995056,-0.007265972904860973,0.08228790760040283,-0.006468634121119976,0.12564848363399506,0.05141764134168625,0.026415754109621048,-0.08856993913650513,-0.06711244583129883,0.0037514478899538517,0.1587536334991455,-0.026148634031414986,-0.06637874990701675,0.08637797832489014,0.14944100379943848,0.1420079916715622,0.14363384246826172,0.1632140725851059,-0.16727858781814575,0.005987169686704874,0.03153609111905098,0.10268111526966095,0.1810551881790161,0.12630009651184082,-0.045782238245010376,-0.04075749218463898,-0.0030007001478224993,0.045496661216020584,0.09171716868877411,0.10993224382400513,0.09892573207616806,0.03693592920899391,0.0834827870130539,0.0979035422205925,0.14843180775642395,0.04759617894887924,-0.1273326277732849,0.009180565364658833,-0.0099692577496171,-0.016742736101150513,-0.04496079683303833,0.11390278488397598,0.06861037015914917,-0.040773313492536545,-0.06273090839385986,-0.09997796267271042,-0.14831562340259552,-0.167376309633255,-0.1734241396188736,-0.010715844109654427,0.05291975662112236,-0.06094824895262718,0.05242959037423134,0.008055844344198704,0.038582731038331985,-0.026430610567331314,-0.018043411895632744,-0.04200267419219017,-0.11590546369552612,-0.12108917534351349,-0.15976715087890625,0.03728274628520012,-0.00826991070061922,-0.07054171711206436,-0.08705770969390869,-0.12625031173229218,-0.09688182920217514,0.042822156101465225,0.04400957375764847,0.03739418461918831,0.007795028388500214,-0.12006667256355286,-0.04538559913635254,0.0069109247997403145,0.03277519717812538,-0.06343254446983337,-0.020960744470357895,-0.10929499566555023,-0.04164063557982445,-0.03312305733561516,-0.006995956413447857,-0.06314819306135178,-0.039449166506528854,-0.06194018945097923,-0.23967325687408447,0.033586375415325165,0.030116038396954536,0.05755789205431938,0.058338116854429245,-0.0020750844851136208,0.10549471527338028,-0.02108135260641575,-0.08677937090396881,-0.08131726086139679,-0.08864893764257431,0.010329817421734333,-0.4422386884689331,0.06644143164157867,0.10731063038110733,0.08109018206596375,0.06700998544692993,0.0609261617064476,-0.10910674184560776,-0.007308444008231163,-0.06100841984152794,-0.0793348029255867,-0.14445723593235016,0.19150859117507935,0.03360248729586601,-0.006730414927005768,-0.06806115806102753,0.0007770496886223555,-0.11002390086650848,0.06519388407468796,0.04374892637133598,-0.02158191055059433,-0.06313227117061615,-0.10959462821483612,-0.15291397273540497,-0.01941073127090931,-0.11460927128791809,-0.005226647015661001,-0.05215424671769142,-0.009902408346533775,-0.016774728894233704,0.07238040864467621,0.09251490980386734,-0.049342356622219086,-0.05740341916680336,-0.14648526906967163,-0.10910820960998535,0.04848185554146767,0.13016420602798462,0.030839789658784866,0.034258246421813965,0.03774481639266014,0.02564610168337822,-0.18159079551696777,0.20073829591274261,0.04275941103696823,0.014884104020893574,0.09433632344007492,0.003005360020324588,0.17501719295978546,0.4872007966041565,-0.07926078885793686,0.07194574177265167,0.05457254871726036,-0.02965509332716465,0.14141689240932465,0.2197457104921341,-0.012162384577095509,0.027694983407855034,0.05476860702037811,0.05760631710290909,-0.20261667668819427,-0.0289881844073534,0.003947832155972719,0.04735042154788971,0.02423025853931904,0.041833192110061646,-0.010809367522597313,-0.07081801444292068,0.020886335521936417,0.067170649766922,0.08894842118024826,0.09373269230127335,-0.06000157818198204,0.11593634635210037,-0.02753438986837864,0.03773900121450424,0.06254186481237411,-0.003887800732627511,0.0624711737036705,-0.02468102052807808,0.05638176202774048,0.046835705637931824,0.20343518257141113,0.1438765972852707,-0.15280456840991974,-0.17370128631591797,-0.027451153844594955,0.01715204492211342,-0.07809103280305862,-0.051892995834350586,0.22760537266731262,-0.2097998857498169,0.006383773870766163,0.03575734794139862,-0.024610189720988274,0.03090495802462101,-0.0707763060927391,-0.19479277729988098,-0.05890098959207535,0.018782448023557663,0.06720231473445892,-0.08989884704351425,0.08441575616598129,-0.01862136460840702,0.026198143139481544,-0.004461402539163828,-0.0173458494246006,0.04459646716713905,0.2998656928539276,-0.01805838569998741,0.024640413001179695,0.027373282238841057,-0.034517765045166016,-0.08105500042438507,-0.06538844853639603,-0.29773464798927307,-0.030523262917995453,-0.04442784562706947,-0.08465657383203506,-0.07045375555753708,0.13315188884735107,-0.2543686032295227,-0.04814440384507179,0.04174558073282242,0.03691514953970909,-0.011246397159993649,-0.022803572937846184,0.022920511662960052,-0.02544468641281128,-0.013797501102089882,-0.10935910791158676,-0.10615668445825577,0.119843989610672,0.011723452247679234,-0.01970704458653927,-0.030590645968914032,0.0361463688313961,0.013820921070873737,-0.10461538285017014,0.12414786964654922,-0.018965618684887886,-0.02775580808520317,-0.040461644530296326,-0.03635181486606598,-0.04706575348973274,0.3146044909954071,0.04882572218775749,-0.005869453772902489,-0.00832345336675644,0.019979428499937057,0.030418895184993744,-0.1404336839914322,0.024804698303341866,-0.03883330523967743,-0.050354164093732834,-0.09468769282102585,-0.1868024617433548,0.12882837653160095,-0.0008063361747190356,-0.026691650971770287,-0.021089423447847366,-0.013201765716075897,-0.044280119240283966,0.176129549741745,-0.0031696695368736982,-0.023167209699749947,-0.02744690328836441,-0.0510399304330349,-0.04900091141462326,-0.050931695848703384,0.03580305352807045,0.015349063090980053,0.029444856569170952,0.04138268157839775,0.03935231640934944,-0.049049120396375656,-0.041761334985494614,0.04850160703063011,0.005682636983692646,-0.018938299268484116,0.012268925085663795,0.06324401497840881,0.02131224237382412,-0.044463276863098145,-0.023561976850032806,-0.008974556811153889,0.013752187602221966,-0.16098222136497498,-0.04360496997833252,-0.027899952605366707,-0.03042052686214447,-0.07634522765874863,-0.08503549546003342,0.08346019685268402,-0.4285213053226471,-0.47337594628334045,-0.43078893423080444,-0.3961775302886963,-0.5095584988594055,-0.5205569267272949,0.022181492298841476,-0.061526209115982056,0.0014724674401804805,0.002905867528170347,0.1168150082230568,-0.173343688249588,-0.060874197632074356,-0.045241761952638626,-0.1287931501865387,-0.04188054800033569,0.043049681931734085,0.048174772411584854,-0.06142859905958176,-0.042014751583337784,-0.0706949234008789,-0.035677701234817505,-0.03036867082118988,-0.26699137687683105,-0.27168428897857666,-0.20854878425598145,-0.24807822704315186,-0.2631480097770691,-0.4189411401748657,-0.4772750735282898,-0.07905153930187225,0.0047000702470541,-0.07284054160118103,-0.082063227891922,0.049626369029283524,0.19967769086360931,-0.020521797239780426,-0.07360158860683441,-0.024889253079891205,-0.014272855594754219,-0.12819233536720276,0.5100727677345276,-0.04429987818002701,0.09021088480949402,0.0042719715274870396,-0.06185014173388481,0.04591219872236252,0.03879965469241142,0.08152497559785843,-1.0855088233947754,0.015250133350491524,0.004328578244894743,0.004202092997729778,0.08105793595314026,-0.14931316673755646,0.09988351911306381,-0.12099800258874893,0.05260340869426727,0.1972949504852295,0.3949125409126282,0.2945570647716522,0.09864896535873413,-0.20121553540229797,0.12929081916809082,-0.15306974947452545,0.037325020879507065,0.027952121570706367,-0.20025303959846497,-0.06397201120853424,-0.15755103528499603,0.018297601491212845,0.16665154695510864,0.05504487082362175,0.042770449072122574,0.1811121106147766,-0.0882972776889801,0.18048425018787384,0.181182399392128,-0.15779994428157806,0.03097056970000267,-0.10280226916074753,-0.15248346328735352,0.15301822125911713,0.1609363704919815,-0.23267097771167755,-0.1226387619972229,0.450412392616272,0.17512626945972443,-0.22805005311965942,-0.5950918197631836,-0.030773382633924484,0.15866811573505402,0.12451536953449249,0.10496223717927933,-0.22248998284339905,0.016328221186995506,-0.002460047835484147,0.5508248209953308,-0.07778892666101456,0.07334597408771515,0.10383052378892899,0.1754583716392517,-0.18103952705860138,-0.05455077812075615,-0.15530315041542053,-0.12082448601722717,0.03814993053674698,-0.03949751704931259,0.034806568175554276,-0.016853317618370056,-0.07787934690713882,0.18331082165241241,0.018944773823022842,-0.6817325949668884,0.04506474733352661,0.006840324029326439,-0.06613602489233017,-0.009142098017036915,-0.1502680629491806,0.10519640892744064,-0.13939934968948364,-0.808350682258606,0.12500746548175812,0.3110039234161377,0.24423931539058685,-0.15353386104106903,0.11623627692461014,-0.19029657542705536,-0.0014088512398302555,0.2586115002632141,-0.06716408580541611,0.0276680625975132,-0.04310610890388489,-0.03791758045554161,0.01708194985985756,0.005203694570809603,-0.13203434646129608,-0.15187019109725952,-0.22060060501098633,-0.1505332887172699,-0.297073632478714,-0.3747398555278778,-0.06030873581767082,-0.05682427063584328,-0.05668994411826134,-0.10975202918052673,-0.038286156952381134,-0.06448783725500107,-0.06179751828312874,-0.053176842629909515,-0.06016707420349121,-0.0303847324103117,-0.0692523792386055,-0.22489072382450104,-0.02591809816658497,-0.0027372264303267,-0.05044529587030411,0.02681981958448887,-0.031196702271699905,0.11460297554731369,-0.07417179644107819,-0.05074566230177879,-0.09157030284404755,-0.047664303332567215,-0.14176951348781586,-0.1917394995689392,0.03007204644382,0.025280332192778587,0.005270710680633783,0.11011248081922531,0.03166326507925987,0.2621082663536072,-0.023212755098938942,-0.035652972757816315,-0.03529912605881691,-0.04856116324663162,-0.07017695158720016,0.15739066898822784,-0.016508322209119797,-0.02982219308614731,0.00246788514778018,0.022372620180249214,0.13403122127056122,-0.15503692626953125,0.037624869495630264,0.012025549076497555,-0.035856910049915314,-0.09214166551828384,-0.010474885813891888,0.11216037720441818,0.020939240232110023,-0.02702825330197811,-0.061491817235946655,-0.052354056388139725,0.10803274065256119,-0.03063461184501648,-0.006302874069660902,0.018152499571442604,0.06635745614767075,0.12750056385993958,0.49284157156944275,-0.13531489670276642,-0.03314989432692528,0.007498130667954683,-0.04200778529047966,0.03229042515158653,0.1712067574262619,-0.027424244210124016,0.025525517761707306,0.07126422971487045,-0.02279696986079216,-0.04729999601840973,-0.1757413148880005,-0.004016953054815531,-0.05072468891739845,-0.032715875655412674,-0.0014767926186323166,0.023829234763979912,0.13521239161491394,0.04040488228201866,0.017318351194262505,0.021974187344312668,0.018395481631159782,0.025404050946235657,0.13535350561141968,0.02437959983944893,0.016208305954933167,-0.020318657159805298,-0.0708945095539093,0.001486952998675406,-0.003351057879626751,-0.29646065831184387,0.023679375648498535,-0.03680276498198509,0.08730785548686981,0.027636613696813583,0.03818449750542641,0.014587302692234516,-0.036308418959379196,-0.03896887227892876,-0.011529214680194855,0.02901180274784565,0.04376508295536041,0.24534136056900024,-0.010740389116108418,-0.039626676589250565,-0.04078530892729759,0.005330332089215517,-0.06851842254400253,-0.010090661235153675,0.043937746435403824,0.03623567149043083,-0.000341179984388873,0.041993383318185806,-0.061515528708696365,-0.20188063383102417,0.07980430871248245,0.03359968215227127,0.04010704904794693,0.04491027817130089,-0.04609368368983269,-0.06171565502882004,0.010467777028679848,0.006174560636281967,-0.02764015644788742,-0.03918786719441414,-0.10631246864795685,0.16159288585186005,0.0032080651726573706,-0.00507635623216629,0.01864195056259632,0.01521088182926178,0.04321400448679924,0.2775218188762665,-0.010906782932579517,-0.008746324107050896,-0.030559802427887917,0.0032557013910263777,0.06859879195690155,-0.18481560051441193,-0.004392300732433796,-0.03304849565029144,-0.0031881737522780895,-0.021944591775536537,0.0037964058574289083,-0.04114143177866936,0.027483977377414703,0.020797617733478546,0.023061096668243408,0.023418636992573738,0.03475005924701691,-0.19425605237483978,0.01572529226541519,-0.007130878046154976,0.013410186395049095,0.010583502240478992,0.044269874691963196,0.18065211176872253,0.049511898308992386,0.04892588406801224,0.06105830892920494,0.02785297855734825,0.0019492015708237886,-0.04698173329234123,-0.053756579756736755,-0.04150848835706711,-0.06575394421815872,0.013333357870578766,-0.018956312909722328,-0.06810559332370758,-0.024368714541196823,0.0035384998191148043,0.014490173198282719,-0.0021155367139726877,0.03188470005989075,-0.2760656774044037,0.04676637798547745,0.011542520485818386,0.03662920370697975,-0.008086437359452248,-0.025475861504673958,-0.24691568315029144,-0.03851325437426567,0.006582137197256088,-0.029547687619924545,-0.010222043842077255,-0.013945377431809902,-0.00473877415060997,-0.14668788015842438,-0.15192583203315735,-0.18037375807762146,-0.19539038836956024,-0.28251826763153076,-0.5970653891563416,-0.050956275314092636,-0.008841358125209808,-0.033653922379016876,-0.09855476021766663,-0.03627924621105194,1.538195283501409e-05,-0.036812588572502136,-0.021073516458272934,-0.017784863710403442,0.004201174713671207,-0.027247367426753044,-0.3258650600910187,-0.03529585152864456,-0.058739956468343735,-0.05321882292628288,-0.023765230551362038,0.02735096774995327,0.1778099536895752,-0.061262696981430054,-0.04139178618788719,-0.04586135596036911,-0.06506248563528061,-0.14107665419578552,-0.0645219162106514,0.014628148637712002,0.0009965994395315647,-0.00045542101725004613,0.08734796196222305,0.057048965245485306,0.1460583657026291,-0.03219194710254669,-0.05545438453555107,-0.04854319244623184,-0.07202618569135666,-0.05499332398176193,0.11844988912343979,-0.012263234704732895,-0.003967948257923126,0.0643761083483696,0.060753196477890015,0.08500219881534576,-0.11219914257526398,-0.07738842815160751,-0.12091457098722458,-0.0764140635728836,-0.11785729229450226,-0.2654692828655243,-0.28523725271224976,-0.05543048307299614,-0.03364664316177368,-0.033098526298999786,0.054135896265506744,0.04127928614616394,-0.2988511621952057,-0.022076116874814034,-0.007990937680006027,0.05212594196200371,0.0686546042561531,0.03380489721894264,-0.13783422112464905,0.001285427249968052,0.012200594879686832,0.017396075651049614,0.05728873983025551,0.166300430893898,0.055026546120643616,-0.001013385015539825,0.012029417790472507,-0.08179040998220444,-0.017557293176651,-0.07304836064577103,0.11810353398323059,0.06077659875154495,0.05128594860434532,0.09620168060064316,0.020040716975927353,0.12236800789833069,-0.2506040632724762,-0.05567564070224762,-0.05910927802324295,-0.027846354991197586,-0.03503846377134323,-0.08855082839727402,-0.047343652695417404,0.029888402670621872,0.016767671331763268,0.12618376314640045,0.13523180782794952,0.10547548532485962,0.052992817014455795,0.017781946808099747,0.024465175345540047,0.13243985176086426,-0.05729910731315613,-0.040565554052591324,0.030434591695666313,0.009641733020544052,0.0544729046523571,0.13723376393318176,0.17515131831169128,0.10631720721721649,-0.26821696758270264,0.027896560728549957,0.02185846120119095,0.07782763987779617,0.11284377425909042,0.10886171460151672,-0.45415961742401123,0.037859536707401276,0.03180291876196861,0.07364075630903244,0.04958372190594673,0.17179659008979797,-0.024805786088109016,0.03685930371284485,0.025350933894515038,0.0029671613592654467,-0.0032973240595310926,-0.04178741201758385,0.23572532832622528,0.042406633496284485,0.030941974371671677,0.04899652302265167,0.010463996790349483,0.17708982527256012,-0.205412358045578,-0.02723180130124092,-0.034724652767181396,-0.0187316183000803,-0.07382932305335999,-0.0850987583398819,-0.1791985034942627,-0.03809792548418045,-0.03892400488257408,-0.025124620646238327,-0.0545463040471077,-0.06869035214185715,0.13220229744911194,-0.01795564778149128,0.08731867372989655,0.019432255998253822,0.03767937794327736,0.06196434423327446,0.08674106746912003,-0.0019213106716051698,-0.014717516489326954,-0.01576666720211506,0.009345602244138718,-0.053630124777555466,-0.08057357370853424,-0.03112434595823288,0.0045717335306108,-0.011218360625207424,-0.08856947720050812,-0.10245506465435028,-0.07663039863109589,-0.03099244087934494,-0.010822692885994911,-0.03934179246425629,-0.08031775057315826,-0.10971499979496002,0.047048866748809814,-0.021638832986354828,0.01911371573805809,-0.05646992474794388,-0.06086154654622078,-0.03476976603269577,-0.20409895479679108,-0.031644560396671295,-0.012099101208150387,0.0011568666668608785,-0.02228666841983795,-0.0468413271009922,-0.2475767284631729,0.012948944233357906,0.03110918030142784,0.011859173886477947,0.00024357051006518304,0.03880231827497482,0.006009411532431841,-0.7305476069450378,0.058898381888866425,0.04901948943734169,